{"learner":{"attributes":{"best_iteration":"499","best_ntree_limit":"500","scikit_learn":"{\"use_label_encoder\": false, \"n_estimators\": 500, \"objective\": \"binary:logistic\", \"max_depth\": 3, \"learning_rate\": null, \"verbosity\": null, \"booster\": null, \"tree_method\": null, \"gamma\": null, \"min_child_weight\": null, \"max_delta_step\": null, \"subsample\": null, \"colsample_bytree\": null, \"colsample_bylevel\": null, \"colsample_bynode\": null, \"reg_alpha\": null, \"reg_lambda\": null, \"scale_pos_weight\": 8.837908808784913, \"base_score\": null, \"missing\": NaN, \"num_parallel_tree\": null, \"random_state\": null, \"n_jobs\": 6, \"monotone_constraints\": null, \"interaction_constraints\": null, \"importance_type\": null, \"gpu_id\": null, \"validate_parameters\": null, \"predictor\": null, \"enable_categorical\": false, \"classes_\": [0, 1], \"n_classes_\": 2, \"_estimator_type\": \"classifier\"}"},"feature_names":[],"feature_types":[],"gradient_booster":{"model":{"gbtree_model_param":{"num_trees":"500","size_leaf_vector":"0"},"tree_info":[0,0,0,0,0,0,0,0,0,0,0,0,0,0,0,0,0,0,0,0,0,0,0,0,0,0,0,0,0,0,0,0,0,0,0,0,0,0,0,0,0,0,0,0,0,0,0,0,0,0,0,0,0,0,0,0,0,0,0,0,0,0,0,0,0,0,0,0,0,0,0,0,0,0,0,0,0,0,0,0,0,0,0,0,0,0,0,0,0,0,0,0,0,0,0,0,0,0,0,0,0,0,0,0,0,0,0,0,0,0,0,0,0,0,0,0,0,0,0,0,0,0,0,0,0,0,0,0,0,0,0,0,0,0,0,0,0,0,0,0,0,0,0,0,0,0,0,0,0,0,0,0,0,0,0,0,0,0,0,0,0,0,0,0,0,0,0,0,0,0,0,0,0,0,0,0,0,0,0,0,0,0,0,0,0,0,0,0,0,0,0,0,0,0,0,0,0,0,0,0,0,0,0,0,0,0,0,0,0,0,0,0,0,0,0,0,0,0,0,0,0,0,0,0,0,0,0,0,0,0,0,0,0,0,0,0,0,0,0,0,0,0,0,0,0,0,0,0,0,0,0,0,0,0,0,0,0,0,0,0,0,0,0,0,0,0,0,0,0,0,0,0,0,0,0,0,0,0,0,0,0,0,0,0,0,0,0,0,0,0,0,0,0,0,0,0,0,0,0,0,0,0,0,0,0,0,0,0,0,0,0,0,0,0,0,0,0,0,0,0,0,0,0,0,0,0,0,0,0,0,0,0,0,0,0,0,0,0,0,0,0,0,0,0,0,0,0,0,0,0,0,0,0,0,0,0,0,0,0,0,0,0,0,0,0,0,0,0,0,0,0,0,0,0,0,0,0,0,0,0,0,0,0,0,0,0,0,0,0,0,0,0,0,0,0,0,0,0,0,0,0,0,0,0,0,0,0,0,0,0,0,0,0,0,0,0,0,0,0,0,0,0,0,0,0,0,0,0,0,0,0,0,0,0,0,0,0,0,0,0,0,0,0,0,0,0,0,0,0,0,0,0,0,0,0,0,0,0,0,0,0,0,0,0,0,0,0,0,0,0,0,0,0,0,0,0,0,0,0,0,0,0,0,0,0,0,0,0,0,0,0,0,0,0,0,0,0,0,0,0],"trees":[{"base_weights":[-7.238075E-9,1.2794123E0,-1.6480258E0,1.5322897E0,-1.439917E0,1.2884678E-1,-1.8433298E0,1.6344557E0,-3.45913E-1,8.782557E-1,-1.8233178E0,-1.0593224E0,1.0450532E0,-1.9484979E0,-1.2330092E0],"categories":[],"categories_nodes":[],"categories_segments":[],"categories_sizes":[],"default_left":[true,true,true,true,true,true,true,false,false,false,false,false,false,false,false],"id":0,"left_children":[1,3,5,7,9,11,13,-1,-1,-1,-1,-1,-1,-1,-1],"loss_changes":[3.9034742E4,7.169E3,2.808041E3,1.830377E3,7.901625E2,8.7436584E2,4.655E2,0E0,0E0,0E0,0E0,0E0,0E0,0E0,0E0],"parents":[2147483647,0,0,1,1,2,2,3,3,4,4,5,5,6,6],"right_children":[2,4,6,8,10,12,14,-1,-1,-1,-1,-1,-1,-1,-1],"split_conditions":[-1.14001594E-1,-6.2885033E-3,-3.538169E-2,-1.2862356E-2,-1.0659269E-1,9.011261E-2,8.805918E-4,4.9033672E-1,-1.037739E-1,2.6347673E-1,-5.4699534E-1,-3.177967E-1,3.13516E-1,-5.8454937E-1,-3.699028E-1],"split_indices":[250,726,146,256,805,639,309,0,0,0,0,0,0,0,0],"split_type":[0,0,0,0,0,0,0,0,0,0,0,0,0,0,0],"sum_hessian":[1.8511E4,1.0421048E4,8.0899517E3,9.534817E3,8.862307E2,8.011791E2,7.2887725E3,9.043046E3,4.917719E2,1.2558856E2,7.6064215E2,3.4875064E2,4.5242844E2,6.215541E3,1.0732313E3],"tree_param":{"num_deleted":"0","num_feature":"1024","num_nodes":"15","size_leaf_vector":"0"}},{"base_weights":[-1.6293208E-3,1.0173723E0,-1.2145687E0,-8.3330005E-1,1.1996969E0,-1.4763882E0,-1.0360846E-1,-1.5912153E0,1.738898E-1,-4.4729102E-1,1.2935075E0,8.453804E-1,-1.5010663E0,6.876951E-1,-1.3182442E0],"categories":[],"categories_nodes":[],"categories_segments":[],"categories_sizes":[],"default_left":[true,true,true,true,true,true,true,false,false,false,false,false,false,false,false],"id":1,"left_children":[1,3,5,7,9,11,13,-1,-1,-1,-1,-1,-1,-1,-1],"loss_changes":[2.1475578E4,3.18712E3,2.307251E3,6.47167E2,1.3287168E3,3.6909766E2,1.4561039E3,0E0,0E0,0E0,0E0,0E0,0E0,0E0,0E0],"parents":[2147483647,0,0,1,1,2,2,3,3,4,4,5,5,6,6],"right_children":[2,4,6,8,10,12,14,-1,-1,-1,-1,-1,-1,-1,-1],"split_conditions":[-1.4111832E-2,1.7374426E-2,1.5659179E-3,7.1079144E-3,-7.524057E-2,-1.0297826E-1,-8.26763E-2,-4.773646E-1,5.2166943E-2,-1.3418731E-1,3.8805225E-1,2.5361413E-1,-4.5031992E-1,2.0630853E-1,-3.9547327E-1],"split_indices":[146,548,309,181,44,381,250,0,0,0,0,0,0,0,0],"split_type":[0,0,0,0,0,0,0,0,0,0,0,0,0,0,0],"sum_hessian":[1.7373244E4,9.441508E3,7.9317363E3,8.464198E2,8.595089E3,6.4187124E3,1.5130238E3,4.826463E2,3.6377353E2,4.6298102E2,8.1321074E3,6.715709E1,6.351555E3,9.164284E2,5.9659546E2],"tree_param":{"num_deleted":"0","num_feature":"1024","num_nodes":"15","size_leaf_vector":"0"}},{"base_weights":[-5.0992323E-3,7.737054E-1,-1.0998117E0,-5.930647E-1,1.0617547E0,4.6631435E-1,-1.2378675E0,2.6284218E-1,-1.1187127E0,-6.64176E-1,1.1167898E0,1.1414307E0,-1.0927874E0,2.631861E-1,-1.2964036E0],"categories":[],"categories_nodes":[],"categories_segments":[],"categories_sizes":[],"default_left":[true,true,true,true,true,true,true,false,false,false,false,false,false,false,false],"id":2,"left_children":[1,3,5,7,9,11,13,-1,-1,-1,-1,-1,-1,-1,-1],"loss_changes":[1.3093132E4,3.533435E3,1.3808569E3,7.033235E2,7.047656E2,5.4636096E2,5.158506E2,0E0,0E0,0E0,0E0,0E0,0E0,0E0,0E0],"parents":[2147483647,0,0,1,1,2,2,3,3,4,4,5,5,6,6],"right_children":[2,4,6,8,10,12,14,-1,-1,-1,-1,-1,-1,-1,-1],"split_conditions":[-8.938956E-2,-1.31923E-2,-6.1501168E-2,-1.7526947E-2,1.150742E-2,-2.785353E-2,-4.5605622E-2,7.885265E-2,-3.3561382E-1,-1.992528E-1,3.3503696E-1,3.4242922E-1,-3.2783622E-1,7.895583E-2,-3.889211E-1],"split_indices":[559,460,381,527,29,970,497,0,0,0,0,0,0,0,0],"split_type":[0,0,0,0,0,0,0,0,0,0,0,0,0,0,0],"sum_hessian":[1.5355304E4,8.97241E3,6.382894E3,1.561615E3,7.410795E3,5.1688574E2,5.8660083E3,5.943467E2,9.672683E2,2.2866542E2,7.1821294E3,3.608847E2,1.5600104E2,2.2003769E2,5.6459707E3],"tree_param":{"num_deleted":"0","num_feature":"1024","num_nodes":"15","size_leaf_vector":"0"}},{"base_weights":[-7.076208E-3,-7.37881E-1,8.648039E-1,9.101285E-2,-1.0472604E0,9.6975255E-1,-6.140614E-1,7.150148E-1,-6.1204356E-1,-1.163943E0,-4.6265084E-1,3.0264106E-1,1.07793E0,-1.2063149E0,6.4207864E-1],"categories":[],"categories_nodes":[],"categories_segments":[],"categories_sizes":[],"default_left":[true,true,true,true,true,true,true,false,false,false,false,false,false,false,false],"id":3,"left_children":[1,3,5,7,9,11,13,-1,-1,-1,-1,-1,-1,-1,-1],"loss_changes":[8.442551E3,1.8485728E3,9.383179E2,8.603391E2,3.575205E2,4.0682764E2,2.99073E2,0E0,0E0,0E0,0E0,0E0,0E0,0E0,0E0],"parents":[2147483647,0,0,1,1,2,2,3,3,4,4,5,5,6,6],"right_children":[2,4,6,8,10,12,14,-1,-1,-1,-1,-1,-1,-1,-1],"split_conditions":[4.9330946E-2,-2.5905872E-2,-7.677181E-2,-2.4381962E-2,2.1773398E-2,-1.774969E-2,2.3228392E-2,2.1450445E-1,-1.8361308E-1,-3.4918293E-1,-1.3879526E-1,9.079232E-2,3.23379E-1,-3.618945E-1,1.926236E-1],"split_indices":[142,381,559,970,610,995,87,0,0,0,0,0,0,0,0],"split_type":[0,0,0,0,0,0,0,0,0,0,0,0,0,0,0],"sum_hessian":[1.3247986E4,7.20715E3,6.040837E3,1.9590745E3,5.248075E3,5.640873E3,3.999639E2,1.0378804E3,9.2119403E2,4.3740625E3,8.740129E2,7.876108E2,4.853262E3,2.718363E2,1.2812758E2],"tree_param":{"num_deleted":"0","num_feature":"1024","num_nodes":"15","size_leaf_vector":"0"}},{"base_weights":[-6.984061E-3,5.7642704E-1,-8.5686684E-1,8.1682146E-1,-2.655563E-1,-1.0697973E0,-5.519126E-2,-4.2321694E-1,9.107549E-1,-9.9688137E-1,2.3752262E-1,-1.1190035E0,7.793684E-1,-1.2929939E0,2.480191E-1],"categories":[],"categories_nodes":[],"categories_segments":[],"categories_sizes":[],"default_left":[true,true,true,true,true,true,true,false,false,false,false,false,false,false,false],"id":4,"left_children":[1,3,5,7,9,11,13,-1,-1,-1,-1,-1,-1,-1,-1],"loss_changes":[5.6875913E3,1.3769409E3,7.969624E2,6.167239E2,5.563049E2,3.3655225E2,3.6848068E2,0E0,0E0,0E0,0E0,0E0,0E0,0E0,0E0],"parents":[2147483647,0,0,1,1,2,2,3,3,4,4,5,5,6,6],"right_children":[2,4,6,8,10,12,14,-1,-1,-1,-1,-1,-1,-1,-1],"split_conditions":[-4.3298516E-2,8.930241E-3,1.2234181E-1,1.5235733E-2,7.4129086E-3,4.3336563E-2,-1.4401528E-2,-1.2696509E-1,2.732265E-1,-2.9906443E-1,7.125679E-2,-3.3570108E-1,2.3381053E-1,-3.8789818E-1,7.440573E-2],"split_indices":[8,651,991,29,1019,12,350,0,0,0,0,0,0,0,0],"split_type":[0,0,0,0,0,0,0,0,0,0,0,0,0,0,0],"sum_hessian":[1.146883E4,6.800723E3,4.668107E3,5.290316E3,1.5104069E3,3.68817E3,9.79937E2,3.7227805E2,4.918038E3,6.151633E2,8.952435E2,3.592956E3,9.5213776E1,1.9217052E2,7.8776654E2],"tree_param":{"num_deleted":"0","num_feature":"1024","num_nodes":"15","size_leaf_vector":"0"}},{"base_weights":[-9.123601E-3,5.751037E-1,-6.8812734E-1,7.693885E-1,-4.8262843E-1,-2.1402201E-1,-1.091444E0,2.531523E-1,9.521982E-1,2.4041456E-1,-9.968925E-1,-9.0007305E-1,1.0106363E-1,2.9681497E0,-1.0983837E0],"categories":[],"categories_nodes":[],"categories_segments":[],"categories_sizes":[],"default_left":[true,true,true,true,true,true,true,false,false,false,false,false,false,false,false],"id":5,"left_children":[1,3,5,7,9,11,13,-1,-1,-1,-1,-1,-1,-1,-1],"loss_changes":[3.9315764E3,1.0951271E3,8.7622656E2,4.2452832E2,3.0785245E2,4.5580267E2,7.302783E1,0E0,0E0,0E0,0E0,0E0,0E0,0E0,0E0],"parents":[2147483647,0,0,1,1,2,2,3,3,4,4,5,5,6,6],"right_children":[2,4,6,8,10,12,14,-1,-1,-1,-1,-1,-1,-1,-1],"split_conditions":[-3.879131E-2,2.9832646E-2,-7.757788E-2,7.919118E-3,-1.7842177E-2,8.501052E-3,-6.1829526E-2,7.59457E-2,2.8565946E-1,7.212437E-2,-2.9906777E-1,-2.7002192E-1,3.0319091E-2,8.9044493E-1,-3.295151E-1],"split_indices":[815,828,559,221,140,437,774,0,0,0,0,0,0,0,0],"split_type":[0,0,0,0,0,0,0,0,0,0,0,0,0,0,0],"sum_hessian":[9.908894E3,5.326246E3,4.5826475E3,4.4999634E3,8.2628284E2,2.1071677E3,2.4754797E3,1.1774233E3,3.3225398E3,3.436507E2,4.8263214E2,6.626001E2,1.4445675E3,3.4962845E0,2.4719834E3],"tree_param":{"num_deleted":"0","num_feature":"1024","num_nodes":"15","size_leaf_vector":"0"}},{"base_weights":[-9.897789E-3,3.759878E-1,-7.9259855E-1,-9.4096534E-2,7.1566933E-1,-9.7565E-1,-3.7598154E-1,-1.025142E0,8.923765E-2,7.65345E-1,-1.9419719E0,-1.0282607E0,-5.959269E-2,-8.266336E-1,2.0720582E-1],"categories":[],"categories_nodes":[],"categories_segments":[],"categories_sizes":[],"default_left":[true,true,true,true,true,true,true,false,false,false,false,false,false,false,false],"id":6,"left_children":[1,3,5,7,9,11,13,-1,-1,-1,-1,-1,-1,-1,-1],"loss_changes":[2.60489E3,9.224667E2,2.1682446E2,4.138591E2,4.4422034E2,9.526599E1,2.2907642E2,0E0,0E0,0E0,0E0,0E0,0E0,0E0,0E0],"parents":[2147483647,0,0,1,1,2,2,3,3,4,4,5,5,6,6],"right_children":[2,4,6,8,10,12,14,-1,-1,-1,-1,-1,-1,-1,-1],"split_conditions":[-9.5847964E-2,7.295717E-3,-3.086213E-3,-4.062417E-2,2.778123E-2,3.77936E-2,2.8762995E-4,-3.075426E-1,2.6771298E-2,2.296035E-1,-5.825916E-1,-3.0847824E-1,-1.7877808E-2,-2.4799009E-1,6.2161747E-2],"split_indices":[250,221,309,377,7,138,350,0,0,0,0,0,0,0,0],"split_type":[0,0,0,0,0,0,0,0,0,0,0,0,0,0,0],"sum_hessian":[8.622535E3,5.775587E3,2.8469487E3,2.4230532E3,3.3525334E3,1.9769728E3,8.699759E2,3.978776E2,2.0251757E3,3.291718E3,6.0815582E1,1.8694828E3,1.0749008E2,4.905167E2,3.7945917E2],"tree_param":{"num_deleted":"0","num_feature":"1024","num_nodes":"15","size_leaf_vector":"0"}},{"base_weights":[-1.1913017E-2,3.9564613E-1,-5.9024733E-1,5.5017537E-1,-8.743316E-1,-3.8921688E-2,-9.2532873E-1,6.1888474E-1,-9.991425E-1,-2.9144144E0,-7.104813E-1,2.562575E-1,-1.0559542E0,-9.9411964E-1,3.6042953E-1],"categories":[],"categories_nodes":[],"categories_segments":[],"categories_sizes":[],"default_left":[true,true,true,true,true,true,true,false,false,false,false,false,false,false,false],"id":7,"left_children":[1,3,5,7,9,11,13,-1,-1,-1,-1,-1,-1,-1,-1],"loss_changes":[1.7904241E3,8.749486E2,5.800658E2,4.235714E2,1.5963495E2,3.569395E2,1.731018E2,0E0,0E0,0E0,0E0,0E0,0E0,0E0,0E0],"parents":[2147483647,0,0,1,1,2,2,3,3,4,4,5,5,6,6],"right_children":[2,4,6,8,10,12,14,-1,-1,-1,-1,-1,-1,-1,-1],"split_conditions":[-5.175459E-3,6.023925E-3,-4.8873547E-2,-3.757815E-2,-5.7654656E-2,-9.020813E-3,3.098475E-2,1.8566543E-1,-2.9974276E-1,-8.743244E-1,-2.1314439E-1,7.687725E-2,-3.167863E-1,-2.982359E-1,1.0812886E-1],"split_indices":[527,60,176,250,726,242,277,0,0,0,0,0,0,0,0],"split_type":[0,0,0,0,0,0,0,0,0,0,0,0,0,0,0],"sum_hessian":[7.594032E3,4.4549155E3,3.1391167E3,3.9721558E3,4.8275992E2,1.1870771E3,1.9520396E3,3.8040535E3,1.6810219E2,3.4642517E1,4.481174E2,9.2062646E2,2.6645068E2,1.8531204E3,9.891925E1],"tree_param":{"num_deleted":"0","num_feature":"1024","num_nodes":"15","size_leaf_vector":"0"}},{"base_weights":[-1.2831165E-2,3.314844E-1,-5.501798E-1,-1.1230617E-1,6.358263E-1,-8.976587E-1,-1.5260053E-1,-1.7958534E0,3.4423615E-3,-1.5280572E0,6.8653846E-1,-9.677667E-1,5.908187E-1,-2.138403E-2,-1.676261E0],"categories":[],"categories_nodes":[],"categories_segments":[],"categories_sizes":[],"default_left":[true,true,true,true,true,true,true,false,false,false,false,false,false,false,false],"id":8,"left_children":[1,3,5,7,9,11,13,-1,-1,-1,-1,-1,-1,-1,-1],"loss_changes":[1.2521289E3,5.571692E2,3.6498694E2,3.271476E2,2.695611E2,1.4772473E2,2.466404E2,0E0,0E0,0E0,0E0,0E0,0E0,0E0,0E0],"parents":[2147483647,0,0,1,1,2,2,3,3,4,4,5,5,6,6],"right_children":[2,4,6,8,10,12,14,-1,-1,-1,-1,-1,-1,-1,-1],"split_conditions":[-3.473305E-2,1.3962046E-2,1.6421914E-2,-1.5715051E-2,-1.648591E-2,3.947801E-2,4.2209845E-2,-5.38756E-1,1.0327084E-3,-4.5841718E-1,2.0596154E-1,-2.9033002E-1,1.7724562E-1,-6.4152093E-3,-5.028783E-1],"split_indices":[815,341,29,794,255,16,126,0,0,0,0,0,0,0,0],"split_type":[0,0,0,0,0,0,0,0,0,0,0,0,0,0,0],"sum_hessian":[6.765638E3,4.123693E3,2.6419453E3,1.6777838E3,2.445909E3,1.4091284E3,1.2328169E3,1.0699793E2,1.5707859E3,5.534193E1,2.3905671E3,1.3460774E3,6.305107E1,1.1359995E3,9.681739E1],"tree_param":{"num_deleted":"0","num_feature":"1024","num_nodes":"15","size_leaf_vector":"0"}},{"base_weights":[-1.1253443E-2,-4.6783146E-1,3.026909E-1,-8.1195927E-1,-1.0519541E-1,5.3187954E-1,-2.3552102E-1,-8.942235E-1,4.221892E-1,1.7788553E-1,-8.841083E-1,5.8806384E-1,-1.2074047E0,1.3846216E-1,-9.9372345E-1],"categories":[],"categories_nodes":[],"categories_segments":[],"categories_sizes":[],"default_left":[true,true,true,true,true,true,true,false,false,false,false,false,false,false,false],"id":9,"left_children":[1,3,5,7,9,11,13,-1,-1,-1,-1,-1,-1,-1,-1],"loss_changes":[8.859032E2,3.1416443E2,4.5187448E2,1.3154004E2,2.7076242E2,2.517367E2,3.1047513E2,0E0,0E0,0E0,0E0,0E0,0E0,0E0,0E0],"parents":[2147483647,0,0,1,1,2,2,3,3,4,4,5,5,6,6],"right_children":[2,4,6,8,10,12,14,-1,-1,-1,-1,-1,-1,-1,-1],"split_conditions":[1.9026604E-2,5.16338E-3,-7.918915E-3,2.9081864E-2,-4.5405075E-2,6.348666E-2,-4.2908773E-2,-2.6826707E-1,1.2665677E-1,5.3365663E-2,-2.652325E-1,1.7641915E-1,-3.6222142E-1,4.153865E-2,-2.9811704E-1],"split_indices":[365,1019,489,91,820,94,552,0,0,0,0,0,0,0,0],"split_type":[0,0,0,0,0,0,0,0,0,0,0,0,0,0,0],"sum_hessian":[6.1784414E3,2.517166E3,3.6612754E3,1.2909062E3,1.2262599E3,2.5678225E3,1.093453E3,1.2104941E3,8.041212E1,8.9995874E2,3.2630112E2,2.4881106E3,7.971188E1,7.3281134E2,3.6064163E2],"tree_param":{"num_deleted":"0","num_feature":"1024","num_nodes":"15","size_leaf_vector":"0"}},{"base_weights":[-1.0187067E-2,1.1571621E-1,-9.545054E-1,4.3366206E-1,-1.6474122E-1,2.7417665E0,-9.7841257E-1,-9.443532E-1,5.350079E-1,-6.4595693E-1,1.8163752E-2,3.8065462E0,1.3635956E0,-9.914474E-1,3.2645028E0],"categories":[],"categories_nodes":[],"categories_segments":[],"categories_sizes":[],"default_left":[true,true,true,true,true,true,true,false,false,false,false,false,false,false,false],"id":10,"left_children":[1,3,5,7,9,11,13,-1,-1,-1,-1,-1,-1,-1,-1],"loss_changes":[6.7583844E2,4.4732986E2,6.177643E1,3.2884396E2,2.3464038E2,1.5016937E0,4.002423E1,0E0,0E0,0E0,0E0,0E0,0E0,0E0,0E0],"parents":[2147483647,0,0,1,1,2,2,3,3,4,4,5,5,6,6],"right_children":[2,4,6,8,10,12,14,-1,-1,-1,-1,-1,-1,-1,-1],"split_conditions":[1.2728792E-2,9.643515E-3,-8.744958E-2,-1.9875467E-2,1.0160388E-2,-2.3828205E-2,3.6073294E-2,-2.8330597E-1,1.6050237E-1,-1.9378708E-1,5.4491255E-3,1.141964E0,4.090787E-1,-2.9743424E-1,9.7935086E-1],"split_indices":[642,863,605,720,437,1,939,0,0,0,0,0,0,0,0],"split_type":[0,0,0,0,0,0,0,0,0,0,0,0,0,0,0],"sum_hessian":[5.6825083E3,5.0147793E3,6.677289E2,2.3500522E3,2.6647273E3,3.5604892E0,6.6416833E2,1.6042393E2,2.1896284E3,7.3319324E2,1.9315339E3,1.0145874E0,2.5459018E0,6.628982E2,1.2701912E0],"tree_param":{"num_deleted":"0","num_feature":"1024","num_nodes":"15","size_leaf_vector":"0"}},{"base_weights":[-9.123374E-3,-6.7850155E-1,1.3238177E-1,1.5120389E-1,-9.5639867E-1,3.3118194E-1,-4.1253364E-1,6.021282E-1,-8.911219E-1,-1.0140853E0,2.3174083E0,-1.4909904E-1,5.1049286E-1,1.603519E-1,-7.2565603E-1],"categories":[],"categories_nodes":[],"categories_segments":[],"categories_sizes":[],"default_left":[true,true,true,true,true,true,true,false,false,false,false,false,false,false,false],"id":11,"left_children":[1,3,5,7,9,11,13,-1,-1,-1,-1,-1,-1,-1,-1],"loss_changes":[5.032511E2,2.1392203E2,4.752589E2,1.102779E2,1.3354218E2,2.768715E2,2.1050215E2,0E0,0E0,0E0,0E0,0E0,0E0,0E0,0E0],"parents":[2147483647,0,0,1,1,2,2,3,3,4,4,5,5,6,6],"right_children":[2,4,6,8,10,12,14,-1,-1,-1,-1,-1,-1,-1,-1],"split_conditions":[-4.7877193E-3,-5.1581282E-2,1.1548306E-2,-4.2301174E-3,3.311471E-2,-3.63113E-2,-1.411416E-2,1.8063846E-1,-2.6733658E-1,-3.042256E-1,6.952225E-1,-4.4729713E-2,1.5314786E-1,4.810557E-2,-2.1769682E-1],"split_indices":[198,521,527,693,338,560,155,0,0,0,0,0,0,0,0],"split_type":[0,0,0,0,0,0,0,0,0,0,0,0,0,0,0],"sum_hessian":[5.3110664E3,9.2615814E2,4.384908E3,2.3248717E2,6.9367096E2,3.21308E3,1.1718281E3,1.6257663E2,6.991054E1,6.8233795E2,1.133301E1,8.735259E2,2.3395542E3,4.1430603E2,7.575221E2],"tree_param":{"num_deleted":"0","num_feature":"1024","num_nodes":"15","size_leaf_vector":"0"}},{"base_weights":[-8.960988E-3,1.01176724E-1,-7.8424925E-1,2.0016664E-1,-6.4289373E-1,-9.816913E-1,2.0939371E-1,-2.8737903E-1,3.3256203E-1,5.043562E-1,-8.5194266E-1,6.630482E-1,-1.0472654E0,8.216573E-1,-1.2869393E0],"categories":[],"categories_nodes":[],"categories_segments":[],"categories_sizes":[],"default_left":[true,true,true,true,true,true,true,false,false,false,false,false,false,false,false],"id":12,"left_children":[1,3,5,7,9,11,13,-1,-1,-1,-1,-1,-1,-1,-1],"loss_changes":[4.246275E2,3.2085306E2,1.2156171E2,2.4821266E2,1.2310773E2,5.6368927E1,9.5753525E1,0E0,0E0,0E0,0E0,0E0,0E0,0E0,0E0],"parents":[2147483647,0,0,1,1,2,2,3,3,4,4,5,5,6,6],"right_children":[2,4,6,8,10,12,14,-1,-1,-1,-1,-1,-1,-1,-1],"split_conditions":[-1.6722117E-2,2.6373051E-2,3.9118532E-2,1.1419373E-2,-5.138518E-2,-3.474981E-2,-2.9889893E-2,-8.621371E-2,9.9768616E-2,1.5130687E-1,-2.555828E-1,1.9891447E-1,-3.1417963E-1,2.464972E-1,-3.8608178E-1],"split_indices":[815,15,577,392,938,916,174,0,0,0,0,0,0,0,0],"split_type":[0,0,0,0,0,0,0,0,0,0,0,0,0,0,0],"sum_hessian":[4.9709604E3,4.3533867E3,6.175741E2,3.8428687E3,5.1051794E2,5.15211E2,1.02363075E2,8.2043787E2,3.0224307E3,7.846937E1,4.3204855E2,1.9404074E1,4.9580692E2,7.296034E1,2.9402735E1],"tree_param":{"num_deleted":"0","num_feature":"1024","num_nodes":"15","size_leaf_vector":"0"}},{"base_weights":[-1.0572321E-2,2.1103749E-1,-3.1583506E-1,3.261494E-1,-6.5150815E-1,-6.086702E-1,1.4920451E-1,4.1561425E-1,-7.814611E-1,1.338947E-1,-1.5712135E0,4.5048732E-1,-7.098502E-1,-5.2969587E-1,3.8511908E-1],"categories":[],"categories_nodes":[],"categories_segments":[],"categories_sizes":[],"default_left":[true,true,true,true,true,true,true,false,false,false,false,false,false,false,false],"id":13,"left_children":[1,3,5,7,9,11,13,-1,-1,-1,-1,-1,-1,-1,-1],"loss_changes":[3.1701077E2,2.6979175E2,2.6850452E2,2.3775702E2,2.313699E2,1.2995117E2,1.22309685E2,0E0,0E0,0E0,0E0,0E0,0E0,0E0,0E0],"parents":[2147483647,0,0,1,1,2,2,3,3,4,4,5,5,6,6],"right_children":[2,4,6,8,10,12,14,-1,-1,-1,-1,-1,-1,-1,-1],"split_conditions":[-2.4532504E-2,8.56749E-2,2.8093219E-2,3.9650284E-2,2.4554532E-2,-3.7099853E-2,6.616588E-2,1.2468428E-1,-2.3443834E-1,4.0168412E-2,-4.7136405E-1,1.351462E-1,-2.1295507E-1,-1.5890877E-1,1.1553573E-1],"split_indices":[970,838,138,810,912,872,698,0,0,0,0,0,0,0,0],"split_type":[0,0,0,0,0,0,0,0,0,0,0,0,0,0,0],"sum_hessian":[4.684112E3,2.714089E3,1.9700227E3,2.395074E3,3.1901517E2,1.2086364E3,7.6138635E2,2.2166533E3,1.784206E2,1.7253203E2,1.4648315E2,1.0509059E2,1.1035458E3,1.9602692E2,5.6535944E2],"tree_param":{"num_deleted":"0","num_feature":"1024","num_nodes":"15","size_leaf_vector":"0"}},{"base_weights":[-6.9835386E-3,5.8275595E-2,-9.247196E-1,-5.5741966E-1,1.4037701E-1,1.0463566E0,-9.7232884E-1,-1.2632025E-2,-1.0806348E0,2.1064617E-1,-7.3379874E-1,1.5877931E0,-6.607869E-1,-1.0008729E0,1.9762844E0],"categories":[],"categories_nodes":[],"categories_segments":[],"categories_sizes":[],"default_left":[true,true,true,true,true,true,true,false,false,false,false,false,false,false,false],"id":14,"left_children":[1,3,5,7,9,11,13,-1,-1,-1,-1,-1,-1,-1,-1],"loss_changes":[2.676069E2,2.1095639E2,2.8854385E1,1.3995232E2,2.263114E2,7.9608774E0,2.6399506E1,0E0,0E0,0E0,0E0,0E0,0E0,0E0,0E0],"parents":[2147483647,0,0,1,1,2,2,3,3,4,4,5,5,6,6],"right_children":[2,4,6,8,10,12,14,-1,-1,-1,-1,-1,-1,-1,-1],"split_conditions":[1.5824724E-2,-2.496419E-2,-5.110018E-2,2.7126793E-2,-2.3783032E-2,-1.9559938E-2,3.6073294E-2,-3.7896077E-3,-3.2419047E-1,6.319385E-2,-2.2013964E-1,4.7633794E-1,-1.982361E-1,-3.0026186E-1,5.928853E-1],"split_indices":[642,33,766,656,530,541,939,0,0,0,0,0,0,0,0],"split_type":[0,0,0,0,0,0,0,0,0,0,0,0,0,0,0],"sum_hessian":[4.466358E3,4.1707197E3,2.956385E2,4.9003772E2,3.680682E3,6.47767E0,2.891608E2,2.4057149E2,2.4946622E2,3.4075322E3,2.7314972E2,4.970988E0,1.5066828E0,2.8704266E2,2.118154E0],"tree_param":{"num_deleted":"0","num_feature":"1024","num_nodes":"15","size_leaf_vector":"0"}},{"base_weights":[-8.162781E-3,2.5498554E-1,-2.0210543E-1,-9.0548855E-1,3.4568024E-1,-5.083214E-1,5.6949954E-2,1.7986748E-1,-1.4120268E0,4.120443E-1,-1.0681797E0,1.3287067E-1,-7.62524E-1,2.2628932E-1,-7.9260325E-1],"categories":[],"categories_nodes":[],"categories_segments":[],"categories_sizes":[],"default_left":[true,true,true,true,true,true,true,false,false,false,false,false,false,false,false],"id":15,"left_children":[1,3,5,7,9,11,13,-1,-1,-1,-1,-1,-1,-1,-1],"loss_changes":[2.1851102E2,1.9151425E2,1.9555911E2,7.2803406E1,1.5860823E2,1.8423605E2,1.9240219E2,0E0,0E0,0E0,0E0,0E0,0E0,0E0,0E0],"parents":[2147483647,0,0,1,1,2,2,3,3,4,4,5,5,6,6],"right_children":[2,4,6,8,10,12,14,-1,-1,-1,-1,-1,-1,-1,-1],"split_conditions":[-8.182829E-2,-1.7574298E-1,1.0919673E-2,6.9127595E-3,2.871671E-2,-2.6977977E-2,1.7504502E-2,5.3960245E-2,-4.2360803E-1,1.2361329E-1,-3.2045394E-1,3.9861202E-2,-2.2875722E-1,6.78868E-2,-2.3778099E-1],"split_indices":[612,543,727,890,858,692,53,0,0,0,0,0,0,0,0],"split_type":[0,0,0,0,0,0,0,0,0,0,0,0,0,0,0],"sum_hessian":[4.2795244E3,1.8156589E3,2.4638655E3,1.309622E2,1.6846967E3,1.1287117E3,1.3351539E3,4.187718E1,8.908503E1,1.6098422E3,7.485456E1,3.2057678E2,8.081349E2,1.1138638E3,2.2129012E2],"tree_param":{"num_deleted":"0","num_feature":"1024","num_nodes":"15","size_leaf_vector":"0"}},{"base_weights":[-4.7057844E-3,-5.1780397E-1,9.6374765E-2,1.0972148E0,-6.536076E-1,2.1287315E-1,-3.477102E-1,6.472244E0,8.193015E-1,-8.010106E-1,2.7640986E-1,-3.0782837E-1,3.218394E-1,-5.6701857E-1,3.301927E-1],"categories":[],"categories_nodes":[],"categories_segments":[],"categories_sizes":[],"default_left":[true,true,true,true,true,true,true,false,false,false,false,false,false,false,false],"id":16,"left_children":[1,3,5,7,9,11,13,-1,-1,-1,-1,-1,-1,-1,-1],"loss_changes":[2.1565372E2,1.508065E2,1.7978949E2,7.454528E1,8.684268E1,1.562714E2,1.07568924E2,0E0,0E0,0E0,0E0,0E0,0E0,0E0,0E0],"parents":[2147483647,0,0,1,1,2,2,3,3,4,4,5,5,6,6],"right_children":[2,4,6,8,10,12,14,-1,-1,-1,-1,-1,-1,-1,-1],"split_conditions":[4.819722E-3,-2.505793E-1,3.7448788E-3,-4.7388095E-2,9.2025E-2,-1.571478E-2,1.5286624E-2,1.9416732E0,2.4579045E-1,-2.4030319E-1,8.2922965E-2,-9.2348516E-2,9.655182E-2,-1.7010558E-1,9.905781E-2],"split_indices":[928,669,60,433,88,995,97,0,0,0,0,0,0,0,0],"split_type":[0,0,0,0,0,0,0,0,0,0,0,0,0,0,0],"sum_hessian":[4.15608E3,6.8332245E2,3.4727576E3,5.2453224E1,6.3086926E2,2.7514744E3,7.212834E2,1.4829652E0,5.0970257E1,5.4467914E2,8.619013E1,4.7583655E2,2.2756377E3,5.451012E2,1.7618214E2],"tree_param":{"num_deleted":"0","num_feature":"1024","num_nodes":"15","size_leaf_vector":"0"}},{"base_weights":[-3.7780933E-3,-5.4686815E-1,7.96944E-2,1.706781E-1,-1.0089558E0,2.8260604E-1,-1.4016958E-1,9.760705E-1,-4.2451966E-1,-1.4687314E0,-5.214452E-1,5.299689E-1,-1.0617007E-1,-7.090618E-1,-1.2198022E-3],"categories":[],"categories_nodes":[],"categories_segments":[],"categories_sizes":[],"default_left":[true,true,true,true,true,true,true,false,false,false,false,false,false,false,false],"id":17,"left_children":[1,3,5,7,9,11,13,-1,-1,-1,-1,-1,-1,-1,-1],"loss_changes":[1.8261356E2,1.7811087E2,1.5581224E2,1.0159687E2,7.243582E1,1.747139E2,1.3252118E2,0E0,0E0,0E0,0E0,0E0,0E0,0E0,0E0],"parents":[2147483647,0,0,1,1,2,2,3,3,4,4,5,5,6,6],"right_children":[2,4,6,8,10,12,14,-1,-1,-1,-1,-1,-1,-1,-1],"split_conditions":[1.2864671E-3,-2.9680869E-3,1.4407777E-2,-1.2991925E-2,6.2062596E-3,-1.2716828E-2,-3.1344585E-2,2.9282117E-1,-1.273559E-1,-4.4061944E-1,-1.5643357E-1,1.5899068E-1,-3.1851023E-2,-2.1271855E-1,-3.6594068E-4],"split_indices":[734,246,890,731,499,940,671,0,0,0,0,0,0,0,0],"split_type":[0,0,0,0,0,0,0,0,0,0,0,0,0,0,0],"sum_hessian":[4.0263015E3,5.3565607E2,3.4906453E3,2.100749E2,3.2558115E2,1.8151577E3,1.6754877E3,8.900193E1,1.2107297E2,1.66521E2,1.5906015E2,1.1091111E3,7.060467E2,3.2809375E2,1.3473939E3],"tree_param":{"num_deleted":"0","num_feature":"1024","num_nodes":"15","size_leaf_vector":"0"}},{"base_weights":[-1.5250891E-3,-9.548493E-1,4.0513698E-2,-3.6982453E0,-7.495379E-1,8.998613E-2,-7.5502264E-1,-5.4391303E0,-1.4033256E0,-1.2104318E0,9.383099E-2,2.7925125E-1,-1.3349682E-1,-9.3840086E-1,6.855619E-1],"categories":[],"categories_nodes":[],"categories_segments":[],"categories_sizes":[],"default_left":[true,true,true,true,true,true,true,false,false,false,false,false,false,false,false],"id":18,"left_children":[1,3,5,7,9,11,13,-1,-1,-1,-1,-1,-1,-1,-1],"loss_changes":[1.5648799E2,9.011618E1,1.4725739E2,3.7226746E1,6.024061E1,1.4899992E2,5.8513268E1,0E0,0E0,0E0,0E0,0E0,0E0,0E0,0E0],"parents":[2147483647,0,0,1,1,2,2,3,3,4,4,5,5,6,6],"right_children":[2,4,6,8,10,12,14,-1,-1,-1,-1,-1,-1,-1,-1],"split_conditions":[-7.976541E-3,-5.7356663E-2,2.930477E-2,-5.258895E-3,4.2763457E-2,1.4127124E-2,3.936593E-2,-1.6317391E0,-4.2099768E-1,-3.6312956E-1,2.8149297E-2,8.377538E-2,-4.0049046E-2,-2.8152028E-1,2.0566858E-1],"split_indices":[192,438,873,541,27,42,906,0,0,0,0,0,0,0,0],"split_type":[0,0,0,0,0,0,0,0,0,0,0,0,0,0,0],"sum_hessian":[3.9027576E3,1.6391446E2,3.7388433E3,1.0228405E1,1.5368605E2,3.5207815E3,2.1806177E2,5.037201E0,5.191204E0,9.90958E1,5.4590252E1,1.9061963E3,1.6145852E3,1.9374742E2,2.4314342E1],"tree_param":{"num_deleted":"0","num_feature":"1024","num_nodes":"15","size_leaf_vector":"0"}},{"base_weights":[-2.1813347E-3,-5.6314456E-1,6.5509535E-2,-3.3077383E-1,-1.9327041E0,3.6723182E-1,-9.425968E-2,-1.5461438E0,-6.4828806E-2,-1.3919324E0,-5.2496004E0,4.4925722E-1,-1.0538527E0,1.7754638E-1,-3.843924E-1],"categories":[],"categories_nodes":[],"categories_segments":[],"categories_sizes":[],"default_left":[true,true,true,true,true,true,true,false,false,false,false,false,false,false,false],"id":19,"left_children":[1,3,5,7,9,11,13,-1,-1,-1,-1,-1,-1,-1,-1],"loss_changes":[1.4523041E2,1.3042168E2,1.6455507E2,1.14091415E2,9.947316E1,1.3822366E2,1.7609302E2,0E0,0E0,0E0,0E0,0E0,0E0,0E0,0E0],"parents":[2147483647,0,0,1,1,2,2,3,3,4,4,5,5,6,6],"right_children":[2,4,6,8,10,12,14,-1,-1,-1,-1,-1,-1,-1,-1],"split_conditions":[-3.8195334E-2,1.8540692E-2,-5.8243815E-2,-3.0327747E-3,3.867784E-2,5.5063687E-2,-7.3615992E-3,-4.6384314E-1,-1.9448642E-2,-4.1757974E-1,-1.5748802E0,1.3477717E-1,-3.1615582E-1,5.3263918E-2,-1.15317725E-1],"split_indices":[379,62,393,982,260,126,857,0,0,0,0,0,0,0,0],"split_type":[0,0,0,0,0,0,0,0,0,0,0,0,0,0,0],"sum_hessian":[3.8226907E3,4.108234E2,3.4118672E3,3.5229214E2,5.8531258E1,1.1807452E3,2.231122E3,6.2383858E1,2.899083E2,5.154693E1,6.984329E0,1.116958E3,6.378729E1,1.1521434E3,1.0789785E3],"tree_param":{"num_deleted":"0","num_feature":"1024","num_nodes":"15","size_leaf_vector":"0"}},{"base_weights":[3.4223628E-4,3.6785506E-2,-8.947389E-1,6.0320653E-2,-1.4177903E0,7.138439E-1,-9.814729E-1,-1.3610439E-1,2.2001712E-1,-2.3006854E0,-2.5602464E-2,1.6377039E0,-7.8482497E-1,-1.0358683E0,1.4271653E0],"categories":[],"categories_nodes":[],"categories_segments":[],"categories_sizes":[],"default_left":[true,true,true,true,true,true,true,false,false,false,false,false,false,false,false],"id":20,"left_children":[1,3,5,7,9,11,13,-1,-1,-1,-1,-1,-1,-1,-1],"loss_changes":[1.2159007E2,1.2269915E2,2.104638E1,1.1062229E2,7.0088715E1,1.2416669E1,1.9662277E1,0E0,0E0,0E0,0E0,0E0,0E0,0E0,0E0],"parents":[2147483647,0,0,1,1,2,2,3,3,4,4,5,5,6,6],"right_children":[2,4,6,8,10,12,14,-1,-1,-1,-1,-1,-1,-1,-1],"split_conditions":[1.7664708E-2,4.293271E-2,-6.730558E-2,-2.8416868E-2,-3.1785094E-3,-8.671244E-2,5.0526213E-2,-4.083132E-2,6.600514E-2,-6.9020563E-1,-7.6807393E-3,4.913112E-1,-2.354475E-1,-3.107605E-1,4.281496E-1],"split_indices":[642,26,658,560,197,530,811,0,0,0,0,0,0,0,0],"split_type":[0,0,0,0,0,0,0,0,0,0,0,0,0,0,0],"sum_hessian":[3.725497E3,3.580669E3,1.4482819E2,3.524599E3,5.6069756E1,7.039635E0,1.3778856E2,1.5806111E3,1.943988E3,3.391135E1,2.2158403E1,4.2975945E0,2.7420406E0,1.3530289E2,2.4856725E0],"tree_param":{"num_deleted":"0","num_feature":"1024","num_nodes":"15","size_leaf_vector":"0"}},{"base_weights":[-1.1327632E-3,1.4200784E-1,-2.1903424E-1,2.002254E-1,-8.379659E-1,-8.5723424E-1,-8.516831E-2,-2.0819874E0,2.2797748E-1,6.8354636E-1,-1.3836153E0,-9.6052974E-1,5.460105E0,-4.0507805E-1,2.73283E-1],"categories":[],"categories_nodes":[],"categories_segments":[],"categories_sizes":[],"default_left":[true,true,true,true,true,true,true,false,false,false,false,false,false,false,false],"id":21,"left_children":[1,3,5,7,9,11,13,-1,-1,-1,-1,-1,-1,-1,-1],"loss_changes":[1.14839165E2,1.2694426E2,1.2463615E2,1.3337503E2,1.04557175E2,1.7033177E2,1.386047E2,0E0,0E0,0E0,0E0,0E0,0E0,0E0,0E0],"parents":[2147483647,0,0,1,1,2,2,3,3,4,4,5,5,6,6],"right_children":[2,4,6,8,10,12,14,-1,-1,-1,-1,-1,-1,-1,-1],"split_conditions":[-4.1215464E-2,9.315379E-3,-3.81263E-2,-1.5244183E-1,-2.5989529E-2,9.108046E-3,-5.696278E-3,-6.2459624E-1,6.8393245E-2,2.0506392E-1,-4.150846E-1,-2.8815892E-1,1.6380316E0,-1.2152342E-1,8.198491E-2],"split_indices":[402,962,432,408,97,853,516,0,0,0,0,0,0,0,0],"split_type":[0,0,0,0,0,0,0,0,0,0,0,0,0,0,0],"sum_hessian":[3.6798606E3,2.2211343E3,1.4587264E3,2.0973333E3,1.2380112E2,2.5198674E2,1.2067396E3,2.4308222E1,2.073025E3,3.2611916E1,9.11892E1,2.4876707E2,3.2196643E0,6.37582E2,5.6915765E2],"tree_param":{"num_deleted":"0","num_feature":"1024","num_nodes":"15","size_leaf_vector":"0"}},{"base_weights":[-1.5000297E-3,2.3939518E-2,-1.1773713E0,-8.517526E-1,6.1509784E-2,-1.675109E0,1.8897901E-1,-9.1140807E-1,3.8654275E0,1.7495143E-1,-1.9515012E-1,-1.7586343E0,6.7694974E-1,-9.8228186E-1,1.339382E0],"categories":[],"categories_nodes":[],"categories_segments":[],"categories_sizes":[],"default_left":[true,true,true,true,true,true,true,false,false,false,false,false,false,false,false],"id":22,"left_children":[1,3,5,7,9,11,13,-1,-1,-1,-1,-1,-1,-1,-1],"loss_changes":[1.076024E2,1.158928E2,5.2121292E1,4.430304E1,9.836068E1,1.2179459E1,2.9932404E1,0E0,0E0,0E0,0E0,0E0,0E0,0E0,0E0],"parents":[2147483647,0,0,1,1,2,2,3,3,4,4,5,5,6,6],"right_children":[2,4,6,8,10,12,14,-1,-1,-1,-1,-1,-1,-1,-1],"split_conditions":[5.5905715E-2,-2.3626778E-2,-4.823905E-3,1.14084706E-1,2.2737347E-2,6.639941E-2,2.404438E-2,-2.7342242E-1,1.1596283E0,5.2485432E-2,-5.8545038E-2,-5.2759033E-1,2.0308493E-1,-2.9468456E-1,4.0181464E-1],"split_indices":[414,99,18,508,26,309,784,0,0,0,0,0,0,0,0],"split_type":[0,0,0,0,0,0,0,0,0,0,0,0,0,0,0],"sum_hessian":[3.5951606E3,3.5199866E3,7.5173996E1,1.4391554E2,3.376071E3,5.4935844E1,2.0238152E1,1.4291498E2,1.0005746E0,2.3414756E3,1.0345955E3,5.3295536E1,1.6403083E0,1.0100579E1,1.0137571E1],"tree_param":{"num_deleted":"0","num_feature":"1024","num_nodes":"15","size_leaf_vector":"0"}},{"base_weights":[-2.1351734E-3,5.6433696E-1,-5.5900477E-2,-1.2577332E0,6.510381E-1,-1.4234532E-2,-8.9164156E-1,-7.7916545E-1,-3.3076177E0,-1.4660728E0,7.2240555E-1,3.728713E-2,-6.0063136E-1,-1.7039437E0,-2.648091E-1],"categories":[],"categories_nodes":[],"categories_segments":[],"categories_sizes":[],"default_left":[true,true,true,true,true,true,true,false,false,false,false,false,false,false,false],"id":23,"left_children":[1,3,5,7,9,11,13,-1,-1,-1,-1,-1,-1,-1,-1],"loss_changes":[1.0820635E2,4.947152E1,1.12977516E2,1.1480785E1,4.557794E1,9.343011E1,7.799848E1,0E0,0E0,0E0,0E0,0E0,0E0,0E0,0E0],"parents":[2147483647,0,0,1,1,2,2,3,3,4,4,5,5,6,6],"right_children":[2,4,6,8,10,12,14,-1,-1,-1,-1,-1,-1,-1,-1],"split_conditions":[-3.835526E-2,-1.3593804E-2,5.0633322E-2,4.873086E-2,-2.6321188E-2,9.5412815E-3,-1.2169952E-2,-2.3374964E-1,-9.922853E-1,-4.3982187E-1,2.1672167E-1,1.118614E-2,-1.8018942E-1,-5.1118314E-1,-7.944273E-2],"split_indices":[879,484,126,363,468,463,897,0,0,0,0,0,0,0,0],"split_type":[0,0,0,0,0,0,0,0,0,0,0,0,0,0,0],"sum_hessian":[3.5507751E3,3.069759E2,3.2437993E3,1.3330116E1,2.9364578E2,3.0907278E3,1.5307149E2,1.1925971E1,1.4041452E0,8.938649E0,2.8470712E2,2.841965E3,2.487627E2,6.592368E1,8.71478E1],"tree_param":{"num_deleted":"0","num_feature":"1024","num_nodes":"15","size_leaf_vector":"0"}},{"base_weights":[-7.790263E-4,-1.841987E-1,1.3400644E-1,-1.6318173E0,-1.04174614E-1,1.9621907E-1,-8.908387E-1,-2.1929576E0,-2.022296E-1,1.5270391E-1,-4.494173E-1,2.2978178E-1,-1.0935711E0,1.2002928E-1,-1.5183061E0],"categories":[],"categories_nodes":[],"categories_segments":[],"categories_sizes":[],"default_left":[true,true,true,true,true,true,true,false,false,false,false,false,false,false,false],"id":24,"left_children":[1,3,5,7,9,11,13,-1,-1,-1,-1,-1,-1,-1,-1],"loss_changes":[8.653359E1,1.7158365E2,1.2881358E2,6.1805298E1,1.2476269E2,8.262787E1,7.353647E1,0E0,0E0,0E0,0E0,0E0,0E0,0E0,0E0],"parents":[2147483647,0,0,1,1,2,2,3,3,4,4,5,5,6,6],"right_children":[2,4,6,8,10,12,14,-1,-1,-1,-1,-1,-1,-1,-1],"split_conditions":[-6.5910714E-3,-2.5922835E-2,2.7604386E-2,5.379731E-3,-3.901864E-2,5.4606553E-2,2.260985E-2,-6.5788734E-1,-6.0668882E-2,4.5811176E-2,-1.348252E-1,6.893454E-2,-3.2807133E-1,3.6008786E-2,-4.5549187E-1],"split_indices":[845,1020,321,678,381,110,998,0,0,0,0,0,0,0,0],"split_type":[0,0,0,0,0,0,0,0,0,0,0,0,0,0,0],"sum_hessian":[3.4982246E3,1.4816241E3,2.0166005E3,7.659764E1,1.4050265E3,1.901952E3,1.1464836E2,5.4623074E1,2.1974571E1,8.059302E2,5.990963E2,1.854516E3,4.743605E1,4.4219E1,7.042936E1],"tree_param":{"num_deleted":"0","num_feature":"1024","num_nodes":"15","size_leaf_vector":"0"}},{"base_weights":[-1.4218341E-3,-6.2500715E-2,3.9998427E-1,1.0278845E-1,-3.2935894E-1,5.219329E-1,-1.5838512E0,1.7971113E-1,-6.7252177E-1,-4.9646923E-1,3.718421E-1,-8.8328576E-1,6.332769E-1,-2.9017622E0,9.4343746E-1],"categories":[],"categories_nodes":[],"categories_segments":[],"categories_sizes":[],"default_left":[true,true,true,true,true,true,true,false,false,false,false,false,false,false,false],"id":25,"left_children":[1,3,5,7,9,11,13,-1,-1,-1,-1,-1,-1,-1,-1],"loss_changes":[8.392809E1,1.3108496E2,1.10199326E2,1.0958571E2,1.3337256E2,6.731606E1,9.0765915E1,0E0,0E0,0E0,0E0,0E0,0E0,0E0,0E0],"parents":[2147483647,0,0,1,1,2,2,3,3,4,4,5,5,6,6],"right_children":[2,4,6,8,10,12,14,-1,-1,-1,-1,-1,-1,-1,-1],"split_conditions":[3.951457E-2,4.235357E-2,4.9677014E-2,3.7646885E-3,1.0430137E-2,-3.1408727E-2,3.632731E-2,5.3913344E-2,-2.0175654E-1,-1.4894077E-1,1.1155263E-1,-2.6498574E-1,1.8998307E-1,-8.705287E-1,2.8303126E-1],"split_indices":[292,431,211,586,385,246,383,0,0,0,0,0,0,0,0],"split_type":[0,0,0,0,0,0,0,0,0,0,0,0,0,0,0],"sum_hessian":[3.4211807E3,2.9700894E3,4.5109134E2,1.8344594E3,1.13563E3,4.2566232E2,2.5429039E1,1.6695796E3,1.6487973E2,9.173088E2,2.1832118E2,3.0742538E1,3.9491977E2,1.6616055E1,8.8129835E0],"tree_param":{"num_deleted":"0","num_feature":"1024","num_nodes":"15","size_leaf_vector":"0"}},{"base_weights":[1.6729356E-3,3.452448E-2,-7.215058E-1,-8.11745E-2,2.4029385E-1,-1.0818483E0,2.059674E-1,-1.1747727E0,-2.3161635E-2,-5.884662E-1,3.3134115E-1,1.2149248E0,-1.1418127E0,2.599738E0,-5.244173E-1],"categories":[],"categories_nodes":[],"categories_segments":[],"categories_sizes":[],"default_left":[true,true,true,true,true,true,true,false,false,false,false,false,false,false,false],"id":26,"left_children":[1,3,5,7,9,11,13,-1,-1,-1,-1,-1,-1,-1,-1],"loss_changes":[8.024085E1,7.6933304E1,4.9271553E1,1.3121562E2,8.7950714E1,1.5966202E1,7.462918E1,0E0,0E0,0E0,0E0,0E0,0E0,0E0,0E0],"parents":[2147483647,0,0,1,1,2,2,3,3,4,4,5,5,6,6],"right_children":[2,4,6,8,10,12,14,-1,-1,-1,-1,-1,-1,-1,-1],"split_conditions":[4.144084E-2,7.9897E-3,3.395542E-2,1.7938629E-2,-1.6410448E-2,-7.234176E-2,-3.6411017E-2,-3.5243183E-1,-6.9484906E-3,-1.7653987E-1,9.9402346E-2,3.6447746E-1,-3.425438E-1,7.799214E-1,-1.573252E-1],"split_indices":[15,492,447,934,347,421,579,0,0,0,0,0,0,0,0],"split_type":[0,0,0,0,0,0,0,0,0,0,0,0,0,0,0],"sum_hessian":[3.3754414E3,3.2296804E3,1.4576111E2,2.0676807E3,1.1619998E3,1.04855965E2,4.090514E1,1.0319049E2,1.9644901E3,1.1447996E2,1.0475198E3,2.1778724E0,1.0267809E2,8.964706E0,3.1940434E1],"tree_param":{"num_deleted":"0","num_feature":"1024","num_nodes":"15","size_leaf_vector":"0"}},{"base_weights":[-4.4857568E-4,2.8405318E-1,-8.329864E-2,6.251803E-1,-1.9179966E-1,-3.0880758E-1,8.740607E-2,-4.536436E-2,9.089987E-1,-2.4252708E-1,4.8885784E0,-2.0526747E-1,-1.6351199E0,1.36621E-1,-1.2143707E0],"categories":[],"categories_nodes":[],"categories_segments":[],"categories_sizes":[],"default_left":[true,true,true,true,true,true,true,false,false,false,false,false,false,false,false],"id":27,"left_children":[1,3,5,7,9,11,13,-1,-1,-1,-1,-1,-1,-1,-1],"loss_changes":[7.7914444E1,1.2113513E2,9.857583E1,8.2724045E1,8.160507E1,1.5115979E2,9.35649E1,0E0,0E0,0E0,0E0,0E0,0E0,0E0,0E0],"parents":[2147483647,0,0,1,1,2,2,3,3,4,4,5,5,6,6],"right_children":[2,4,6,8,10,12,14,-1,-1,-1,-1,-1,-1,-1,-1],"split_conditions":[4.006233E-3,-5.2268514E-3,-1.4417443E-2,-2.5061406E-2,4.4302013E-2,4.1288115E-2,7.7296756E-2,-1.3609309E-2,2.7269962E-1,-7.275813E-2,1.4665736E0,-6.1580244E-2,-4.90536E-1,4.09863E-2,-3.6431122E-1],"split_indices":[471,879,63,865,825,198,382,0,0,0,0,0,0,0,0],"split_type":[0,0,0,0,0,0,0,0,0,0,0,0,0,0,0],"sum_hessian":[3.303519E3,7.4450586E2,2.5590132E3,4.3345724E2,3.110486E2,1.1021769E3,1.4568364E3,1.2915587E2,3.0430136E2,3.0891635E2,2.132259E0,1.02343585E3,7.8740944E1,1.4046282E3,5.220828E1],"tree_param":{"num_deleted":"0","num_feature":"1024","num_nodes":"15","size_leaf_vector":"0"}},{"base_weights":[9.0095826E-4,-5.306041E-1,4.085124E-2,1.6650943E0,-6.5374666E-1,2.857689E-1,-7.595496E-2,-8.8188946E-1,3.5364838E0,-9.3172956E-1,1.7179132E-1,-6.0983103E-2,6.1461675E-1,2.544802E-2,-5.530796E-1],"categories":[],"categories_nodes":[],"categories_segments":[],"categories_sizes":[],"default_left":[true,true,true,true,true,true,true,false,false,false,false,false,false,false,false],"id":28,"left_children":[1,3,5,7,9,11,13,-1,-1,-1,-1,-1,-1,-1,-1],"loss_changes":[6.948026E1,6.294043E1,8.708645E1,6.2365376E1,5.0033134E1,1.12123604E2,9.9749245E1,0E0,0E0,0E0,0E0,0E0,0E0,0E0,0E0],"parents":[2147483647,0,0,1,1,2,2,3,3,4,4,5,5,6,6],"right_children":[2,4,6,8,10,12,14,-1,-1,-1,-1,-1,-1,-1,-1],"split_conditions":[-1.8876066E-3,-8.732039E-2,1.9597422E-2,-9.00936E-2,1.3136691E-1,-5.2253917E-2,-1.3320553E-2,-2.6456684E-1,1.0609452E0,-2.7951887E-1,5.15374E-2,-1.8294932E-2,1.8438503E-1,7.6344064E-3,-1.659239E-1],"split_indices":[1003,172,431,172,805,494,475,0,0,0,0,0,0,0,0],"split_type":[0,0,0,0,0,0,0,0,0,0,0,0,0,0,0],"sum_hessian":[3.2701367E3,2.2775574E2,3.042381E3,1.1430053E1,2.1632568E2,9.8196454E2,2.0604165E3,5.065118E0,6.364935E0,1.6173584E2,5.4589844E1,4.783672E2,5.0359735E2,1.7000522E3,3.603643E2],"tree_param":{"num_deleted":"0","num_feature":"1024","num_nodes":"15","size_leaf_vector":"0"}},{"base_weights":[4.2987577E-4,-6.5702975E-1,3.1486545E-2,3.5734934E-1,-1.1593634E0,-5.7528187E-2,2.9557517E-1,1.838056E0,-4.425073E-1,-1.4464993E0,3.9143015E-2,-1.8405747E-2,-1.0104865E0,4.1457915E-1,-9.077363E-1],"categories":[],"categories_nodes":[],"categories_segments":[],"categories_sizes":[],"default_left":[true,true,true,true,true,true,true,false,false,false,false,false,false,false,false],"id":29,"left_children":[1,3,5,7,9,11,13,-1,-1,-1,-1,-1,-1,-1,-1],"loss_changes":[6.626712E1,7.500893E1,7.2868546E1,5.9141563E1,3.3830704E1,8.6424774E1,1.1227305E2,0E0,0E0,0E0,0E0,0E0,0E0,0E0,0E0],"parents":[2147483647,0,0,1,1,2,2,3,3,4,4,5,5,6,6],"right_children":[2,4,6,8,10,12,14,-1,-1,-1,-1,-1,-1,-1,-1],"split_conditions":[-4.06112E-2,-4.3449276E-3,1.7706268E-2,-1.2924876E-2,-3.366247E-4,2.782973E-2,-1.938257E-2,5.514168E-1,-1.327522E-1,-4.3394983E-1,1.1742905E-2,-5.521724E-3,-3.0314595E-1,1.2437375E-1,-2.723209E-1],"split_indices":[41,47,972,901,197,487,907,0,0,0,0,0,0,0,0],"split_type":[0,0,0,0,0,0,0,0,0,0,0,0,0,0,0],"sum_hessian":[3.2434314E3,1.4539119E2,3.0980403E3,4.8249004E1,9.714218E1,2.3176323E3,7.804079E2,1.6467022E1,3.178198E1,7.82002E1,1.8941978E1,2.227216E3,9.041609E1,7.1077026E2,6.9637634E1],"tree_param":{"num_deleted":"0","num_feature":"1024","num_nodes":"15","size_leaf_vector":"0"}},{"base_weights":[-3.3382289E-4,-3.6781418E-1,5.5436485E-2,-6.625777E-1,1.3679078E-1,-4.8218536E-1,9.879567E-2,-3.3970344E-1,-1.3774734E0,4.2632064E-1,-1.2746336E0,-1.0901735E0,2.605744E-1,-2.8427902E-1,1.7122161E-1],"categories":[],"categories_nodes":[],"categories_segments":[],"categories_sizes":[],"default_left":[true,true,true,true,true,true,true,false,false,false,false,false,false,false,false],"id":30,"left_children":[1,3,5,7,9,11,13,-1,-1,-1,-1,-1,-1,-1,-1],"loss_changes":[6.4989426E1,6.2239906E1,6.4227806E1,6.045392E1,6.3845573E1,9.3151764E1,7.0758026E1,0E0,0E0,0E0,0E0,0E0,0E0,0E0,0E0],"parents":[2147483647,0,0,1,1,2,2,3,3,4,4,5,5,6,6],"right_children":[2,4,6,8,10,12,14,-1,-1,-1,-1,-1,-1,-1,-1],"split_conditions":[-7.78795E-4,2.861015E-2,-3.349881E-2,-7.3135803E-3,-9.317818E-3,1.4551502E-2,-3.5815228E-2,-1.0191104E-1,-4.13242E-1,1.278962E-1,-3.823901E-1,-3.2705206E-1,7.8172326E-2,-8.528371E-2,5.1366486E-2],"split_indices":[670,186,595,245,994,615,671,0,0,0,0,0,0,0,0],"split_type":[0,0,0,0,0,0,0,0,0,0,0,0,0,0,0],"sum_hessian":[3.169073E3,4.1684076E2,2.7522322E3,2.62935E2,1.5390578E2,2.0464647E2,2.5475857E3,1.8214604E2,8.078895E1,1.2828767E2,2.56181E1,1.1227539E2,9.237108E1,4.0460855E2,2.142977E3],"tree_param":{"num_deleted":"0","num_feature":"1024","num_nodes":"15","size_leaf_vector":"0"}},{"base_weights":[-6.45519E-4,3.9345416E-1,-4.9583793E-2,-1.8201416E0,4.6521407E-1,-8.049976E-1,-1.3547675E-2,-3.7233038E0,-1.1807891E0,-1.1861413E0,5.5124474E-1,-9.7085655E-1,8.0518943E-1,1.9754404E-1,-1.5000269E-1],"categories":[],"categories_nodes":[],"categories_segments":[],"categories_sizes":[],"default_left":[true,true,true,true,true,true,true,false,false,false,false,false,false,false,false],"id":31,"left_children":[1,3,5,7,9,11,13,-1,-1,-1,-1,-1,-1,-1,-1],"loss_changes":[6.0375706E1,5.5775E1,7.579338E1,9.062988E0,4.8350212E1,3.4638206E1,7.6617355E1,0E0,0E0,0E0,0E0,0E0,0E0,0E0,0E0],"parents":[2147483647,0,0,1,1,2,2,3,3,4,4,5,5,6,6],"right_children":[2,4,6,8,10,12,14,-1,-1,-1,-1,-1,-1,-1,-1],"split_conditions":[-8.3769485E-2,-5.3200684E-4,-1.1357256E-2,-2.7059158E-2,-7.045276E-2,5.2080214E-2,2.2066738E-2,-1.1169912E0,-3.5423675E-1,-3.5584238E-1,1.6537343E-1,-2.9125696E-1,2.4155684E-1,5.9263214E-2,-4.5000806E-2],"split_indices":[393,981,220,459,1009,498,431,0,0,0,0,0,0,0,0],"split_type":[0,0,0,0,0,0,0,0,0,0,0,0,0,0,0],"sum_hessian":[3.1284438E3,3.4479242E2,2.7836516E3,1.0061406E1,3.3473102E2,1.25773E2,2.6578784E3,1.3171343E0,8.744272E0,1.5941776E1,3.1878925E2,1.1438746E2,1.1385542E1,1.0433698E3,1.6145087E3],"tree_param":{"num_deleted":"0","num_feature":"1024","num_nodes":"15","size_leaf_vector":"0"}},{"base_weights":[-1.6427829E-4,-3.3192757E-1,5.4993134E-2,6.127361E-1,-6.5218794E-1,-4.0910333E-1,1.1576867E-1,1.022415E0,-9.85918E-1,-1.0636451E0,1.4197963E-2,-6.649566E-1,1.0596906E0,-7.674262E-1,1.4869301E-1],"categories":[],"categories_nodes":[],"categories_segments":[],"categories_sizes":[],"default_left":[true,true,true,true,true,true,true,false,false,false,false,false,false,false,false],"id":32,"left_children":[1,3,5,7,9,11,13,-1,-1,-1,-1,-1,-1,-1,-1],"loss_changes":[5.6879295E1,1.34455E2,7.522105E1,7.482089E1,9.088129E1,1.167603E2,6.8663086E1,0E0,0E0,0E0,0E0,0E0,0E0,0E0,0E0],"parents":[2147483647,0,0,1,1,2,2,3,3,4,4,5,5,6,6],"right_children":[2,4,6,8,10,12,14,-1,-1,-1,-1,-1,-1,-1,-1],"split_conditions":[-2.584773E-2,-1.6369121E-2,-1.0487745E-2,-7.036777E-3,-1.178805E-2,8.184453E-2,-6.552769E-2,3.0672452E-1,-2.957754E-1,-3.1909356E-1,4.2593894E-3,-1.99487E-1,3.1790718E-1,-2.3022787E-1,4.4607904E-2],"split_indices":[628,404,841,413,803,846,536,0,0,0,0,0,0,0,0],"split_type":[0,0,0,0,0,0,0,0,0,0,0,0,0,0,0],"sum_hessian":[3.106296E3,4.4210214E2,2.6641936E3,1.11702614E2,3.3039954E2,3.0782642E2,2.3563672E3,8.920337E1,2.249924E1,2.0390384E2,1.264957E2,2.6262613E2,4.52003E1,8.388357E1,2.2724836E3],"tree_param":{"num_deleted":"0","num_feature":"1024","num_nodes":"15","size_leaf_vector":"0"}},{"base_weights":[-1.1991657E-3,2.4378914E-2,-7.5198966E-1,-2.50389E-2,4.555707E-1,3.597893E-1,-1.4158612E0,-8.716219E-1,5.934626E-3,-2.5903156E-1,6.5981215E-1,6.702605E-1,-1.9742274E0,-2.143677E0,-1.2073527E-1],"categories":[],"categories_nodes":[],"categories_segments":[],"categories_sizes":[],"default_left":[true,true,true,true,true,true,true,false,false,false,false,false,false,false,false],"id":33,"left_children":[1,3,5,7,9,11,13,-1,-1,-1,-1,-1,-1,-1,-1],"loss_changes":[5.851416E1,6.2800724E1,7.4602295E1,6.935185E1,4.4399765E1,2.9098366E1,5.917946E1,0E0,0E0,0E0,0E0,0E0,0E0,0E0,0E0],"parents":[2147483647,0,0,1,1,2,2,3,3,4,4,5,5,6,6],"right_children":[2,4,6,8,10,12,14,-1,-1,-1,-1,-1,-1,-1,-1],"split_conditions":[2.28294E-2,4.0702634E-2,-3.9370462E-2,-2.0593796E-2,-6.0977053E-2,5.0748675E-3,1.0879837E-2,-2.614866E-1,1.7803878E-3,-7.770947E-2,1.9794366E-1,2.0107816E-1,-5.922682E-1,-6.431031E-1,-3.6220584E-2],"split_indices":[909,926,40,764,844,1020,924,0,0,0,0,0,0,0,0],"split_type":[0,0,0,0,0,0,0,0,0,0,0,0,0,0,0],"sum_hessian":[3.0450579E3,2.9456716E3,9.93862E1,2.6436335E3,3.020383E2,3.732928E1,6.205692E1,9.23496E1,2.551284E3,6.707771E1,2.3496057E2,3.3575848E1,3.7534337E0,3.9310566E1,2.2746355E1],"tree_param":{"num_deleted":"0","num_feature":"1024","num_nodes":"15","size_leaf_vector":"0"}},{"base_weights":[8.181124E-4,-2.065269E-1,8.039141E-2,-2.7212123E-3,-6.630246E-1,1.08384006E-1,-1.1108088E0,6.48267E-1,-2.007719E-1,5.1377206E0,-7.609961E-1,3.2321036E-1,-4.4632856E-2,1.0613961E-1,-1.6351286E0],"categories":[],"categories_nodes":[],"categories_segments":[],"categories_sizes":[],"default_left":[true,true,true,true,true,true,true,false,false,false,false,false,false,false,false],"id":34,"left_children":[1,3,5,7,9,11,13,-1,-1,-1,-1,-1,-1,-1,-1],"loss_changes":[5.00328E1,7.8243515E1,7.3193184E1,7.522279E1,1.5143051E2,7.0427246E1,3.2334854E1,0E0,0E0,0E0,0E0,0E0,0E0,0E0,0E0],"parents":[2147483647,0,0,1,1,2,2,3,3,4,4,5,5,6,6],"right_children":[2,4,6,8,10,12,14,-1,-1,-1,-1,-1,-1,-1,-1],"split_conditions":[-2.5315981E-2,2.977909E-3,4.4590503E-2,7.878503E-3,-5.1759873E-2,3.4608074E-2,-2.5012827E-2,1.944801E-1,-6.023157E-2,1.5413163E0,-2.2829884E-1,9.6963115E-2,-1.33898575E-2,3.1841885E-2,-4.905386E-1],"split_indices":[654,505,144,580,62,534,513,0,0,0,0,0,0,0,0],"split_type":[0,0,0,0,0,0,0,0,0,0,0,0,0,0,0],"sum_hessian":[3.030445E3,8.400145E2,2.1904307E3,5.814356E2,2.585789E2,2.1410266E3,4.9404015E1,1.3509807E2,4.4633755E2,3.440345E0,2.5513855E2,8.9016986E2,1.2508567E3,1.51163845E1,3.4287632E1],"tree_param":{"num_deleted":"0","num_feature":"1024","num_nodes":"15","size_leaf_vector":"0"}},{"base_weights":[-1.2317975E-3,1.56050855E-2,-9.9101645E-1,2.860834E-2,-1.1990348E0,3.248038E-1,-1.4604394E0,2.6573926E-1,-5.0846417E-2,6.163998E-1,-1.2981406E0,-1.3479371E0,8.3329624E-1,-2.5005064E0,-1.2662786E0],"categories":[],"categories_nodes":[],"categories_segments":[],"categories_sizes":[],"default_left":[true,true,true,true,true,true,true,false,false,false,false,false,false,false,false],"id":35,"left_children":[1,3,5,7,9,11,13,-1,-1,-1,-1,-1,-1,-1,-1],"loss_changes":[5.0138737E1,4.675999E1,3.1557663E1,5.518116E1,6.4422455E0,1.30740795E1,4.360512E0,0E0,0E0,0E0,0E0,0E0,0E0,0E0,0E0],"parents":[2147483647,0,0,1,1,2,2,3,3,4,4,5,5,6,6],"right_children":[2,4,6,8,10,12,14,-1,-1,-1,-1,-1,-1,-1,-1],"split_conditions":[3.5386983E-2,2.069126E-2,4.2081955E-3,-1.1119947E-2,-4.1685097E-2,-5.249439E-2,-9.315838E-2,7.972178E-2,-1.5253926E-2,1.8491995E-1,-3.894422E-1,-4.0438116E-1,2.4998888E-1,-7.5015193E-1,-3.7988362E-1],"split_indices":[989,149,240,140,463,856,381,0,0,0,0,0,0,0,0],"split_type":[0,0,0,0,0,0,0,0,0,0,0,0,0,0,0],"sum_hessian":[3.0067173E3,2.9573943E3,4.932297E1,2.9270354E3,3.0358757E1,1.3050299E1,3.627267E1,7.3402124E2,2.1930142E3,1.3013234E0,2.9057434E1,2.657457E0,1.0392841E1,3.8375304E0,3.2435143E1],"tree_param":{"num_deleted":"0","num_feature":"1024","num_nodes":"15","size_leaf_vector":"0"}},{"base_weights":[-2.007862E-3,7.2726436E-2,-2.1091133E-1,-1.6057649E-1,1.8471402E-1,-1.1421242E0,-1.1353263E-1,-6.723239E-1,1.0699487E-1,2.3362091E-1,-6.4756787E-1,-2.3717222E0,-4.9401623E-1,3.4656312E-2,-8.6357087E-1],"categories":[],"categories_nodes":[],"categories_segments":[],"categories_sizes":[],"default_left":[true,true,true,true,true,true,true,false,false,false,false,false,false,false,false],"id":36,"left_children":[1,3,5,7,9,11,13,-1,-1,-1,-1,-1,-1,-1,-1],"loss_changes":[4.6830135E1,5.7750866E1,7.153865E1,9.825801E1,6.093071E1,5.8367767E1,7.968125E1,0E0,0E0,0E0,0E0,0E0,0E0,0E0,0E0],"parents":[2147483647,0,0,1,1,2,2,3,3,4,4,5,5,6,6],"right_children":[2,4,6,8,10,12,14,-1,-1,-1,-1,-1,-1,-1,-1],"split_conditions":[1.2595018E-2,-1.6772622E-2,2.38771E-2,-5.009908E-3,2.8789373E-2,-1.3630161E-2,2.5779214E-2,-2.0169717E-1,3.209846E-2,7.008628E-2,-1.9427037E-1,-7.115167E-1,-1.4820488E-1,1.0396894E-2,-2.5907126E-1],"split_indices":[164,790,251,794,381,428,410,0,0,0,0,0,0,0,0],"split_type":[0,0,0,0,0,0,0,0,0,0,0,0,0,0,0],"sum_hessian":[2.997593E3,2.2082522E3,7.893407E2,7.160586E2,1.4921936E3,7.371266E1,7.15628E2,2.4533226E2,4.7072635E2,1.4100547E3,8.2138916E1,2.4524685E1,4.9187977E1,5.983606E2,1.1726742E2],"tree_param":{"num_deleted":"0","num_feature":"1024","num_nodes":"15","size_leaf_vector":"0"}},{"base_weights":[-1.821543E-3,1.13141514E-1,-1.3460135E-1,-4.1165948E-1,1.9570619E-1,-1.836712E-2,-5.3488785E-1,-2.1280532E-1,-1.9903135E0,1.8057403E-1,3.7843604E0,-1.1414607E-1,6.674021E-1,1.2772624E-1,-9.5277625E-1],"categories":[],"categories_nodes":[],"categories_segments":[],"categories_sizes":[],"default_left":[true,true,true,true,true,true,true,false,false,false,false,false,false,false,false],"id":37,"left_children":[1,3,5,7,9,11,13,-1,-1,-1,-1,-1,-1,-1,-1],"loss_changes":[4.507612E1,6.865753E1,6.3745476E1,6.721667E1,7.361536E1,6.9893936E1,8.549627E1,0E0,0E0,0E0,0E0,0E0,0E0,0E0,0E0],"parents":[2147483647,0,0,1,1,2,2,3,3,4,4,5,5,6,6],"right_children":[2,4,6,8,10,12,14,-1,-1,-1,-1,-1,-1,-1,-1],"split_conditions":[-2.1364849E-2,4.317692E-3,-4.448287E-2,1.9028066E-2,2.6799552E-2,7.61346E-3,-1.3553588E-1,-6.3841596E-2,-5.9709406E-1,5.417221E-2,1.1353081E0,-3.4243822E-2,2.0022063E-1,3.8317874E-2,-2.8583288E-1],"split_indices":[151,392,820,610,551,771,407,0,0,0,0,0,0,0,0],"split_type":[0,0,0,0,0,0,0,0,0,0,0,0,0,0,0],"sum_hessian":[2.9509526E3,1.5816665E3,1.3692863E3,2.1446829E2,1.3671982E3,1.0619622E3,3.0732413E2,1.9148305E2,2.298524E1,1.3625033E3,4.6949015E0,9.3254974E2,1.2941237E2,1.19127304E2,1.8819684E2],"tree_param":{"num_deleted":"0","num_feature":"1024","num_nodes":"15","size_leaf_vector":"0"}},{"base_weights":[-3.0112157E-3,-1.039034E0,1.098074E-2,-1.2463696E0,5.713649E-1,1.3853364E0,4.0152913E-4,-1.7473675E-1,8.077458E-1,1.7212133E0,-1.092745E0,1.831484E-2,-9.95075E-1],"categories":[],"categories_nodes":[],"categories_segments":[],"categories_sizes":[],"default_left":[true,true,true,false,true,true,true,false,false,false,false,false,false],"id":38,"left_children":[1,3,5,-1,7,9,11,-1,-1,-1,-1,-1,-1],"loss_changes":[4.2340717E1,1.3707859E1,4.1904743E1,0E0,1.0450444E0,2.0205273E1,5.103876E1,0E0,0E0,0E0,0E0,0E0,0E0],"parents":[2147483647,0,0,1,1,2,2,4,4,5,5,6,6],"right_children":[2,4,6,-1,8,10,12,-1,-1,-1,-1,-1,-1],"split_conditions":[-2.9971924E-2,2.2443207E-1,-1.1584729E-1,-3.739109E-1,2.4653014E-2,3.0021697E-2,3.400483E-2,-5.242103E-2,2.4232376E-1,5.1636404E-1,-3.278235E-1,5.494452E-3,-2.985225E-1],"split_indices":[626,991,600,0,330,733,829,0,0,0,0,0,0],"split_type":[0,0,0,0,0,0,0,0,0,0,0,0,0],"sum_hessian":[2.9190713E3,3.7921825E1,2.8811494E3,3.3796627E1,4.1251993E0,2.1015812E1,2.8601338E3,1.0552479E0,3.0699513E0,1.8776312E1,2.2394993E0,2.8105405E3,4.9593258E1],"tree_param":{"num_deleted":"0","num_feature":"1024","num_nodes":"13","size_leaf_vector":"0"}},{"base_weights":[-2.8125627E-3,2.522069E-1,-5.962033E-2,-3.230843E0,2.852611E-1,-1.6753201E-1,1.6974248E-1,-6.265538E-1,-3.7844257E0,3.338786E-1,-2.1381135E0,-3.0263442E-1,1.665024E-1,2.4645546E-1,-1.2145567E0],"categories":[],"categories_nodes":[],"categories_segments":[],"categories_sizes":[],"default_left":[true,true,true,true,true,true,true,false,false,false,false,false,false,false,false],"id":39,"left_children":[1,3,5,7,9,11,13,-1,-1,-1,-1,-1,-1,-1,-1],"loss_changes":[4.206077E1,6.181612E1,5.8796253E1,4.9143143E0,6.2553047E1,7.2941956E1,8.102575E1,0E0,0E0,0E0,0E0,0E0,0E0,0E0,0E0],"parents":[2147483647,0,0,1,1,2,2,3,3,4,4,5,5,6,6],"right_children":[2,4,6,8,10,12,14,-1,-1,-1,-1,-1,-1,-1,-1],"split_conditions":[-2.0019416E-2,-4.646623E-2,1.704777E-2,5.2829526E-2,6.232727E-2,5.1681884E-2,3.6253884E-2,-1.8796614E-1,-1.1353278E0,1.0016359E-1,-6.414341E-1,-9.079033E-2,4.9950723E-2,7.393664E-2,-3.64367E-1],"split_indices":[876,703,287,113,687,1008,584,0,0,0,0,0,0,0,0],"split_type":[0,0,0,0,0,0,0,0,0,0,0,0,0,0,0],"sum_hessian":[2.9012903E3,5.279219E2,2.3733684E3,4.0534205E0,5.2386847E2,1.6141875E3,7.5918085E2,1.084287E0,2.9691336E0,5.1441064E2,9.457831E0,1.1493994E3,4.6478815E2,7.2009753E2,3.90833E1],"tree_param":{"num_deleted":"0","num_feature":"1024","num_nodes":"15","size_leaf_vector":"0"}},{"base_weights":[-1.3980038E-3,-3.347012E-1,4.7616806E-2,-6.654319E-1,1.484815E-1,8.113149E-2,-6.267793E-1,-2.3633758E-2,-1.0737195E0,-1.2502458E0,5.0149935E-1,4.3220082E-1,1.5567049E-2,4.4148332E-1,-1.014106E0],"categories":[],"categories_nodes":[],"categories_segments":[],"categories_sizes":[],"default_left":[true,true,true,true,true,true,true,false,false,false,false,false,false,false,false],"id":40,"left_children":[1,3,5,7,9,11,13,-1,-1,-1,-1,-1,-1,-1,-1],"loss_changes":[4.6890602E1,5.89028E1,5.6608086E1,5.726494E1,7.486309E1,5.488376E1,4.9512505E1,0E0,0E0,0E0,0E0,0E0,0E0,0E0,0E0],"parents":[2147483647,0,0,1,1,2,2,3,3,4,4,5,5,6,6],"right_children":[2,4,6,8,10,12,14,-1,-1,-1,-1,-1,-1,-1,-1],"split_conditions":[-8.022226E-3,6.424161E-3,1.4943924E-2,-1.0731171E-2,1.0137727E-2,-3.8056906E-2,-6.933272E-2,-7.0901276E-3,-3.2211587E-1,-3.7507376E-1,1.5044981E-1,1.2966025E-1,4.670115E-3,1.3244501E-1,-3.0423182E-1],"split_indices":[198,733,329,204,616,893,970,0,0,0,0,0,0,0,0],"split_type":[0,0,0,0,0,0,0,0,0,0,0,0,0,0,0],"sum_hessian":[2.8682695E3,3.669772E2,2.5012925E3,2.1763345E2,1.4934375E2,2.3837114E3,1.1758084E2,8.503016E1,1.326033E2,2.9584085E1,1.1975967E2,3.742377E2,2.0094739E3,3.1250603E1,8.6330246E1],"tree_param":{"num_deleted":"0","num_feature":"1024","num_nodes":"15","size_leaf_vector":"0"}},{"base_weights":[-2.783199E-3,1.9557944E-2,-6.4587504E-1,3.5577465E-2,-9.2450386E-1,-1.3683757E0,3.2864213E-1,7.83855E-2,-3.1702852E-1,-1.2285419E0,5.279994E-1,-5.613913E-1,-1.9390576E0,8.374338E-1,-8.6601037E-1],"categories":[],"categories_nodes":[],"categories_segments":[],"categories_sizes":[],"default_left":[true,true,true,true,true,true,true,false,false,false,false,false,false,false,false],"id":41,"left_children":[1,3,5,7,9,11,13,-1,-1,-1,-1,-1,-1,-1,-1],"loss_changes":[4.061744E1,4.1354004E1,6.7278305E1,4.059299E1,2.0798035E1,2.4101967E1,2.5777588E1,0E0,0E0,0E0,0E0,0E0,0E0,0E0,0E0],"parents":[2147483647,0,0,1,1,2,2,3,3,4,4,5,5,6,6],"right_children":[2,4,6,8,10,12,14,-1,-1,-1,-1,-1,-1,-1,-1],"split_conditions":[3.9324533E-2,4.742907E-2,1.7232567E-1,1.13240555E-2,1.7298106E-2,6.172833E-3,-1.7890185E-2,2.3515651E-2,-9.510856E-2,-3.6856258E-1,1.5839982E-1,-1.684174E-1,-5.817173E-1,2.5123015E-1,-2.5980312E-1],"split_indices":[26,164,280,348,218,584,121,0,0,0,0,0,0,0,0],"split_type":[0,0,0,0,0,0,0,0,0,0,0,0,0,0,0],"sum_hessian":[2.8251753E3,2.7312603E3,9.3914955E1,2.6866338E3,4.4626423E1,5.3698833E1,4.0216118E1,2.396469E3,2.9016495E2,3.702958E1,7.5968423E0,2.306584E1,3.0632996E1,2.8413906E1,1.1802212E1],"tree_param":{"num_deleted":"0","num_feature":"1024","num_nodes":"15","size_leaf_vector":"0"}},{"base_weights":[-2.7117673E-3,1.0557476E-2,-1.0736159E0,-2.614987E-2,4.2129415E-1,5.76071E-1,-1.6289804E0,-5.614777E-1,1.5068087E-2,-9.7031856E-1,6.3617986E-1,-6.882527E-1,9.200939E-1,4.4609925E-1,-1.8140007E0],"categories":[],"categories_nodes":[],"categories_segments":[],"categories_sizes":[],"default_left":[true,true,true,true,true,true,true,false,false,false,false,false,false,false,false],"id":42,"left_children":[1,3,5,7,9,11,13,-1,-1,-1,-1,-1,-1,-1,-1],"loss_changes":[3.981637E1,4.174261E1,3.235737E1,5.6092655E1,6.853774E1,4.7113724E0,1.0759811E1,0E0,0E0,0E0,0E0,0E0,0E0,0E0,0E0],"parents":[2147483647,0,0,1,1,2,2,3,3,4,4,5,5,6,6],"right_children":[2,4,6,8,10,12,14,-1,-1,-1,-1,-1,-1,-1,-1],"split_conditions":[3.7206616E-2,6.441382E-3,-1.185275E-1,1.3645177E-2,-5.282945E-2,7.968665E-4,-8.360176E-2,-1.6844332E-1,4.520426E-3,-2.9109558E-1,1.9085397E-1,-2.0647581E-1,2.760282E-1,1.3382979E-1,-5.4420024E-1],"split_indices":[385,458,565,649,844,653,417,0,0,0,0,0,0,0,0],"split_type":[0,0,0,0,0,0,0,0,0,0,0,0,0,0,0],"sum_hessian":[2.8001814E3,2.766888E3,3.3293518E1,2.540758E3,2.2613004E2,8.375919E0,2.4917599E1,1.8073949E2,2.3600186E3,2.9776989E1,1.9635304E2,1.5775691E0,6.7983503E0,1.9243319E0,2.2993267E1],"tree_param":{"num_deleted":"0","num_feature":"1024","num_nodes":"15","size_leaf_vector":"0"}},{"base_weights":[-2.2385367E-3,-6.882668E-1,1.8427432E-2,-1.3006605E0,-2.0970492E-2,3.782388E-2,-7.2525144E-1,-1.6420953E0,4.4743037E-1,-1.1918447E0,7.049796E-1,-6.5659255E-2,1.8406452E-1,-1.0721705E0,1.0742191E0],"categories":[],"categories_nodes":[],"categories_segments":[],"categories_sizes":[],"default_left":[true,true,true,true,true,true,true,false,false,false,false,false,false,false,false],"id":43,"left_children":[1,3,5,7,9,11,13,-1,-1,-1,-1,-1,-1,-1,-1],"loss_changes":[3.937914E1,3.3165348E1,3.8923298E1,2.6004997E1,3.4743774E1,3.9796104E1,4.397084E1,0E0,0E0,0E0,0E0,0E0,0E0,0E0,0E0],"parents":[2147483647,0,0,1,1,2,2,3,3,4,4,5,5,6,6],"right_children":[2,4,6,8,10,12,14,-1,-1,-1,-1,-1,-1,-1,-1],"split_conditions":[-4.374692E-2,-8.537417E-3,2.3410937E-2,4.087888E-2,1.6612301E-3,5.7959996E-2,5.9395112E-2,-4.926286E-1,1.3422912E-1,-3.5755342E-1,2.114939E-1,-1.9697778E-2,5.521936E-2,-3.2165116E-1,3.2226574E-1],"split_indices":[41,356,95,264,877,148,1014,0,0,0,0,0,0,0,0],"split_type":[0,0,0,0,0,0,0,0,0,0,0,0,0,0,0],"sum_hessian":[2.7756973E3,8.0225464E1,2.6954717E3,4.1338757E1,3.8886703E1,2.627881E3,6.759059E1,3.4634605E1,6.704151E0,1.4637051E1,2.4249653E1,1.5392352E3,1.088646E3,5.7004833E1,1.058576E1],"tree_param":{"num_deleted":"0","num_feature":"1024","num_nodes":"15","size_leaf_vector":"0"}},{"base_weights":[-2.3412185E-3,-1.3953513E-1,9.6750006E-2,-5.2136207E-1,5.459019E-2,1.2825769E-1,-1.0975356E0,-9.6523625E-1,-1.3745272E-1,1.4804603E-1,-7.019477E-1,1.7406464E-1,-6.886615E-1,-2.1557019E0,3.306833E-2],"categories":[],"categories_nodes":[],"categories_segments":[],"categories_sizes":[],"default_left":[true,true,true,true,true,true,true,false,false,false,false,false,false,false,false],"id":44,"left_children":[1,3,5,7,9,11,13,-1,-1,-1,-1,-1,-1,-1,-1],"loss_changes":[3.7248497E1,8.5197876E1,6.000476E1,6.5879715E1,5.4026157E1,5.8155304E1,4.911851E1,0E0,0E0,0E0,0E0,0E0,0E0,0E0,0E0],"parents":[2147483647,0,0,1,1,2,2,3,3,4,4,5,5,6,6],"right_children":[2,4,6,8,10,12,14,-1,-1,-1,-1,-1,-1,-1,-1],"split_conditions":[-1.3806911E-2,3.461486E-2,1.9328386E-2,1.2737877E-2,-3.1272464E-2,3.4787394E-2,-1.4743358E-2,-2.895709E-1,-4.123582E-2,4.4413812E-2,-2.1058431E-1,5.2219395E-2,-2.0659846E-1,-6.467106E-1,9.920499E-3],"split_indices":[159,984,807,653,259,333,149,0,0,0,0,0,0,0,0],"split_type":[0,0,0,0,0,0,0,0,0,0,0,0,0,0,0],"sum_hessian":[2.7379326E3,1.1480393E3,1.5898932E3,3.8637973E2,7.616596E2,1.5498964E3,3.999681E1,1.7849287E2,2.0788686E2,6.786319E2,8.3027725E1,1.4683489E3,8.154751E1,2.0191912E1,1.9804897E1],"tree_param":{"num_deleted":"0","num_feature":"1024","num_nodes":"15","size_leaf_vector":"0"}},{"base_weights":[-2.0892883E-3,-1.503955E-1,8.741937E-2,6.700641E-1,-2.3804875E-1,-1.0752508E-1,2.5434345E-1,9.563927E-1,-1.3780307E0,1.4421657E-1,-4.1010734E-1,-1.594066E-2,-7.5542015E-1,-2.549955E-1,3.9756835E-1],"categories":[],"categories_nodes":[],"categories_segments":[],"categories_sizes":[],"default_left":[true,true,true,true,true,true,true,false,false,false,false,false,false,false,false],"id":45,"left_children":[1,3,5,7,9,11,13,-1,-1,-1,-1,-1,-1,-1,-1],"loss_changes":[3.6008358E1,7.35818E1,5.507425E1,5.9260746E1,6.0775917E1,4.6331425E1,6.660268E1,0E0,0E0,0E0,0E0,0E0,0E0,0E0,0E0],"parents":[2147483647,0,0,1,1,2,2,3,3,4,4,5,5,6,6],"right_children":[2,4,6,8,10,12,14,-1,-1,-1,-1,-1,-1,-1,-1],"split_conditions":[-1.7265327E-2,-3.4131102E-2,2.8175146E-3,2.5200378E-2,-4.6256717E-2,-1.0928056E-2,-1.760631E-4,2.8691784E-1,-4.134092E-1,4.326497E-2,-1.23032205E-1,-4.7821985E-3,-2.2662605E-1,-7.649865E-2,1.1927051E-1],"split_indices":[593,872,924,414,515,398,333,0,0,0,0,0,0,0,0],"split_type":[0,0,0,0,0,0,0,0,0,0,0,0,0,0,0],"sum_hessian":[2.710567E3,1.0199459E3,1.690621E3,9.780631E1,9.2213965E2,7.8002014E2,9.106008E2,8.6277534E1,1.1528776E1,2.8627646E2,6.3586316E2,6.8431244E2,9.5707664E1,1.9968765E2,7.1091315E2],"tree_param":{"num_deleted":"0","num_feature":"1024","num_nodes":"15","size_leaf_vector":"0"}},{"base_weights":[-5.530282E-4,6.6902466E-2,-1.9646977E-1,6.2309104E-1,1.4496936E-2,4.7522847E-2,-6.4379066E-1,-4.7086295E-1,8.889872E-1,6.2304057E-2,-5.85336E-1,1.6942643E-1,-9.6800035E-1,-9.891416E-1,1.6483608E-1],"categories":[],"categories_nodes":[],"categories_segments":[],"categories_sizes":[],"default_left":[true,true,true,true,true,true,true,false,false,false,false,false,false,false,false],"id":46,"left_children":[1,3,5,7,9,11,13,-1,-1,-1,-1,-1,-1,-1,-1],"loss_changes":[3.541888E1,5.8100586E1,7.494902E1,5.0347145E1,5.2313393E1,5.5264164E1,6.783777E1,0E0,0E0,0E0,0E0,0E0,0E0,0E0,0E0],"parents":[2147483647,0,0,1,1,2,2,3,3,4,4,5,5,6,6],"right_children":[2,4,6,8,10,12,14,-1,-1,-1,-1,-1,-1,-1,-1],"split_conditions":[1.7676197E-2,-1.8057799E-2,9.987099E-3,-1.5283503E-2,9.890974E-4,3.7094043E-3,9.122228E-3,-1.412589E-1,2.6669616E-1,1.8691218E-2,-1.7560081E-1,5.082793E-2,-2.9040012E-1,-2.967425E-1,4.9450826E-2],"split_indices":[792,103,42,64,931,149,167,0,0,0,0,0,0,0,0],"split_type":[0,0,0,0,0,0,0,0,0,0,0,0,0,0,0],"sum_hessian":[2.678074E3,1.9926494E3,6.8542456E2,1.7064767E2,1.8220017E3,4.4408868E2,2.4133586E2,3.3216595E1,1.3743108E2,1.6883363E3,1.3366548E2,3.972374E2,4.685128E1,1.6895483E2,7.238102E1],"tree_param":{"num_deleted":"0","num_feature":"1024","num_nodes":"15","size_leaf_vector":"0"}},{"base_weights":[-9.840716E-4,3.3409983E-1,-4.233975E-2,5.7225204E-1,-6.4708537E-1,-2.8612702E-3,-6.1823094E-1,2.6223576E-1,1.5194523E0,-1.000079E0,4.7940618E-1,1.8804874E-2,-9.831262E-1,-9.187386E-1,3.169906E-1],"categories":[],"categories_nodes":[],"categories_segments":[],"categories_sizes":[],"default_left":[true,true,true,true,true,true,true,false,false,false,false,false,false,false,false],"id":47,"left_children":[1,3,5,7,9,11,13,-1,-1,-1,-1,-1,-1,-1,-1],"loss_changes":[3.655774E1,6.809336E1,5.33865E1,6.824062E1,2.3175083E1,4.671376E1,4.262881E1,0E0,0E0,0E0,0E0,0E0,0E0,0E0,0E0],"parents":[2147483647,0,0,1,1,2,2,3,3,4,4,5,5,6,6],"right_children":[2,4,6,8,10,12,14,-1,-1,-1,-1,-1,-1,-1,-1],"split_conditions":[-1.2047017E-2,2.5553964E-2,-3.5333224E-2,9.018113E-2,7.1429916E-2,2.8832642E-2,4.2367525E-2,7.867073E-2,4.5583573E-1,-3.0002373E-1,1.4382187E-1,5.6414623E-3,-2.9493788E-1,-2.756216E-1,9.509719E-2],"split_indices":[776,300,228,74,1008,411,3,0,0,0,0,0,0,0,0],"split_type":[0,0,0,0,0,0,0,0,0,0,0,0,0,0,0],"sum_hessian":[2.6360754E3,2.8882175E2,2.3472537E3,2.3274654E2,5.607521E1,2.1976082E3,1.4964542E2,1.7631569E2,5.6430836E1,4.2781544E1,1.3293667E1,2.151046E3,4.656232E1,1.1326761E2,3.6377804E1],"tree_param":{"num_deleted":"0","num_feature":"1024","num_nodes":"15","size_leaf_vector":"0"}},{"base_weights":[-1.960114E-3,-1.0495917E0,1.0924954E-2,8.8866115E-2,-1.4944221E0,-3.0351896E-2,3.7727866E-1,-1.093894E0,8.2888156E-1,-1.2269596E0,-3.4241023E0,4.2323474E-4,-5.8684343E-1,2.0586017E-1,1.8886436E0],"categories":[],"categories_nodes":[],"categories_segments":[],"categories_sizes":[],"default_left":[true,true,true,true,true,true,true,false,false,false,false,false,false,false,false],"id":48,"left_children":[1,3,5,7,9,11,13,-1,-1,-1,-1,-1,-1,-1,-1],"loss_changes":[3.5219837E1,1.6186405E1,3.89891E1,9.528146E0,7.5920334E0,3.9689632E1,6.725053E1,0E0,0E0,0E0,0E0,0E0,0E0,0E0,0E0],"parents":[2147483647,0,0,1,1,2,2,3,3,4,4,5,5,6,6],"right_children":[2,4,6,8,10,12,14,-1,-1,-1,-1,-1,-1,-1,-1],"split_conditions":[-5.0301027E-2,-3.386967E-2,3.7804954E-2,4.1279113E-3,4.917291E-2,1.9863581E-2,-7.3511917E-3,-3.281682E-1,2.4866448E-1,-3.680879E-1,-1.0272307E0,1.2697042E-4,-1.7605303E-1,6.1758053E-2,5.665931E-1],"split_indices":[888,66,138,18,649,96,726,0,0,0,0,0,0,0,0],"split_type":[0,0,0,0,0,0,0,0,0,0,0,0,0,0,0],"sum_hessian":[2.6072588E3,3.070013E1,2.5765586E3,8.850137E0,2.1849995E1,2.3164795E3,2.6007916E2,3.2220917E0,5.6280446E0,2.0626854E1,1.2231405E0,2.1960334E3,1.2044594E2,2.346064E2,2.5472769E1],"tree_param":{"num_deleted":"0","num_feature":"1024","num_nodes":"15","size_leaf_vector":"0"}},{"base_weights":[-2.231737E-3,4.4084606E-1,-3.2000784E-2,-5.554315E-1,7.4202985E-1,-8.118958E-3,-9.2009664E-1,-1.0231842E0,9.4195676E-1,8.878155E-1,-1.2467194E0,1.2927548E-2,-8.158496E-1,4.559791E-1,-1.2474356E0],"categories":[],"categories_nodes":[],"categories_segments":[],"categories_sizes":[],"default_left":[true,true,true,true,true,true,true,false,false,false,false,false,false,false,false],"id":49,"left_children":[1,3,5,7,9,11,13,-1,-1,-1,-1,-1,-1,-1,-1],"loss_changes":[3.4351295E1,4.9611057E1,5.174995E1,2.8022602E1,3.773362E1,4.042641E1,2.9349953E1,0E0,0E0,0E0,0E0,0E0,0E0,0E0,0E0],"parents":[2147483647,0,0,1,1,2,2,3,3,4,4,5,5,6,6],"right_children":[2,4,6,8,10,12,14,-1,-1,-1,-1,-1,-1,-1,-1],"split_conditions":[-8.854476E-3,-3.5339758E-2,-3.952998E-2,1.8442035E-2,3.7262917E-2,5.4243624E-2,-1.09781185E-2,-3.0695528E-1,2.8258705E-1,2.6634467E-1,-3.740158E-1,3.8782645E-3,-2.447549E-1,1.3679373E-1,-3.7423068E-1],"split_indices":[636,172,502,860,198,964,112,0,0,0,0,0,0,0,0],"split_type":[0,0,0,0,0,0,0,0,0,0,0,0,0,0,0],"sum_hessian":[2.6022737E3,1.6296214E2,2.4393115E3,3.7632957E1,1.25329185E2,2.3764165E3,6.289518E1,2.891668E1,8.716277E0,1.1728515E2,8.044031E0,2.317027E3,5.938926E1,1.2010816E1,5.0884365E1],"tree_param":{"num_deleted":"0","num_feature":"1024","num_nodes":"15","size_leaf_vector":"0"}},{"base_weights":[-3.2371054E-3,-1.2964295E-1,1.0208458E-1,-8.580846E-1,-4.8229437E-2,2.066556E-1,-2.857764E-1,-1.6936748E0,-4.1096187E-1,3.287684E-2,-8.620002E-1,2.3106778E-1,-1.6590962E0,-6.566502E-1,3.1354073E-1],"categories":[],"categories_nodes":[],"categories_segments":[],"categories_sizes":[],"default_left":[true,true,true,true,true,true,true,false,false,false,false,false,false,false,false],"id":50,"left_children":[1,3,5,7,9,11,13,-1,-1,-1,-1,-1,-1,-1,-1],"loss_changes":[3.4258724E1,6.931931E1,5.699264E1,4.3208694E1,6.953131E1,5.076809E1,6.655574E1,0E0,0E0,0E0,0E0,0E0,0E0,0E0,0E0],"parents":[2147483647,0,0,1,1,2,2,3,3,4,4,5,5,6,6],"right_children":[2,4,6,8,10,12,14,-1,-1,-1,-1,-1,-1,-1,-1],"split_conditions":[-1.0934358E-2,-3.6819622E-2,2.1827133E-2,2.4425533E-2,-7.839352E-3,3.5656463E-2,3.67308E-2,-5.081025E-1,-1.23288564E-1,9.8630525E-3,-2.586001E-1,6.9320336E-2,-4.9772888E-1,-1.9699506E-1,9.4062224E-2],"split_indices":[989,428,711,474,915,385,794,0,0,0,0,0,0,0,0],"split_type":[0,0,0,0,0,0,0,0,0,0,0,0,0,0,0],"sum_hessian":[2.571281E3,1.1685592E3,1.4027218E3,1.1651446E2,1.0520447E3,1.105213E3,2.9750882E2,3.9642315E1,7.687215E1,9.575663E2,9.447838E1,1.0918036E3,1.3409394E1,1.8372136E2,1.13787445E2],"tree_param":{"num_deleted":"0","num_feature":"1024","num_nodes":"15","size_leaf_vector":"0"}},{"base_weights":[-3.2213647E-3,2.6942003E-1,-5.3287856E-2,6.4435637E-1,-1.3692768E-1,8.11191E-2,-2.0842762E-1,-2.2396787E-1,8.619594E-1,-7.820908E-1,2.0282999E-1,1.2625971E-1,-7.2330344E-1,1.0021425E-1,-3.6607108E-1],"categories":[],"categories_nodes":[],"categories_segments":[],"categories_sizes":[],"default_left":[true,true,true,true,true,true,true,false,false,false,false,false,false,false,false],"id":51,"left_children":[1,3,5,7,9,11,13,-1,-1,-1,-1,-1,-1,-1,-1],"loss_changes":[3.4619465E1,6.0036476E1,4.46953E1,3.8894623E1,4.173066E1,4.1805244E1,4.8443768E1,0E0,0E0,0E0,0E0,0E0,0E0,0E0,0E0],"parents":[2147483647,0,0,1,1,2,2,3,3,4,4,5,5,6,6],"right_children":[2,4,6,8,10,12,14,-1,-1,-1,-1,-1,-1,-1,-1],"split_conditions":[5.8020763E-2,-1.0109842E-2,2.8596371E-2,3.2555766E-2,-2.2466432E-2,1.9863373E-2,-1.09356735E-2,-6.7190364E-2,2.5858784E-1,-2.3462725E-1,6.0849E-2,3.7877917E-2,-2.1699104E-1,3.0064275E-2,-1.0982133E-1],"split_indices":[323,60,592,323,779,917,69,0,0,0,0,0,0,0,0],"split_type":[0,0,0,0,0,0,0,0,0,0,0,0,0,0,0],"sum_hessian":[2.5341357E3,3.924786E2,2.1416572E3,2.0382442E2,1.886542E2,1.1477603E3,9.93897E2,4.0837395E1,1.6298703E2,6.462894E1,1.2402526E2,1.0875735E3,6.0186737E1,3.361435E2,6.577535E2],"tree_param":{"num_deleted":"0","num_feature":"1024","num_nodes":"15","size_leaf_vector":"0"}},{"base_weights":[-1.6443308E-3,2.8206956E-2,-4.0675393E-1,-1.8839541E-1,9.783273E-2,-1.0803509E0,-7.107877E-3,5.3431787E-2,-6.508584E-1,1.2526308E-1,-6.270254E-1,-1.5409148E0,-1.17079906E-1,7.6635695E-1,-4.1940135E-1],"categories":[],"categories_nodes":[],"categories_segments":[],"categories_sizes":[],"default_left":[true,true,true,true,true,true,true,false,false,false,false,false,false,false,false],"id":52,"left_children":[1,3,5,7,9,11,13,-1,-1,-1,-1,-1,-1,-1,-1],"loss_changes":[3.0562729E1,3.5517876E1,4.6684525E1,6.410959E1,3.550959E1,2.8470604E1,3.5357464E1,0E0,0E0,0E0,0E0,0E0,0E0,0E0,0E0],"parents":[2147483647,0,0,1,1,2,2,3,3,4,4,5,5,6,6],"right_children":[2,4,6,8,10,12,14,-1,-1,-1,-1,-1,-1,-1,-1],"split_conditions":[1.3303983E-1,-5.682424E-2,1.5053998E-2,-7.6326975E-3,4.5357216E-3,-2.1986391E-2,1.5576005E-2,1.6029537E-2,-1.9525753E-1,3.7578925E-2,-1.8810764E-1,-4.6227446E-1,-3.5123974E-2,2.299071E-1,-1.2582041E-1],"split_indices":[481,483,648,690,945,721,448,0,0,0,0,0,0,0,0],"split_type":[0,0,0,0,0,0,0,0,0,0,0,0,0,0,0],"sum_hessian":[2.5253496E3,2.3529019E3,1.7244775E2,5.719349E2,1.780967E3,6.3580536E1,1.08867226E2,3.7613437E2,1.958005E2,1.7168256E3,6.414155E1,4.260862E1,2.0971916E1,3.7555027E1,7.1312195E1],"tree_param":{"num_deleted":"0","num_feature":"1024","num_nodes":"15","size_leaf_vector":"0"}},{"base_weights":[-8.694009E-4,-8.42475E-1,1.3614321E-2,8.564629E-2,-2.236418E0,2.537199E-2,-1.0465655E0,6.549446E-1,-1.0762901E0,-2.7260041E0,3.7242457E-1,5.4890968E-2,-4.1797152E-1,2.8954482E-1,-1.4217433E0],"categories":[],"categories_nodes":[],"categories_segments":[],"categories_sizes":[],"default_left":[true,true,true,true,true,true,true,false,false,false,false,false,false,false,false],"id":53,"left_children":[1,3,5,7,9,11,13,-1,-1,-1,-1,-1,-1,-1,-1],"loss_changes":[3.061023E1,5.5156834E1,3.0800169E1,1.8212646E1,2.2751663E1,3.199003E1,1.3997557E1,0E0,0E0,0E0,0E0,0E0,0E0,0E0,0E0],"parents":[2147483647,0,0,1,1,2,2,3,3,4,4,5,5,6,6],"right_children":[2,4,6,8,10,12,14,-1,-1,-1,-1,-1,-1,-1,-1],"split_conditions":[-5.409056E-2,8.058659E-3,-4.570999E-3,-3.2733332E-2,3.1421594E-2,3.1789653E-2,-3.597378E-2,1.9648339E-1,-3.2288706E-1,-8.178013E-1,1.1172738E-1,1.6467292E-2,-1.2539147E-1,8.686345E-2,-4.26523E-1],"split_indices":[638,281,880,572,1004,1019,996,0,0,0,0,0,0,0,0],"split_type":[0,0,0,0,0,0,0,0,0,0,0,0,0,0,0],"sum_hessian":[2.5092388E3,4.1485302E1,2.4677534E3,2.5467188E1,1.6018116E1,2.4416511E3,2.6102472E1,1.7385422E1,8.081766E0,1.3449264E1,2.5688524E0,2.2900498E3,1.5160133E2,5.7726684E0,2.0329803E1],"tree_param":{"num_deleted":"0","num_feature":"1024","num_nodes":"15","size_leaf_vector":"0"}},{"base_weights":[-1.3220243E-3,-8.7920266E-1,1.1207529E-2,5.436635E-1,-1.4702408E0,-3.7115693E-2,2.881503E-1,-1.7696879E0,9.6217304E-1,-1.6742709E0,3.7184095E-1,3.3371396E-2,-2.9655498E-1,-1.7643929E-1,5.239134E-1],"categories":[],"categories_nodes":[],"categories_segments":[],"categories_sizes":[],"default_left":[true,true,true,true,true,true,true,false,false,false,false,false,false,false,false],"id":54,"left_children":[1,3,5,7,9,11,13,-1,-1,-1,-1,-1,-1,-1,-1],"loss_changes":[2.7503592E1,3.038919E1,3.3004158E1,1.2406951E1,1.0067139E1,3.8412613E1,4.022342E1,0E0,0E0,0E0,0E0,0E0,0E0,0E0,0E0],"parents":[2147483647,0,0,1,1,2,2,3,3,4,4,5,5,6,6],"right_children":[2,4,6,8,10,12,14,-1,-1,-1,-1,-1,-1,-1,-1],"split_conditions":[-5.304271E-3,-5.13132E-2,-2.5727865E-3,-3.002657E-2,4.8301116E-2,3.753529E-3,-2.622233E-1,-5.309064E-1,2.886519E-1,-5.022813E-1,1.1155229E-1,1.001142E-2,-8.89665E-2,-5.293179E-2,1.5717402E-1],"split_indices":[401,859,273,497,824,399,259,0,0,0,0,0,0,0,0],"split_type":[0,0,0,0,0,0,0,0,0,0,0,0,0,0,0],"sum_hessian":[2.498555E3,3.4185486E1,2.4643694E3,1.0056238E1,2.4129248E1,2.098987E3,3.6538232E2,1.0459733E0,9.010265E0,2.1805191E1,2.3240569E0,1.6512344E3,4.477527E2,1.2308511E2,2.422972E2],"tree_param":{"num_deleted":"0","num_feature":"1024","num_nodes":"15","size_leaf_vector":"0"}},{"base_weights":[-7.557198E-4,1.9162504E-2,-5.569845E-1,-5.7684787E-2,1.9774552E-1,-2.3377054E0,-3.2461715E-1,6.118943E-2,-3.698387E-1,-5.930425E-1,2.7649653E-1,-3.994989E-1,-3.5596747E0,-1.6972907E0,-8.7834306E-2],"categories":[],"categories_nodes":[],"categories_segments":[],"categories_sizes":[],"default_left":[true,true,true,true,true,true,true,false,false,false,false,false,false,false,false],"id":55,"left_children":[1,3,5,7,9,11,13,-1,-1,-1,-1,-1,-1,-1,-1],"loss_changes":[2.7466238E1,3.2858025E1,3.470477E1,6.2144855E1,4.5021004E1,2.162667E1,2.4869606E1,0E0,0E0,0E0,0E0,0E0,0E0,0E0,0E0],"parents":[2147483647,0,0,1,1,2,2,3,3,4,4,5,5,6,6],"right_children":[2,4,6,8,10,12,14,-1,-1,-1,-1,-1,-1,-1,-1],"split_conditions":[2.298864E-2,8.35409E-3,-2.2658166E-2,2.7700968E-2,-2.287168E-2,7.171978E-2,4.8646424E-3,1.835683E-2,-1.1095162E-1,-1.7791276E-1,8.294896E-2,-1.19849674E-1,-1.0679024E0,-5.091872E-1,-2.6350293E-2],"split_indices":[909,813,84,744,1012,957,649,0,0,0,0,0,0,0,0],"split_type":[0,0,0,0,0,0,0,0,0,0,0,0,0,0,0],"sum_hessian":[2.4771428E3,2.3924368E3,8.47062E1,1.6731353E3,7.193014E2,8.731667E0,7.597453E1,1.2122798E3,4.6085547E2,6.455308E1,6.5474835E2,3.8894343E0,4.8422318E0,1.02699E1,6.570463E1],"tree_param":{"num_deleted":"0","num_feature":"1024","num_nodes":"15","size_leaf_vector":"0"}},{"base_weights":[-6.5085065E-4,-1.2274315E0,8.7469295E-3,6.422295E-1,-2.195961E0,-2.4028867E-2,3.286828E-1,9.5254475E-1,-5.9867746E-1,-2.4766204E0,1.513413E-1,2.5466225E-1,-8.095371E-2,3.7659502E-1,-3.18165E0],"categories":[],"categories_nodes":[],"categories_segments":[],"categories_sizes":[],"default_left":[true,true,true,true,true,true,true,false,false,false,false,false,false,false,false],"id":56,"left_children":[1,3,5,7,9,11,13,-1,-1,-1,-1,-1,-1,-1,-1],"loss_changes":[2.8277746E1,3.5175743E1,2.5532963E1,3.3184538E0,8.616089E0,3.5063675E1,3.925298E1,0E0,0E0,0E0,0E0,0E0,0E0,0E0,0E0],"parents":[2147483647,0,0,1,1,2,2,3,3,4,4,5,5,6,6],"right_children":[2,4,6,8,10,12,14,-1,-1,-1,-1,-1,-1,-1,-1],"split_conditions":[-4.9585942E-2,-3.5241295E-2,2.6985869E-2,-2.4503991E-2,-3.611804E-3,8.0021424E-4,1.1499422E-2,2.8576344E-1,-1.7960325E-1,-7.4298614E-1,4.5402393E-2,7.639868E-2,-2.4286114E-2,1.1297851E-1,-9.54495E-1],"split_indices":[857,275,200,121,979,732,344,0,0,0,0,0,0,0,0],"split_type":[0,0,0,0,0,0,0,0,0,0,0,0,0,0,0],"sum_hessian":[2.450815E3,1.764647E1,2.4331685E3,6.1368065E0,1.1509664E1,2.2079048E3,2.2526367E2,5.0950584E0,1.0417477E0,1.0231253E1,1.278411E0,3.7390027E2,1.8340045E3,2.2311118E2,2.1525056E0],"tree_param":{"num_deleted":"0","num_feature":"1024","num_nodes":"15","size_leaf_vector":"0"}},{"base_weights":[-6.6177396E-4,-5.7497185E-1,1.8390477E-2,-1.1027902E0,7.026813E-2,2.9272819E0,1.1002338E-2,-1.3137255E0,4.967739E-1,4.9004874E0,6.595184E-1,1.0466352E0,-7.2919605E-3],"categories":[],"categories_nodes":[],"categories_segments":[],"categories_sizes":[],"default_left":[true,true,true,false,true,true,true,false,false,false,false,false,false],"id":57,"left_children":[1,3,5,-1,7,9,11,-1,-1,-1,-1,-1,-1],"loss_changes":[2.6794233E1,2.6855642E1,5.0906017E1,0E0,2.2090824E1,2.3620506E1,4.481873E1,0E0,0E0,0E0,0E0,0E0,0E0],"parents":[2147483647,0,0,1,1,2,2,4,4,5,5,6,6],"right_children":[2,4,6,-1,8,10,12,-1,-1,-1,-1,-1,-1],"split_conditions":[-9.170087E-3,1.540286E-3,-8.933797E-3,-3.3083707E-1,-1.7934047E-2,-8.258506E-2,-2.0890582E-2,-3.9411765E-1,1.4903218E-1,1.4701463E0,1.9785553E-1,3.1399056E-1,-2.1875883E-3],"split_indices":[1023,925,1023,0,429,508,184,0,0,0,0,0,0],"split_type":[0,0,0,0,0,0,0,0,0,0,0,0,0],"sum_hessian":[2.4468074E3,7.7627556E1,2.3691797E3,4.2308933E1,3.531862E1,5.0008698E0,2.364179E3,7.830091E0,2.7488527E1,2.0533195E0,2.94755E0,4.0062214E1,2.3241167E3],"tree_param":{"num_deleted":"0","num_feature":"1024","num_nodes":"13","size_leaf_vector":"0"}},{"base_weights":[-1.0497249E-3,1.4769898E-2,-6.556462E-1,2.6296537E-2,-1.1250653E0,7.508556E-1,-1.0448978E0,1.2373203E-1,-1.0728801E-1,-8.7025595E-1,9.9996865E-1,-1.3889378E0,1.7703784E-1],"categories":[],"categories_nodes":[],"categories_segments":[],"categories_sizes":[],"default_left":[true,true,true,true,false,true,true,false,false,false,false,false,false],"id":58,"left_children":[1,3,5,7,-1,9,11,-1,-1,-1,-1,-1,-1],"loss_changes":[2.5242928E1,3.1301596E1,3.2275974E1,3.0696053E1,0E0,6.1403856E0,1.9361336E1,0E0,0E0,0E0,0E0,0E0,0E0],"parents":[2147483647,0,0,1,1,2,2,3,3,5,5,6,6],"right_children":[2,4,6,8,-1,10,12,-1,-1,-1,-1,-1,-1],"split_conditions":[4.6945605E-2,2.532617E-2,-6.637162E-2,5.0572976E-2,-3.3751962E-1,1.8560335E-2,5.2719504E-2,3.7119612E-2,-3.2186404E-2,-2.610768E-1,2.999906E-1,-4.1668138E-1,5.3111352E-2],"split_indices":[711,269,55,550,0,233,55,0,0,0,0,0,0],"split_type":[0,0,0,0,0,0,0,0,0,0,0,0,0],"sum_hessian":[2.4357068E3,2.3791865E3,5.6520325E1,2.356335E3,2.2851625E1,1.2050108E1,4.4470215E1,1.3625648E3,9.937701E2,1.2729468E0,1.0777162E1,3.45936E1,9.876614E0],"tree_param":{"num_deleted":"0","num_feature":"1024","num_nodes":"13","size_leaf_vector":"0"}},{"base_weights":[-1.6964792E-3,1.46852825E-2,-6.33047E-1,-2.0379181E-1,6.539741E-2,4.4544104E-2,-1.4531448E0,-1.7513245E0,-1.3390997E-1,-1.426035E-1,1.549679E-1,5.1428163E-1,-1.2291833E0,5.1500165E-1,-1.8027415E0],"categories":[],"categories_nodes":[],"categories_segments":[],"categories_sizes":[],"default_left":[true,true,true,true,true,true,true,false,false,false,false,false,false,false,false],"id":59,"left_children":[1,3,5,7,9,11,13,-1,-1,-1,-1,-1,-1,-1,-1],"loss_changes":[2.5135912E1,2.6260036E1,3.42203E1,4.805488E1,3.5857025E1,2.1350098E1,2.0082592E1,0E0,0E0,0E0,0E0,0E0,0E0,0E0,0E0],"parents":[2147483647,0,0,1,1,2,2,3,3,4,4,5,5,6,6],"right_children":[2,4,6,8,10,12,14,-1,-1,-1,-1,-1,-1,-1,-1],"split_conditions":[2.239923E-2,-7.3830783E-3,4.0602643E-4,1.7008837E-3,-5.2308915E-3,1.37779005E-2,-4.8913796E-2,-5.2539736E-1,-4.0172994E-2,-4.278105E-2,4.649037E-2,1.5428449E-1,-3.68755E-1,1.545005E-1,-5.408225E-1],"split_indices":[807,664,399,349,394,773,356,0,0,0,0,0,0,0,0],"split_type":[0,0,0,0,0,0,0,0,0,0,0,0,0,0,0],"sum_hessian":[2.4284216E3,2.3679565E3,6.0465042E1,4.4552686E2,1.9224297E3,3.362701E1,2.683803E1,1.8209803E1,4.2731705E2,5.7848285E2,1.3439468E3,2.5002563E1,8.624449E0,3.9767501E0,2.286128E1],"tree_param":{"num_deleted":"0","num_feature":"1024","num_nodes":"15","size_leaf_vector":"0"}},{"base_weights":[-1.7044871E-3,-1.3080652E0,6.05744E-3,1.5418181E-1,-1.4306339E0,-5.1365975E-2,1.9414541E-1,-1.8924599E0,-9.91679E-1,-3.4097898E-1,3.525608E-2,2.6252356E-1,-9.893418E-1],"categories":[],"categories_nodes":[],"categories_segments":[],"categories_sizes":[],"default_left":[true,true,true,false,true,true,true,false,false,false,false,false,false],"id":60,"left_children":[1,3,5,-1,7,9,11,-1,-1,-1,-1,-1,-1],"loss_changes":[2.4509855E1,2.7794094E0,2.59652E1,0E0,8.1344223E-1,4.62179E1,4.576217E1,0E0,0E0,0E0,0E0,0E0,0E0],"parents":[2147483647,0,0,1,1,2,2,4,4,5,5,6,6],"right_children":[2,4,6,-1,8,10,12,-1,-1,-1,-1,-1,-1],"split_conditions":[-5.939327E-2,-2.7174577E-3,3.5131007E-2,4.6254545E-2,-2.6785262E-2,-3.0322164E-2,1.18287206E-1,-5.67738E-1,-2.975037E-1,-1.022937E-1,1.0576825E-2,7.875707E-2,-2.9680255E-1],"split_indices":[870,220,735,0,422,671,397,0,0,0,0,0,0],"split_type":[0,0,0,0,0,0,0,0,0,0,0,0,0],"sum_hessian":[2.4153936E3,1.3277152E1,2.4021165E3,1.0068997E0,1.2270252E1,1.840835E3,5.612815E2,4.3657475E0,7.904505E0,4.2314648E2,1.4176884E3,5.3135944E2,2.992209E1],"tree_param":{"num_deleted":"0","num_feature":"1024","num_nodes":"13","size_leaf_vector":"0"}},{"base_weights":[-1.2364521E-3,-4.9677217E-1,1.9617954E-2,4.115173E-1,-8.37175E-1,-1.303775E0,2.9122608E-2,-7.576574E-1,1.13654E0,-1.0112863E0,8.5161185E-1,-2.5801387E-1,-2.355351E0,-1.2788488E-1,1.0570748E-1],"categories":[],"categories_nodes":[],"categories_segments":[],"categories_sizes":[],"default_left":[true,true,true,true,true,true,true,false,false,false,false,false,false,false,false],"id":61,"left_children":[1,3,5,7,9,11,13,-1,-1,-1,-1,-1,-1,-1,-1],"loss_changes":[2.4940256E1,3.0479088E1,2.9169342E1,2.3951916E1,2.1803913E1,1.7577682E1,2.7675032E1,0E0,0E0,0E0,0E0,0E0,0E0,0E0,0E0],"parents":[2147483647,0,0,1,1,2,2,3,3,4,4,5,5,6,6],"right_children":[2,4,6,8,10,12,14,-1,-1,-1,-1,-1,-1,-1,-1],"split_conditions":[1.1833295E-2,-1.0944875E-2,-3.532117E-2,1.864954E-2,3.378915E-2,3.696709E-2,-2.3362562E-2,-2.2729723E-1,3.4096202E-1,-3.0338588E-1,2.5548357E-1,-7.7404164E-2,-7.066053E-1,-3.8365465E-2,3.1712245E-2],"split_indices":[320,752,10,303,784,306,568,0,0,0,0,0,0,0,0],"split_type":[0,0,0,0,0,0,0,0,0,0,0,0,0,0,0],"sum_hessian":[2.4114504E3,9.646476E1,2.3149856E3,2.624006E1,7.022469E1,1.5536728E1,2.299449E3,1.0026414E1,1.6213648E1,6.4024994E1,6.199702E0,8.414309E0,7.1224194E0,7.5367065E2,1.5457782E3],"tree_param":{"num_deleted":"0","num_feature":"1024","num_nodes":"15","size_leaf_vector":"0"}},{"base_weights":[-1.5792486E-3,3.5752156E-1,-2.9329006E-2,-1.2716659E0,4.615476E-1,1.3916853E-2,-3.3038297E-1,3.554583E-1,-2.7079442E0,-1.1494853E0,5.426969E-1,4.435133E-2,-5.5686E-1,1.6170874E-1,-7.011116E-1],"categories":[],"categories_nodes":[],"categories_segments":[],"categories_sizes":[],"default_left":[true,true,true,true,true,true,true,false,false,false,false,false,false,false,false],"id":62,"left_children":[1,3,5,7,9,11,13,-1,-1,-1,-1,-1,-1,-1,-1],"loss_changes":[2.3940025E1,2.9793398E1,2.903819E1,2.5757034E1,2.1897198E1,3.3914215E1,5.122086E1,0E0,0E0,0E0,0E0,0E0,0E0,0E0,0E0],"parents":[2147483647,0,0,1,1,2,2,3,3,4,4,5,5,6,6],"right_children":[2,4,6,8,10,12,14,-1,-1,-1,-1,-1,-1,-1,-1],"split_conditions":[-3.835526E-2,1.6547468E-2,1.2575693E-2,-1.4485601E-2,-6.8952553E-3,3.367711E-2,-5.484251E-2,1.0663749E-1,-8.123833E-1,-3.4484562E-1,1.6280907E-1,1.3305399E-2,-1.6705802E-1,4.8512626E-2,-2.103335E-1],"split_indices":[879,1023,395,861,427,511,32,0,0,0,0,0,0,0,0],"split_type":[0,0,0,0,0,0,0,0,0,0,0,0,0,0,0],"sum_hessian":[2.4003682E3,1.7133195E2,2.2290361E3,9.609517E0,1.6172243E2,1.9498916E3,2.7914462E2,4.8582454E0,4.751272E0,7.1241264E0,1.5459831E2,1.8520599E3,9.783166E1,1.20182526E2,1.5896211E2],"tree_param":{"num_deleted":"0","num_feature":"1024","num_nodes":"15","size_leaf_vector":"0"}},{"base_weights":[-7.8417803E-4,-3.3113578E-1,2.9196402E-2,3.613024E-1,-6.614925E-1,3.6749426E-1,-4.3143716E-2,-1.1809669E0,7.3577803E-1,-1.800886E-1,-1.5067638E0,3.9411998E-1,-3.6799674E0,1.93354E-1,-1.3484886E-1],"categories":[],"categories_nodes":[],"categories_segments":[],"categories_sizes":[],"default_left":[true,true,true,true,true,true,true,false,false,false,false,false,false,false,false],"id":63,"left_children":[1,3,5,7,9,11,13,-1,-1,-1,-1,-1,-1,-1,-1],"loss_changes":[2.3567417E1,4.552837E1,5.3404903E1,3.81751E1,5.441429E1,4.2878582E1,3.9024826E1,0E0,0E0,0E0,0E0,0E0,0E0,0E0,0E0],"parents":[2147483647,0,0,1,1,2,2,3,3,4,4,5,5,6,6],"right_children":[2,4,6,8,10,12,14,-1,-1,-1,-1,-1,-1,-1,-1],"split_conditions":[-2.4974555E-2,1.082639E-2,-4.6516885E-3,1.8876113E-2,-1.5344932E-3,1.0330383E-2,-2.8218705E-2,-3.5429007E-1,2.2073342E-1,-5.402658E-2,-4.5202917E-1,1.18236E-1,-1.1039903E0,5.80062E-2,-4.045466E-2],"split_indices":[57,408,57,251,682,932,788,0,0,0,0,0,0,0,0],"split_type":[0,0,0,0,0,0,0,0,0,0,0,0,0,0,0],"sum_hessian":[2.3775776E3,1.9698491E2,2.1805928E3,6.3594707E1,1.333902E2,3.8342578E2,1.797167E3,1.2003776E1,5.159093E1,8.576045E1,4.762975E1,3.8181668E2,1.6091067E0,5.0184763E2,1.2953195E3],"tree_param":{"num_deleted":"0","num_feature":"1024","num_nodes":"15","size_leaf_vector":"0"}},{"base_weights":[1.0375048E-4,1.0317003E-2,-9.232984E-1,-1.5405552E-2,3.7857145E-1,-1.3537723E0,9.4751E-1,-1.0388725E0,6.450469E-4,5.2883947E-1,-1.169481E0,-1.394078E0,-2.66867E-1,6.206124E-2,1.1468773E0],"categories":[],"categories_nodes":[],"categories_segments":[],"categories_sizes":[],"default_left":[true,true,true,true,true,true,true,false,false,false,false,false,false,false,false],"id":64,"left_children":[1,3,5,7,9,11,13,-1,-1,-1,-1,-1,-1,-1,-1],"loss_changes":[2.227514E1,2.213416E1,2.2091064E1,3.588623E1,3.610743E1,5.6619644E-1,8.858795E-1,0E0,0E0,0E0,0E0,0E0,0E0,0E0,0E0],"parents":[2147483647,0,0,1,1,2,2,3,3,4,4,5,5,6,6],"right_children":[2,4,6,8,10,12,14,-1,-1,-1,-1,-1,-1,-1,-1],"split_conditions":[1.5040742E-2,1.1005379E-2,5.1202983E-2,-2.9554773E-2,4.30574E-2,1.6872976E-2,5.531882E-2,-3.1166175E-1,1.9351408E-4,1.5865184E-1,-3.5084432E-1,-4.182234E-1,-8.006011E-2,1.8618373E-2,3.440632E-1],"split_indices":[286,771,220,914,216,915,772,0,0,0,0,0,0,0,0],"split_type":[0,0,0,0,0,0,0,0,0,0,0,0,0,0,0],"sum_hessian":[2.3599114E3,2.3350732E3,2.4838156E1,2.183513E3,1.5156012E2,2.0416647E1,4.4215097E0,3.2730446E1,2.1507827E3,1.3875015E2,1.2809964E1,1.9414103E1,1.0025439E0,1.0535729E0,3.3679366E0],"tree_param":{"num_deleted":"0","num_feature":"1024","num_nodes":"15","size_leaf_vector":"0"}},{"base_weights":[-5.6797377E-4,8.4777385E-2,-1.154521E-1,-1.2239223E0,1.073586E-1,-2.9245314E-1,1.3075182E-1,-3.5560095E-1,1.6168459E-1,2.827151E-2,-6.76036E-1,-1.0657185E0,2.2238521E-1],"categories":[],"categories_nodes":[],"categories_segments":[],"categories_sizes":[],"default_left":[true,true,true,false,true,true,true,false,false,false,false,false,false],"id":65,"left_children":[1,3,5,-1,7,9,11,-1,-1,-1,-1,-1,-1],"loss_changes":[2.2996737E1,3.990058E1,4.3604263E1,0E0,3.3352737E1,7.1607666E1,4.615418E1,0E0,0E0,0E0,0E0,0E0,0E0],"parents":[2147483647,0,0,1,1,2,2,4,4,5,5,6,6],"right_children":[2,4,6,-1,8,10,12,-1,-1,-1,-1,-1,-1],"split_conditions":[-1.2929434E-1,-2.3391868E-1,1.5318948E-3,-3.6717668E-1,-3.1553772E-3,-2.6375022E-2,1.0870016E-2,-1.0668029E-1,4.8505377E-2,8.481453E-3,-2.0281081E-1,-3.1971556E-1,6.671557E-2],"split_indices":[899,280,589,0,809,706,850,0,0,0,0,0,0],"split_type":[0,0,0,0,0,0,0,0,0,0,0,0,0],"sum_hessian":[2.3434521E3,1.3447347E3,9.987173E2,2.190702E1,1.3228278E3,5.8090497E2,4.1781232E2,1.3834265E2,1.1844851E3,3.1687936E2,2.6402563E2,2.8966206E1,3.888461E2],"tree_param":{"num_deleted":"0","num_feature":"1024","num_nodes":"13","size_leaf_vector":"0"}},{"base_weights":[-5.220469E-4,4.2170644E-1,-2.3842044E-2,6.1021435E-1,-1.0366123E0,1.5931615E-3,-5.795118E-1,7.5834703E-1,-1.1001678E0,6.273578E-1,-1.2922968E0,2.1209337E-2,-7.4645996E-1,-7.6871955E-1,1.2597511E0],"categories":[],"categories_nodes":[],"categories_segments":[],"categories_sizes":[],"default_left":[true,true,true,true,true,true,true,false,false,false,false,false,false,false,false],"id":66,"left_children":[1,3,5,7,9,11,13,-1,-1,-1,-1,-1,-1,-1,-1],"loss_changes":[2.291743E1,3.412183E1,3.1174763E1,2.8325848E1,6.9011164E0,3.097951E1,3.4566433E1,0E0,0E0,0E0,0E0,0E0,0E0,0E0,0E0],"parents":[2147483647,0,0,1,1,2,2,3,3,4,4,5,5,6,6],"right_children":[2,4,6,8,10,12,14,-1,-1,-1,-1,-1,-1,-1,-1],"split_conditions":[-4.0270247E-2,2.6327517E-2,1.5078796E-2,1.4666591E-2,-2.9091937E-2,3.4491505E-2,1.8356702E-1,2.2750412E-1,-3.3005035E-1,1.8820734E-1,-3.8768905E-1,6.3628014E-3,-2.23938E-1,-2.3061587E-1,3.7792534E-1],"split_indices":[433,26,693,736,302,916,612,0,0,0,0,0,0,0,0],"split_type":[0,0,0,0,0,0,0,0,0,0,0,0,0,0,0],"sum_hessian":[2.32548E3,1.2082142E2,2.2046584E3,1.075063E2,1.3315117E1,2.109113E3,9.554533E1,9.944978E1,8.05652E0,1.5798647E0,1.1735252E1,2.056166E3,5.2947132E1,8.7160995E1,8.384333E0],"tree_param":{"num_deleted":"0","num_feature":"1024","num_nodes":"15","size_leaf_vector":"0"}},{"base_weights":[-1.0411333E-3,-5.228968E-2,1.9222875E-1,-4.915997E-1,3.4967198E-3,-5.5331282E-2,5.28286E-1,8.831311E-1,-6.659729E-1,2.2886658E-1,-1.00443006E-1,-2.318447E-1,7.25616E-1,6.530539E-1,-5.7991374E-1],"categories":[],"categories_nodes":[],"categories_segments":[],"categories_sizes":[],"default_left":[true,true,true,true,true,true,true,false,false,false,false,false,false,false,false],"id":67,"left_children":[1,3,5,7,9,11,13,-1,-1,-1,-1,-1,-1,-1,-1],"loss_changes":[2.2863237E1,4.4715378E1,4.027839E1,4.9870514E1,3.796897E1,3.8694447E1,2.8766842E1,0E0,0E0,0E0,0E0,0E0,0E0,0E0,0E0],"parents":[2147483647,0,0,1,1,2,2,3,3,4,4,5,5,6,6],"right_children":[2,4,6,8,10,12,14,-1,-1,-1,-1,-1,-1,-1,-1],"split_conditions":[1.53395645E-2,-2.2028618E-2,2.225665E-2,-1.1361084E-2,-9.288658E-4,-1.6422465E-2,-2.6788685E-2,2.6493934E-1,-1.9979188E-1,6.8659976E-2,-3.0132903E-2,-6.955341E-2,2.176848E-1,1.9591618E-1,-1.7397413E-1],"split_indices":[120,835,25,544,682,844,907,0,0,0,0,0,0,0,0],"split_type":[0,0,0,0,0,0,0,0,0,0,0,0,0,0,0],"sum_hessian":[2.3062837E3,1.8234869E3,4.8279678E2,2.0458633E2,1.6189006E3,2.78484E2,2.0431277E2,2.257151E1,1.8201482E2,5.1059296E2,1.1083077E3,2.2771736E2,5.0766636E1,1.8400687E2,2.0305902E1],"tree_param":{"num_deleted":"0","num_feature":"1024","num_nodes":"15","size_leaf_vector":"0"}},{"base_weights":[6.0740265E-4,-3.1327814E-2,3.084471E-1,-4.5480207E-1,6.6908496E-3,8.5725415E-1,-1.4086483E-1,3.3567095E-1,-7.731962E-1,-1.6306038E-1,1.2085169E-1,-1.0031995E0,1.0415368E0,-7.562566E-1,3.6381686E-1],"categories":[],"categories_nodes":[],"categories_segments":[],"categories_sizes":[],"default_left":[true,true,true,true,true,true,true,false,false,false,false,false,false,false,false],"id":68,"left_children":[1,3,5,7,9,11,13,-1,-1,-1,-1,-1,-1,-1,-1],"loss_changes":[2.2414621E1,3.326117E1,5.2963177E1,4.309415E1,3.677261E1,3.416706E1,3.713688E1,0E0,0E0,0E0,0E0,0E0,0E0,0E0,0E0],"parents":[2147483647,0,0,1,1,2,2,3,3,4,4,5,5,6,6],"right_children":[2,4,6,8,10,12,14,-1,-1,-1,-1,-1,-1,-1,-1],"split_conditions":[2.793504E-2,-3.176884E-2,1.6239347E-2,-1.4542077E-2,-1.7265327E-2,-2.6503237E-2,-8.453373E-3,1.0070129E-1,-2.3195888E-1,-4.8918117E-2,3.625551E-2,-3.0095986E-1,3.1246105E-1,-2.2687699E-1,1.0914506E-1],"split_indices":[727,105,889,768,593,966,825,0,0,0,0,0,0,0,0],"split_type":[0,0,0,0,0,0,0,0,0,0,0,0,0,0,0],"sum_hessian":[2.278028E3,2.0647314E3,2.1329652E2,1.6919339E2,1.8955381E3,9.5608574E1,1.1768795E2,4.85657E1,1.20627686E2,7.620223E2,1.1335159E3,8.216262E0,8.739231E1,5.2803123E1,6.488483E1],"tree_param":{"num_deleted":"0","num_feature":"1024","num_nodes":"15","size_leaf_vector":"0"}},{"base_weights":[6.5085414E-4,4.928991E-1,-1.9717185E-2,-7.625794E-1,6.75843E-1,-3.1137586E-1,2.0397486E-2,5.813504E-1,-1.1443448E0,-2.4017628E-1,8.812722E-1,-1.1948202E0,-1.2546612E-1,-3.2703515E-2,3.8532102E-1],"categories":[],"categories_nodes":[],"categories_segments":[],"categories_sizes":[],"default_left":[true,true,true,true,true,true,true,false,false,false,false,false,false,false,false],"id":69,"left_children":[1,3,5,7,9,11,13,-1,-1,-1,-1,-1,-1,-1,-1],"loss_changes":[2.267062E1,2.1150833E1,2.5410585E1,6.7689447E0,1.506768E1,4.2979424E1,3.7019222E1,0E0,0E0,0E0,0E0,0E0,0E0,0E0,0E0],"parents":[2147483647,0,0,1,1,2,2,3,3,4,4,5,5,6,6],"right_children":[2,4,6,8,10,12,14,-1,-1,-1,-1,-1,-1,-1,-1],"split_conditions":[-7.4687965E-2,-2.9072182E-3,-2.9177565E-2,-2.9260498E-2,-5.511506E-2,-3.050485E-2,1.6332898E-2,1.7440513E-1,-3.4330344E-1,-7.205289E-2,2.6438168E-1,-3.5844606E-1,-3.7639838E-2,-9.811055E-3,1.1559631E-1],"split_indices":[1015,1019,357,15,745,11,308,0,0,0,0,0,0,0,0],"split_type":[0,0,0,0,0,0,0,0,0,0,0,0,0,0,0],"sum_hessian":[2.259184E3,8.884349E1,2.1703406E3,1.0896481E1,7.7947014E1,2.6159796E2,1.9087426E3,2.2949097E0,8.60157E0,1.4247507E1,6.3699505E1,4.4535954E1,2.1706203E2,1.6670728E3,2.4166983E2],"tree_param":{"num_deleted":"0","num_feature":"1024","num_nodes":"15","size_leaf_vector":"0"}},{"base_weights":[9.793723E-4,2.10975E-2,-4.5154625E-1,-7.359255E-1,3.5548676E-2,-1.7024784E0,-1.4232935E-1,-7.9927914E-2,-2.3578126E0,4.1304535E-1,6.4885556E-3,2.6301602E-1,-2.2894459E0,3.0230084E-1,-9.298409E-1],"categories":[],"categories_nodes":[],"categories_segments":[],"categories_sizes":[],"default_left":[true,true,true,true,true,true,true,false,false,false,false,false,false,false,false],"id":70,"left_children":[1,3,5,7,9,11,13,-1,-1,-1,-1,-1,-1,-1,-1],"loss_changes":[2.0430597E1,2.3531284E1,3.6706577E1,4.2681396E1,2.3136335E1,2.2338657E1,2.7481285E1,0E0,0E0,0E0,0E0,0E0,0E0,0E0,0E0],"parents":[2147483647,0,0,1,1,2,2,3,3,4,4,5,5,6,6],"right_children":[2,4,6,8,10,12,14,-1,-1,-1,-1,-1,-1,-1,-1],"split_conditions":[3.5468735E-2,-5.872248E-2,-2.984189E-2,-1.4425468E-2,-2.5110349E-2,-9.199766E-3,-9.087258E-3,-2.3978375E-2,-7.073438E-1,1.2391361E-1,1.9465667E-3,7.890481E-2,-6.868338E-1,9.0690255E-2,-2.789523E-1],"split_indices":[659,956,700,563,754,602,421,0,0,0,0,0,0,0,0],"split_type":[0,0,0,0,0,0,0,0,0,0,0,0,0,0,0],"sum_hessian":[2.2420957E3,2.1475735E3,9.4522224E1,3.9292946E1,2.1082805E3,1.7840992E1,7.668124E1,2.8724255E1,1.0568692E1,1.4975253E2,1.9585281E3,4.229655E0,1.3611337E1,4.940387E1,2.7277365E1],"tree_param":{"num_deleted":"0","num_feature":"1024","num_nodes":"15","size_leaf_vector":"0"}},{"base_weights":[2.859871E-4,-7.0441085E-1,1.2695948E-2,-1.9455808E0,-5.263845E-3,9.453341E-2,-1.0350322E-1,-2.6989055E0,-6.791395E-1,-1.0292943E0,6.5869987E-1,1.3778341E-1,-4.7975013E-1,1.1846682E-1,-3.3748287E-1],"categories":[],"categories_nodes":[],"categories_segments":[],"categories_sizes":[],"default_left":[true,true,true,true,true,true,true,false,false,false,false,false,false,false,false],"id":71,"left_children":[1,3,5,7,9,11,13,-1,-1,-1,-1,-1,-1,-1,-1],"loss_changes":[1.9530436E1,3.3526875E1,2.0879114E1,1.1450317E1,1.816875E1,3.206237E1,4.7166016E1,0E0,0E0,0E0,0E0,0E0,0E0,0E0,0E0],"parents":[2147483647,0,0,1,1,2,2,3,3,4,4,5,5,6,6],"right_children":[2,4,6,8,10,12,14,-1,-1,-1,-1,-1,-1,-1,-1],"split_conditions":[-3.185408E-2,-2.0439189E-2,-1.9922769E-3,-2.908352E-2,1.0655934E-2,1.7226942E-2,-1.0544915E-1,-8.096717E-1,-2.0374186E-1,-3.087883E-1,1.9760998E-1,4.1335024E-2,-1.4392504E-1,3.5540048E-2,-1.0124487E-1],"split_indices":[829,715,114,379,270,395,612,0,0,0,0,0,0,0,0],"split_type":[0,0,0,0,0,0,0,0,0,0,0,0,0,0,0],"sum_hessian":[2.2312373E3,3.76479E1,2.1935894E3,1.2923137E1,2.4724764E1,1.2872109E3,9.063784E2,7.3938923E0,5.5292444E0,9.508929E0,1.5215836E1,1.1977659E3,8.944512E1,4.6537946E2,4.4099896E2],"tree_param":{"num_deleted":"0","num_feature":"1024","num_nodes":"15","size_leaf_vector":"0"}},{"base_weights":[2.3698278E-5,-8.695136E-2,1.04769126E-1,-1.8559958E-1,2.4304137E-1,-1.3951962E0,1.2529057E-1,-6.3484836E-1,-6.249224E-2,-1.1247344E0,3.7111697E-1,-1.0198576E0,-2.1111057E0,3.9508665E-1,1.4762412E-2],"categories":[],"categories_nodes":[],"categories_segments":[],"categories_sizes":[],"default_left":[true,true,true,true,true,true,true,false,false,false,false,false,false,false,false],"id":72,"left_children":[1,3,5,7,9,11,13,-1,-1,-1,-1,-1,-1,-1,-1],"loss_changes":[2.0208544E1,3.9496784E1,3.115046E1,5.159213E1,4.935273E1,1.5186539E0,2.9624722E1,0E0,0E0,0E0,0E0,0E0,0E0,0E0,0E0],"parents":[2147483647,0,0,1,1,2,2,3,3,4,4,5,5,6,6],"right_children":[2,4,6,8,10,12,14,-1,-1,-1,-1,-1,-1,-1,-1],"split_conditions":[3.0939872E-3,1.1855945E-3,-6.1717466E-2,-1.7620934E-2,-7.1122153E-3,7.844648E-2,4.2462684E-3,-1.9045451E-1,-1.8747672E-2,-3.3742034E-1,1.1133509E-1,-3.0595732E-1,-6.333317E-1,1.18526E-1,4.428724E-3],"split_indices":[836,28,779,897,818,323,533,0,0,0,0,0,0,0,0],"split_type":[0,0,0,0,0,0,0,0,0,0,0,0,0,0,0],"sum_hessian":[2.2162231E3,1.2109141E3,1.0053091E3,9.32569E2,2.7834515E2,1.2664181E1,9.926449E2,1.9969096E2,7.32878E2,2.316578E1,2.5517938E2,9.898918E0,2.7652628E0,2.877299E2,7.0491504E2],"tree_param":{"num_deleted":"0","num_feature":"1024","num_nodes":"15","size_leaf_vector":"0"}},{"base_weights":[-2.8784008E-4,8.249317E-2,-1.1005702E-1,2.3681627E-1,-8.021448E-2,2.3949517E-1,-2.1392281E-1,-8.3812624E-1,3.147893E-1,-6.9508225E-1,5.414048E-2,-1.3032213E0,3.0799386E-1,-1.4057074E-1,-1.2912498E0],"categories":[],"categories_nodes":[],"categories_segments":[],"categories_sizes":[],"default_left":[true,true,true,true,true,true,true,false,false,false,false,false,false,false,false],"id":73,"left_children":[1,3,5,7,9,11,13,-1,-1,-1,-1,-1,-1,-1,-1],"loss_changes":[1.9956038E1,3.1455864E1,3.4330696E1,5.4141335E1,5.044538E1,2.3306793E1,5.7380726E1,0E0,0E0,0E0,0E0,0E0,0E0,0E0,0E0],"parents":[2147483647,0,0,1,1,2,2,3,3,4,4,5,5,6,6],"right_children":[2,4,6,8,10,12,14,-1,-1,-1,-1,-1,-1,-1,-1],"split_conditions":[-1.2925544E-1,7.408908E-3,-4.064534E-2,-3.204183E-1,1.25873275E-2,-1.5350794E-2,3.0914199E-2,-2.5143787E-1,9.4436795E-2,-2.0852469E-1,1.6242145E-2,-3.9096642E-1,9.239816E-2,-4.2171225E-2,-3.8737494E-1],"split_indices":[899,811,769,259,735,843,914,0,0,0,0,0,0,0,0],"split_type":[0,0,0,0,0,0,0,0,0,0,0,0,0,0,0],"sum_hessian":[2.1941567E3,1.2509885E3,9.4316833E2,6.41803E2,6.091855E2,2.1575523E2,7.274131E2,4.274655E1,5.9905646E2,1.08494255E2,5.0069122E2,8.40622E0,2.0734901E2,6.821013E2,4.531182E1],"tree_param":{"num_deleted":"0","num_feature":"1024","num_nodes":"15","size_leaf_vector":"0"}},{"base_weights":[3.1337322E-4,-1.0699478E0,8.622928E-3,-2.0617676E0,3.4233555E-1,-6.9451E-2,1.225842E-1,-1.9455232E-1,-2.38047E0,-1.548285E0,9.0118724E-1,-2.104441E-1,1.4172998E-1,-8.595597E-1,1.5942192E-1],"categories":[],"categories_nodes":[],"categories_segments":[],"categories_sizes":[],"default_left":[true,true,true,true,true,true,true,false,false,false,false,false,false,false,false],"id":74,"left_children":[1,3,5,7,9,11,13,-1,-1,-1,-1,-1,-1,-1,-1],"loss_changes":[1.9323822E1,2.4154003E1,1.9191774E1,5.4736023E0,9.598266E0,3.814561E1,3.1864204E1,0E0,0E0,0E0,0E0,0E0,0E0,0E0,0E0],"parents":[2147483647,0,0,1,1,2,2,3,3,4,4,5,5,6,6],"right_children":[2,4,6,8,10,12,14,-1,-1,-1,-1,-1,-1,-1,-1],"split_conditions":[-5.527748E-2,3.2531E-2,-2.217195E-3,-1.6517557E-2,-2.0913776E-2,8.583336E-3,-5.2466862E-2,-5.83657E-2,-7.14141E-1,-4.6448553E-1,2.7035618E-1,-6.313323E-2,4.2518996E-2,-2.5786793E-1,4.7826577E-2],"split_indices":[378,365,546,777,520,813,239,0,0,0,0,0,0,0,0],"split_type":[0,0,0,0,0,0,0,0,0,0,0,0,0,0,0],"sum_hessian":[2.1707915E3,1.573997E1,2.1550515E3,8.976244E0,6.7637267E0,1.2791245E3,8.7592706E2,1.5435197E0,7.432724E0,1.1392196E0,5.624507E0,