{"learner":{"attributes":{"best_iteration":"499","best_ntree_limit":"500","scikit_learn":"{\"use_label_encoder\": false, \"n_estimators\": 500, \"objective\": \"binary:logistic\", \"max_depth\": 3, \"learning_rate\": null, \"verbosity\": null, \"booster\": null, \"tree_method\": null, \"gamma\": null, \"min_child_weight\": null, \"max_delta_step\": null, \"subsample\": null, \"colsample_bytree\": null, \"colsample_bylevel\": null, \"colsample_bynode\": null, \"reg_alpha\": null, \"reg_lambda\": null, \"scale_pos_weight\": 10.0, \"base_score\": null, \"missing\": NaN, \"num_parallel_tree\": null, \"random_state\": null, \"n_jobs\": 6, \"monotone_constraints\": null, \"interaction_constraints\": null, \"importance_type\": null, \"gpu_id\": null, \"validate_parameters\": null, \"predictor\": null, \"enable_categorical\": false, \"classes_\": [0, 1], \"n_classes_\": 2, \"_estimator_type\": \"classifier\"}"},"feature_names":[],"feature_types":[],"gradient_booster":{"model":{"gbtree_model_param":{"num_trees":"500","size_leaf_vector":"0"},"tree_info":[0,0,0,0,0,0,0,0,0,0,0,0,0,0,0,0,0,0,0,0,0,0,0,0,0,0,0,0,0,0,0,0,0,0,0,0,0,0,0,0,0,0,0,0,0,0,0,0,0,0,0,0,0,0,0,0,0,0,0,0,0,0,0,0,0,0,0,0,0,0,0,0,0,0,0,0,0,0,0,0,0,0,0,0,0,0,0,0,0,0,0,0,0,0,0,0,0,0,0,0,0,0,0,0,0,0,0,0,0,0,0,0,0,0,0,0,0,0,0,0,0,0,0,0,0,0,0,0,0,0,0,0,0,0,0,0,0,0,0,0,0,0,0,0,0,0,0,0,0,0,0,0,0,0,0,0,0,0,0,0,0,0,0,0,0,0,0,0,0,0,0,0,0,0,0,0,0,0,0,0,0,0,0,0,0,0,0,0,0,0,0,0,0,0,0,0,0,0,0,0,0,0,0,0,0,0,0,0,0,0,0,0,0,0,0,0,0,0,0,0,0,0,0,0,0,0,0,0,0,0,0,0,0,0,0,0,0,0,0,0,0,0,0,0,0,0,0,0,0,0,0,0,0,0,0,0,0,0,0,0,0,0,0,0,0,0,0,0,0,0,0,0,0,0,0,0,0,0,0,0,0,0,0,0,0,0,0,0,0,0,0,0,0,0,0,0,0,0,0,0,0,0,0,0,0,0,0,0,0,0,0,0,0,0,0,0,0,0,0,0,0,0,0,0,0,0,0,0,0,0,0,0,0,0,0,0,0,0,0,0,0,0,0,0,0,0,0,0,0,0,0,0,0,0,0,0,0,0,0,0,0,0,0,0,0,0,0,0,0,0,0,0,0,0,0,0,0,0,0,0,0,0,0,0,0,0,0,0,0,0,0,0,0,0,0,0,0,0,0,0,0,0,0,0,0,0,0,0,0,0,0,0,0,0,0,0,0,0,0,0,0,0,0,0,0,0,0,0,0,0,0,0,0,0,0,0,0,0,0,0,0,0,0,0,0,0,0,0,0,0,0,0,0,0,0,0,0,0,0,0,0,0,0,0,0,0,0,0,0,0,0,0,0,0,0,0,0,0,0,0,0,0,0,0,0,0,0,0,0,0,0,0,0,0,0,0,0,0,0,0],"trees":[{"base_weights":[-0E0,1.2460842E0,-1.680438E0,1.5858413E0,-6.96459E-1,-1.8884562E0,-2.3657212E-1,-3.4913158E-1,1.7010881E0,7.473366E-2,-1.8297873E0,6.974596E-1,-1.9128754E0,1.001524E0,-1.4485228E0],"categories":[],"categories_nodes":[],"categories_segments":[],"categories_sizes":[],"default_left":[true,true,true,true,true,true,true,false,false,false,false,false,false,false,false],"id":0,"left_children":[1,3,5,7,9,11,13,-1,-1,-1,-1,-1,-1,-1,-1],"loss_changes":[6.46659E4,1.1704596E4,3.9489336E3,3.366375E3,2.307972E3,7.2708203E2,2.487798E3,0E0,0E0,0E0,0E0,0E0,0E0,0E0,0E0],"parents":[2147483647,0,0,1,1,2,2,3,3,4,4,5,5,6,6],"right_children":[2,4,6,8,10,12,14,-1,-1,-1,-1,-1,-1,-1,-1],"split_conditions":[-6.3643996E-3,-5.3646183E-3,6.020371E-3,7.2726086E-3,-9.857991E-2,-1.01385206E-1,-1.1202806E-1,-1.0473948E-1,5.1032645E-1,2.2420099E-2,-5.489362E-1,2.0923789E-1,-5.738627E-1,3.004572E-1,-4.3455687E-1],"split_indices":[146,642,309,365,559,381,250,0,0,0,0,0,0,0,0],"split_type":[0,0,0,0,0,0,0,0,0,0,0,0,0,0,0],"sum_hessian":[3.088E4,1.773175E4,1.314825E4,1.509225E4,2.6395E3,1.149225E4,1.656E3,8.4825E2,1.4244E4,1.57125E3,1.06825E3,1.0725E2,1.1385E4,8.1925E2,8.3675E2],"tree_param":{"num_deleted":"0","num_feature":"1117","num_nodes":"15","size_leaf_vector":"0"}},{"base_weights":[-1.3297828E-3,9.742668E-1,-1.2738624E0,1.2855527E0,-6.555113E-1,6.2204875E-2,-1.4464128E0,-1.1856822E0,1.3207153E0,-1.4547912E0,6.310256E-2,-9.551526E-1,8.717757E-1,5.788432E-1,-1.4712373E0],"categories":[],"categories_nodes":[],"categories_segments":[],"categories_sizes":[],"default_left":[true,true,true,true,true,true,true,false,false,false,false,false,false,false,false],"id":1,"left_children":[1,3,5,7,9,11,13,-1,-1,-1,-1,-1,-1,-1,-1],"loss_changes":[3.5963703E4,8.3196455E3,2.8982227E3,1.1979375E3,1.5108547E3,1.1858616E3,5.6059375E2,0E0,0E0,0E0,0E0,0E0,0E0,0E0,0E0],"parents":[2147483647,0,0,1,1,2,2,3,3,4,4,5,5,6,6],"right_children":[2,4,6,8,10,12,14,-1,-1,-1,-1,-1,-1,-1,-1],"split_conditions":[-1.1392507E-1,4.152726E-3,-3.4292582E-2,-1.2892051E-2,9.944227E-3,9.011261E-2,-4.6863377E-2,-3.5570467E-1,3.962146E-1,-4.3643737E-1,1.8930769E-2,-2.8654578E-1,2.6153272E-1,1.7365296E-1,-4.413712E-1],"split_indices":[250,527,146,170,437,639,497,0,0,0,0,0,0,0,0],"split_type":[0,0,0,0,0,0,0,0,0,0,0,0,0,0,0],"sum_hessian":[2.8966447E4,1.639632E4,1.2570127E4,1.3767041E4,2.6292793E3,1.4378004E3,1.1132327E4,1.9268022E2,1.3574361E4,1.2442902E3,1.3849891E3,6.37056E2,8.007444E2,1.3453204E2,1.0997795E4],"tree_param":{"num_deleted":"0","num_feature":"1117","num_nodes":"15","size_leaf_vector":"0"}},{"base_weights":[-3.586643E-3,7.7900785E-1,-1.1214058E0,-5.073461E-1,1.0645016E0,3.7186864E-1,-1.2431626E0,-9.87436E-1,6.499624E-1,1.1520009E0,8.611589E-2,1.1023257E0,-1.2129626E0,2.4400505E-1,-1.2959659E0],"categories":[],"categories_nodes":[],"categories_segments":[],"categories_sizes":[],"default_left":[true,true,true,true,true,true,true,false,false,false,false,false,false,false,false],"id":2,"left_children":[1,3,5,7,9,11,13,-1,-1,-1,-1,-1,-1,-1,-1],"loss_changes":[2.2395354E4,5.5306045E3,1.9172373E3,1.5206238E3,1.0548936E3,9.2231384E2,7.6578516E2,0E0,0E0,0E0,0E0,0E0,0E0,0E0,0E0],"parents":[2147483647,0,0,1,1,2,2,3,3,4,4,5,5,6,6],"right_children":[2,4,6,8,10,12,14,-1,-1,-1,-1,-1,-1,-1,-1],"split_conditions":[-8.7029986E-2,-1.3167502E-2,-6.150427E-2,4.1061938E-2,1.9038729E-3,-2.751742E-2,-4.5605622E-2,-2.9623082E-1,1.9498874E-1,3.4560028E-1,2.5834767E-2,3.3069772E-1,-3.638888E-1,7.320152E-2,-3.887898E-1],"split_indices":[559,460,381,27,940,970,497,0,0,0,0,0,0,0,0],"split_type":[0,0,0,0,0,0,0,0,0,0,0,0,0,0,0],"sum_hessian":[2.5598566E4,1.5057199E4,1.0541367E4,2.734689E3,1.2322511E4,7.945564E2,9.746811E3,1.9329741E3,8.017148E2,1.1310783E4,1.01172754E3,5.440879E2,2.504685E2,3.3407922E2,9.412731E3],"tree_param":{"num_deleted":"0","num_feature":"1117","num_nodes":"15","size_leaf_vector":"0"}},{"base_weights":[-5.3858836E-3,6.851767E-1,-9.708475E-1,-4.9960846E-1,8.930994E-1,-1.1508873E0,4.665003E-2,7.845336E-1,-9.402553E-1,1.0510943E0,7.632314E-2,-1.1896045E0,7.065457E-1,8.2855976E-1,-5.402597E-1],"categories":[],"categories_nodes":[],"categories_segments":[],"categories_sizes":[],"default_left":[true,true,true,true,true,true,true,false,false,false,false,false,false,false,false],"id":3,"left_children":[1,3,5,7,9,11,13,-1,-1,-1,-1,-1,-1,-1,-1],"loss_changes":[1.4730702E4,3.1736318E3,1.6878633E3,1.0892776E3,1.4140645E3,5.638125E2,6.365545E2,0E0,0E0,0E0,0E0,0E0,0E0,0E0,0E0],"parents":[2147483647,0,0,1,1,2,2,3,3,4,4,5,5,6,6],"right_children":[2,4,6,8,10,12,14,-1,-1,-1,-1,-1,-1,-1,-1],"split_conditions":[-4.3298516E-2,1.884956E-2,1.3927187E-1,-2.0213366E-2,8.930241E-3,4.3336563E-2,-9.926118E-3,2.353601E-1,-2.820766E-1,3.153283E-1,2.2896942E-2,-3.5688138E-1,2.1196373E-1,2.4856794E-1,-1.6207792E-1],"split_indices":[8,29,991,513,651,12,919,0,0,0,0,0,0,0,0],"split_type":[0,0,0,0,0,0,0,0,0,0,0,0,0,0,0],"sum_hessian":[2.2092564E4,1.2880128E4,9.212437E3,1.9227146E3,1.0957413E4,7.8273125E3,1.3851243E3,4.9101328E2,1.4317013E3,9.18115E3,1.7762627E3,7.6678394E3,1.5947307E2,5.9372424E2,7.914E2],"tree_param":{"num_deleted":"0","num_feature":"1117","num_nodes":"15","size_leaf_vector":"0"}},{"base_weights":[-6.708789E-3,-6.749064E-1,7.8254825E-1,8.830523E-2,-9.3510854E-1,-7.80377E-1,8.669625E-1,4.4458002E-1,-1.0931721E0,-1.073285E0,-3.2583478E-1,-1.1707015E0,2.8540948E-1,-6.418082E-1,9.1598624E-1],"categories":[],"categories_nodes":[],"categories_segments":[],"categories_sizes":[],"default_left":[true,true,true,true,true,true,true,false,false,false,false,false,false,false,false],"id":4,"left_children":[1,3,5,7,9,11,13,-1,-1,-1,-1,-1,-1,-1,-1],"loss_changes":[9.989108E3,2.0370425E3,1.1463672E3,1.0986035E3,6.436294E2,1.8566827E2,6.100171E2,0E0,0E0,0E0,0E0,0E0,0E0,0E0,0E0],"parents":[2147483647,0,0,1,1,2,2,3,3,4,4,5,5,6,6],"right_children":[2,4,6,8,10,12,14,-1,-1,-1,-1,-1,-1,-1,-1],"split_conditions":[4.845564E-2,-2.9392494E-2,1.1981452E-2,9.3019655E-4,2.0441607E-2,2.3177493E-2,-2.7413093E-2,1.33374E-1,-3.2795164E-1,-3.219855E-1,-9.775044E-2,-3.5121047E-1,8.562285E-2,-1.9254248E-1,2.747959E-1],"split_indices":[142,381,730,242,610,504,105,0,0,0,0,0,0,0,0],"split_type":[0,0,0,0,0,0,0,0,0,0,0,0,0,0,0],"sum_hessian":[1.893902E4,1.0256146E4,8.682872E3,2.6077854E3,7.6483613E3,4.4451196E2,8.23836E3,2.0040786E3,6.037067E2,6.233836E3,1.4145255E3,3.252842E2,1.19227745E2,2.5888034E2,7.97948E3],"tree_param":{"num_deleted":"0","num_feature":"1117","num_nodes":"15","size_leaf_vector":"0"}},{"base_weights":[-7.6163546E-3,-7.144298E-1,5.6519693E-1,-9.892845E-1,-1.9967003E-2,-5.983662E-1,7.0026964E-1,-1.0273076E0,6.831593E-1,-1.160439E0,2.9042748E-1,3.8024448E-2,-9.711718E-1,8.36519E-1,-4.991517E-3],"categories":[],"categories_nodes":[],"categories_segments":[],"categories_sizes":[],"default_left":[true,true,true,true,true,true,true,false,false,false,false,false,false,false,false],"id":5,"left_children":[1,3,5,7,9,11,13,-1,-1,-1,-1,-1,-1,-1,-1],"loss_changes":[6.6298784E3,1.399147E3,1.4219854E3,3.3466406E2,7.364867E2,2.2336575E2,7.7879614E2,0E0,0E0,0E0,0E0,0E0,0E0,0E0,0E0],"parents":[2147483647,0,0,1,1,2,2,3,3,4,4,5,5,6,6],"right_children":[2,4,6,8,10,12,14,-1,-1,-1,-1,-1,-1,-1,-1],"split_conditions":[4.4090055E-2,9.2641494E-5,7.669781E-3,5.4682195E-2,-1.5464043E-2,-5.286792E-2,-1.1230012E-2,-3.081923E-1,2.049478E-1,-3.4813172E-1,8.7128244E-2,1.1407334E-2,-2.9135156E-1,2.509557E-1,-1.4974552E-3],"split_indices":[113,309,365,219,640,936,501,0,0,0,0,0,0,0,0],"split_type":[0,0,0,0,0,0,0,0,0,0,0,0,0,0,0],"sum_hessian":[1.6373243E4,7.3292227E3,9.0440205E3,5.2506816E3,2.0785413E3,9.403229E2,8.1036973E3,5.134338E3,1.16343636E2,4.4409164E2,1.6344496E3,3.4769495E2,5.926279E2,6.791468E3,1.3122297E3],"tree_param":{"num_deleted":"0","num_feature":"1117","num_nodes":"15","size_leaf_vector":"0"}},{"base_weights":[-9.144198E-3,5.1946616E-1,-6.105403E-1,7.037242E-1,-3.7746513E-1,-1.5026869E-1,-1.050501E0,-4.2218956E-1,7.962974E-1,3.5428962E-1,-8.061031E-1,-8.688148E-1,1.745875E-1,2.2476382E0,-1.0561316E0],"categories":[],"categories_nodes":[],"categories_segments":[],"categories_sizes":[],"default_left":[true,true,true,true,true,true,true,false,false,false,false,false,false,false,false],"id":6,"left_children":[1,3,5,7,9,11,13,-1,-1,-1,-1,-1,-1,-1,-1],"loss_changes":[4.5294785E3,1.253458E3,1.349533E3,6.560344E2,4.058237E2,7.6077014E2,6.565527E1,0E0,0E0,0E0,0E0,0E0,0E0,0E0,0E0],"parents":[2147483647,0,0,1,1,2,2,3,3,4,4,5,5,6,6],"right_children":[2,4,6,8,10,12,14,-1,-1,-1,-1,-1,-1,-1,-1],"split_conditions":[-3.891121E-2,2.4634233E-2,-7.660863E-2,-2.236889E-2,-1.7842218E-2,8.371701E-3,-6.1829526E-2,-1.2665688E-1,2.3888922E-1,1.0628689E-1,-2.4183095E-1,-2.6064447E-1,5.237625E-2,6.742915E-1,-3.168395E-1],"split_indices":[815,828,559,995,140,437,774,0,0,0,0,0,0,0,0],"split_type":[0,0,0,0,0,0,0,0,0,0,0,0,0,0,0],"sum_hessian":[1.42459375E4,7.581844E3,6.6640933E3,6.2899126E3,1.2919314E3,3.257525E3,3.406568E3,4.775986E2,5.812314E3,4.7729117E2,8.146402E2,1.0136868E3,2.2438381E3,5.1272926E0,3.401441E3],"tree_param":{"num_deleted":"0","num_feature":"1117","num_nodes":"15","size_leaf_vector":"0"}},{"base_weights":[-1.0453079E-2,-7.620608E-1,3.3312345E-1,8.2740355E-1,-8.451508E-1,-8.742222E-1,4.5283276E-1,9.674565E-1,-4.779322E0,-9.209219E-1,4.5013386E-1,-1.1143322E0,-3.0015036E-2,6.0208976E-1,-4.117844E-1],"categories":[],"categories_nodes":[],"categories_segments":[],"categories_sizes":[],"default_left":[true,true,true,true,true,true,true,false,false,false,false,false,false,false,false],"id":7,"left_children":[1,3,5,7,9,11,13,-1,-1,-1,-1,-1,-1,-1,-1],"loss_changes":[3.2318167E3,5.1922144E2,1.2417529E3,1.5817787E2,3.6665356E2,1.5708484E2,1.0087457E3,0E0,0E0,0E0,0E0,0E0,0E0,0E0,0E0],"parents":[2147483647,0,0,1,1,2,2,3,3,4,4,5,5,6,6],"right_children":[2,4,6,8,10,12,14,-1,-1,-1,-1,-1,-1,-1,-1],"split_conditions":[1.6136806E-2,-2.1617532E-1,-7.7429794E-2,8.805925E-2,4.6327196E-2,-4.3410264E-2,-2.0355538E-2,2.9023698E-1,-1.4337966E0,-2.762766E-1,1.3504016E-1,-3.3429968E-1,-9.004511E-3,1.8062693E-1,-1.2353533E-1],"split_indices":[29,675,44,88,981,1009,77,0,0,0,0,0,0,0,0],"split_type":[0,0,0,0,0,0,0,0,0,0,0,0,0,0,0],"sum_hessian":[1.251305E4,3.9251582E3,8.587892E3,1.945509E2,3.7306074E3,7.741173E2,7.8137744E3,1.9061684E2,3.9340575E0,3.5247092E3,2.0589815E2,6.0244855E2,1.7166876E2,6.6637324E3,1.1500421E3],"tree_param":{"num_deleted":"0","num_feature":"1117","num_nodes":"15","size_leaf_vector":"0"}},{"base_weights":[-1.1407482E-2,4.3753535E-1,-4.5006713E-1,-5.6952643E-1,5.904494E-1,8.358029E-2,-7.9996467E-1,3.2463226E-1,-1.1359241E0,-3.185363E-1,6.922134E-1,3.3550593E-1,-9.477036E-1,-9.969518E-1,-2.1832553E-1],"categories":[],"categories_nodes":[],"categories_segments":[],"categories_sizes":[],"default_left":[true,true,true,true,true,true,true,false,false,false,false,false,false,false,false],"id":8,"left_children":[1,3,5,7,9,11,13,-1,-1,-1,-1,-1,-1,-1,-1],"loss_changes":[2.1850457E3,8.447505E2,1.0479396E3,3.6671533E2,4.406283E2,5.779523E2,3.8814966E2,0E0,0E0,0E0,0E0,0E0,0E0,0E0,0E0],"parents":[2147483647,0,0,1,1,2,2,3,3,4,4,5,5,6,6],"right_children":[2,4,6,8,10,12,14,-1,-1,-1,-1,-1,-1,-1,-1],"split_conditions":[-1.7093606E-2,-6.244329E-3,-4.89064E-2,-5.147834E-2,-7.377575E-3,-8.559645E-3,3.666825E-2,9.738968E-2,-3.4077725E-1,-9.55609E-2,2.0766403E-1,1.00651786E-1,-2.843111E-1,-2.9908556E-1,-6.549766E-2],"split_indices":[527,198,176,521,720,242,548,0,0,0,0,0,0,0,0],"split_type":[0,0,0,0,0,0,0,0,0,0,0,0,0,0,0],"sum_hessian":[1.1093368E4,5.4824253E3,5.610943E3,7.2236273E2,4.7600625E3,2.222322E3,3.388621E3,2.8029477E2,4.4206796E2,4.790366E2,4.281026E3,1.7865676E3,4.3575433E2,2.5307896E3,8.578315E2],"tree_param":{"num_deleted":"0","num_feature":"1117","num_nodes":"15","size_leaf_vector":"0"}},{"base_weights":[-1.1739574E-2,-3.4977102E-1,4.5794398E-1,-9.565939E-1,-1.6648042E-1,5.9700376E-1,-5.140202E-1,-1.6000313E-1,-1.00278E0,-7.342892E-1,2.268596E-2,6.526999E-1,-1.8291034E0,2.5285754E-1,-8.963892E-1],"categories":[],"categories_nodes":[],"categories_segments":[],"categories_sizes":[],"default_left":[true,true,true,true,true,true,true,false,false,false,false,false,false,false,false],"id":9,"left_children":[1,3,5,7,9,11,13,-1,-1,-1,-1,-1,-1,-1,-1],"loss_changes":[1.5831746E3,6.44773E2,5.643576E2,4.9320923E1,4.7848004E2,4.9457593E2,1.53547E2,0E0,0E0,0E0,0E0,0E0,0E0,0E0,0E0],"parents":[2147483647,0,0,1,1,2,2,3,3,4,4,5,5,6,6],"right_children":[2,4,6,8,10,12,14,-1,-1,-1,-1,-1,-1,-1,-1],"split_conditions":[9.130986E-3,-3.5589993E-2,3.1944923E-2,-3.3595785E-2,2.2867719E-4,1.3397399E-1,-3.458838E-2,-4.800094E-2,-3.00834E-1,-2.2028677E-1,6.8057883E-3,1.9580998E-1,-5.48731E-1,7.585727E-2,-2.6891676E-1],"split_indices":[221,377,997,872,908,838,149,0,0,0,0,0,0,0,0],"split_type":[0,0,0,0,0,0,0,0,0,0,0,0,0,0,0],"sum_hessian":[9.969626E3,5.797452E3,4.1721733E3,1.3439149E3,4.453537E3,3.6503066E3,5.2186676E2,7.389435E1,1.2700205E3,1.1122087E3,3.3413286E3,3.5691018E3,8.1204895E1,1.7374438E2,3.4812238E2],"tree_param":{"num_deleted":"0","num_feature":"1117","num_nodes":"15","size_leaf_vector":"0"}},{"base_weights":[-9.882368E-3,2.0028876E-1,-6.148213E-1,3.122501E-1,-6.449685E-1,3.9975654E-2,-8.6131287E-1,-1.2600784E0,3.716566E-1,-9.2289346E-1,4.4497618E-1,-4.1819128E-1,7.7629507E-1,-8.7843126E-1,7.114427E0],"categories":[],"categories_nodes":[],"categories_segments":[],"categories_sizes":[],"default_left":[true,true,true,true,true,true,true,false,false,false,false,false,false,false,false],"id":10,"left_children":[1,3,5,7,9,11,13,-1,-1,-1,-1,-1,-1,-1,-1],"loss_changes":[1.1634672E3,6.4292474E2,3.8086725E2,5.607043E2,2.4114297E2,2.1834474E2,2.4030237E2,0E0,0E0,0E0,0E0,0E0,0E0,0E0,0E0],"parents":[2147483647,0,0,1,1,2,2,3,3,4,4,5,5,6,6],"right_children":[2,4,6,8,10,12,14,-1,-1,-1,-1,-1,-1,-1,-1],"split_conditions":[-3.2427616E-2,2.7763303E-2,-1.7729465E-2,-1.924166E-2,2.3277186E-2,2.9557576E-2,7.970829E-2,-3.7802354E-1,1.11496985E-1,-2.7686805E-1,1.3349286E-1,-1.2545739E-1,2.3288853E-1,-2.635294E-1,2.1343281E0],"split_indices":[8,333,873,720,782,80,79,0,0,0,0,0,0,0,0],"split_type":[0,0,0,0,0,0,0,0,0,0,0,0,0,0,0],"sum_hessian":[9.149052E3,6.7905215E3,2.3585305E3,5.996823E3,7.9369836E2,6.452589E2,1.7132716E3,2.1759026E2,5.779233E3,6.325562E2,1.611422E2,3.9802444E2,2.4723444E2,1.7104902E3,2.781378E0],"tree_param":{"num_deleted":"0","num_feature":"1117","num_nodes":"15","size_leaf_vector":"0"}},{"base_weights":[-1.1075108E-2,2.721119E-1,-3.9735824E-1,4.3031192E-1,-4.5835212E-1,-7.093013E-1,1.5229993E-1,5.042297E-1,-7.661976E-1,-2.0591304E0,-3.1222475E-1,-2.4141191E-1,-9.077296E-1,-7.5898373E-1,3.9623263E-1],"categories":[],"categories_nodes":[],"categories_segments":[],"categories_sizes":[],"default_left":[true,true,true,true,true,true,true,false,false,false,false,false,false,false,false],"id":11,"left_children":[1,3,5,7,9,11,13,-1,-1,-1,-1,-1,-1,-1,-1],"loss_changes":[9.2964795E2,5.6685565E2,6.1648755E2,3.5691797E2,2.0366658E2,2.1271582E2,2.898E2,0E0,0E0,0E0,0E0,0E0,0E0,0E0,0E0],"parents":[2147483647,0,0,1,1,2,2,3,3,4,4,5,5,6,6],"right_children":[2,4,6,8,10,12,14,-1,-1,-1,-1,-1,-1,-1,-1],"split_conditions":[-2.4532922E-2,3.7247078E-3,2.805255E-2,2.36711E-2,-1.8217025E-2,8.5515855E-3,-2.8248101E-2,1.5126893E-1,-2.2985929E-1,-6.1773914E-1,-9.3667425E-2,-7.242358E-2,-2.723189E-1,-2.2769512E-1,1.188698E-1],"split_indices":[970,60,138,321,68,863,173,0,0,0,0,0,0,0,0],"split_type":[0,0,0,0,0,0,0,0,0,0,0,0,0,0,0],"sum_hessian":[8.496456E3,4.9026113E3,3.593845E3,4.0301858E3,8.7242535E2,2.2925066E3,1.3013383E3,3.7962407E3,2.3394511E2,7.188265E1,8.0054266E2,6.833648E2,1.6091418E3,2.7434164E2,1.0269967E3],"tree_param":{"num_deleted":"0","num_feature":"1117","num_nodes":"15","size_leaf_vector":"0"}},{"base_weights":[-9.168402E-3,2.1818645E-1,-3.9110062E-1,-2.1610563E-1,4.142903E-1,-1.2102953E-1,-7.769394E-1,-6.1988825E-1,9.225457E-2,-3.3198997E-2,6.367869E-1,5.3507686E-2,-1.3322678E0,-1.8717428E-1,-9.816252E-1],"categories":[],"categories_nodes":[],"categories_segments":[],"categories_sizes":[],"default_left":[true,true,true,true,true,true,true,false,false,false,false,false,false,false,false],"id":12,"left_children":[1,3,5,7,9,11,13,-1,-1,-1,-1,-1,-1,-1,-1],"loss_changes":[6.9087177E2,4.2484747E2,3.092715E2,1.9331458E2,3.421513E2,3.695265E2,1.4736078E2,0E0,0E0,0E0,0E0,0E0,0E0,0E0,0E0],"parents":[2147483647,0,0,1,1,2,2,3,3,4,4,5,5,6,6],"right_children":[2,4,6,8,10,12,14,-1,-1,-1,-1,-1,-1,-1,-1],"split_conditions":[-3.4736853E-2,-3.6618177E-2,-2.3614386E-2,5.9699204E-2,2.734933E-2,2.3008915E-2,-1.370574E-2,-1.8596648E-1,2.7676372E-2,-9.9597E-3,1.9103608E-1,1.6052306E-2,-3.9968035E-1,-5.6152284E-2,-2.9448757E-1],"split_indices":[815,560,483,646,652,53,307,0,0,0,0,0,0,0,0],"split_type":[0,0,0,0,0,0,0,0,0,0,0,0,0,0,0],"sum_hessian":[7.9542397E3,4.986392E3,2.967848E3,1.5511372E3,3.4352546E3,1.7466085E3,1.2212394E3,6.712101E2,8.799272E2,1.1411012E3,2.2941533E3,1.5274601E3,2.1914838E2,3.151387E2,9.061007E2],"tree_param":{"num_deleted":"0","num_feature":"1117","num_nodes":"15","size_leaf_vector":"0"}},{"base_weights":[-7.756712E-3,8.2025655E-2,-8.0394185E-1,3.397674E-1,-1.6683434E-1,3.675789E-1,-9.16125E-1,4.8115924E-1,-2.3208372E-1,-1.0904373E0,-5.3373728E-2,1.2890195E0,-1.1896651E0,-9.3034834E-1,4.2512765E0],"categories":[],"categories_nodes":[],"categories_segments":[],"categories_sizes":[],"default_left":[true,true,true,true,true,true,true,false,false,false,false,false,false,false,false],"id":13,"left_children":[1,3,5,7,9,11,13,-1,-1,-1,-1,-1,-1,-1,-1],"loss_changes":[5.342557E2,4.3086615E2,9.987604E1,2.6691083E2,3.581035E2,9.75313E1,5.477771E1,0E0,0E0,0E0,0E0,0E0,0E0,0E0,0E0],"parents":[2147483647,0,0,1,1,2,2,3,3,4,4,5,5,6,6],"right_children":[2,4,6,8,10,12,14,-1,-1,-1,-1,-1,-1,-1,-1],"split_conditions":[1.2728792E-2,-8.563551E-3,-3.4145102E-2,3.3877164E-2,-2.5825728E-2,-1.4395386E-2,5.5420138E-2,1.4434777E-1,-6.962512E-2,-3.271312E-1,-1.601212E-2,3.8670585E-1,-3.5689953E-1,-2.791045E-1,1.275383E0],"split_indices":[642,399,918,215,33,440,553,0,0,0,0,0,0,0,0],"split_type":[0,0,0,0,0,0,0,0,0,0,0,0,0,0,0],"sum_hessian":[7.4719224E3,6.715537E3,7.5638525E2,3.2987207E3,3.4168164E3,6.5901726E1,6.904835E2,2.6449163E3,6.538045E2,3.7287695E2,3.0439395E3,4.1511246E1,2.4390476E1,6.894059E2,1.0776454E0],"tree_param":{"num_deleted":"0","num_feature":"1117","num_nodes":"15","size_leaf_vector":"0"}},{"base_weights":[-7.688573E-3,8.9176245E-2,-6.744006E-1,-5.168529E-1,1.9249773E-1,6.7055964E-1,-8.371369E-1,2.1940455E-1,-9.15138E-1,2.2653684E-1,-1.4160842E0,-1.3096092E0,1.268933E0,-8.6110306E-1,3.788338E0],"categories":[],"categories_nodes":[],"categories_segments":[],"categories_sizes":[],"default_left":[true,true,true,true,true,true,true,false,false,false,false,false,false,false,false],"id":14,"left_children":[1,3,5,7,9,11,13,-1,-1,-1,-1,-1,-1,-1,-1],"loss_changes":[4.5988962E2,3.8943484E2,1.9828372E2,2.65859E2,2.9122705E2,1.178529E2,9.264435E1,0E0,0E0,0E0,0E0,0E0,0E0,0E0,0E0],"parents":[2147483647,0,0,1,1,2,2,3,3,4,4,5,5,6,6],"right_children":[2,4,6,8,10,12,14,-1,-1,-1,-1,-1,-1,-1,-1],"split_conditions":[2.3757466E-4,2.884047E-3,-5.139696E-2,-3.4278375E-3,5.7762392E-2,3.6822483E-2,1.0959168E-1,6.5821365E-2,-2.745414E-1,6.796105E-2,-4.2482528E-1,-3.9288276E-1,3.8067994E-1,-2.5833094E-1,1.1365014E0],"split_indices":[726,734,848,246,414,914,856,0,0,0,0,0,0,0,0],"split_type":[0,0,0,0,0,0,0,0,0,0,0,0,0,0,0],"sum_hessian":[7.1192036E3,6.216842E3,9.0236206E2,9.0494006E2,5.3119014E3,9.706146E1,8.053006E2,3.1784003E2,5.8710004E2,5.2026675E3,1.09234146E2,2.2248137E1,7.481333E1,8.019592E2,3.3413804E0],"tree_param":{"num_deleted":"0","num_feature":"1117","num_nodes":"15","size_leaf_vector":"0"}},{"base_weights":[-8.883226E-3,6.1157428E-2,-7.907459E-1,-3.2940733E-1,1.9266841E-1,9.511254E-1,-8.8633674E-1,7.2119296E-2,-6.877708E-1,4.7694328E-1,-1.9049434E-2,1.0208084E1,1.01699494E-4,-9.215453E-1,3.7402163E0],"categories":[],"categories_nodes":[],"categories_segments":[],"categories_sizes":[],"default_left":[true,true,true,true,true,true,true,false,false,false,false,false,false,false,false],"id":15,"left_children":[1,3,5,7,9,11,13,-1,-1,-1,-1,-1,-1,-1,-1],"loss_changes":[3.7327072E2,3.2139E2,9.415442E1,2.2685835E2,2.8172125E2,2.6090652E2,9.006891E1,0E0,0E0,0E0,0E0,0E0,0E0,0E0,0E0],"parents":[2147483647,0,0,1,1,2,2,3,3,4,4,5,5,6,6],"right_children":[2,4,6,8,10,12,14,-1,-1,-1,-1,-1,-1,-1,-1],"split_conditions":[-1.3330531E-2,1.0525392E-2,-3.3905968E-2,-9.866845E-3,-2.0271637E-2,-2.1441668E-2,2.361066E-1,2.163579E-2,-2.0633124E-1,1.4308299E-1,-5.7148305E-3,3.0624254E0,3.050985E-5,-2.764636E-1,1.122065E0],"split_indices":[815,928,916,43,962,363,634,0,0,0,0,0,0,0,0],"split_type":[0,0,0,0,0,0,0,0,0,0,0,0,0,0,0],"sum_hessian":[6.814331E3,6.2549253E3,5.594056E2,1.5752379E3,4.6796875E3,2.8636509E1,5.3076904E2,7.432574E2,8.3198047E2,1.9970215E3,2.682666E3,1.7610668E0,2.6875443E1,5.275551E2,3.213938E0],"tree_param":{"num_deleted":"0","num_feature":"1117","num_nodes":"15","size_leaf_vector":"0"}},{"base_weights":[-9.855702E-3,4.708173E-2,-8.9832693E-1,-8.140442E-2,4.8161352E-1,1.270768E0,-9.829928E-1,1.4079334E-1,-3.8750717E-1,6.326595E-1,-9.107857E-1,3.1547477E0,3.8888204E-1,-8.976743E-1,-2.736023E0],"categories":[],"categories_nodes":[],"categories_segments":[],"categories_sizes":[],"default_left":[true,true,true,true,true,true,true,false,false,false,false,false,false,false,false],"id":16,"left_children":[1,3,5,7,9,11,13,-1,-1,-1,-1,-1,-1,-1,-1],"loss_changes":[3.332425E2,3.4568582E2,7.410828E1,3.2509576E2,2.9774683E2,2.4259863E1,5.4736694E1,0E0,0E0,0E0,0E0,0E0,0E0,0E0,0E0],"parents":[2147483647,0,0,1,1,2,2,3,3,4,4,5,5,6,6],"right_children":[2,4,6,8,10,12,14,-1,-1,-1,-1,-1,-1,-1,-1],"split_conditions":[2.9389597E-2,1.5311026E-2,-8.644626E-2,-4.5713067E-2,-6.10218E-2,-6.1279636E-2,2.1757916E-2,4.2238005E-2,-1.16252154E-1,1.8979786E-1,-2.732357E-1,9.4642437E-1,1.1666462E-1,-2.693023E-1,-8.208069E-1],"split_indices":[873,120,552,393,250,84,782,0,0,0,0,0,0,0,0],"split_type":[0,0,0,0,0,0,0,0,0,0,0,0,0,0,0],"sum_hessian":[6.585641E3,6.189909E3,3.9573163E2,4.7779395E3,1.4119701E3,1.4339976E1,3.8139163E2,2.7687002E3,2.0092391E3,1.274283E3,1.376872E2,3.750494E0,1.0589482E1,3.65133E2,1.6258648E1],"tree_param":{"num_deleted":"0","num_feature":"1117","num_nodes":"15","size_leaf_vector":"0"}},{"base_weights":[-7.528511E-3,-3.1687495E-1,1.5098356E-1,-5.128998E-2,-7.816407E-1,-5.3278506E-1,2.5797588E-1,2.6538587E-1,-6.0505277E-1,-2.0529218E0,-5.1030827E-1,-1.4602479E0,-2.256207E-2,-2.8176895E-1,3.712112E-1],"categories":[],"categories_nodes":[],"categories_segments":[],"categories_sizes":[],"default_left":[true,true,true,true,true,true,true,false,false,false,false,false,false,false,false],"id":17,"left_children":[1,3,5,7,9,11,13,-1,-1,-1,-1,-1,-1,-1,-1],"loss_changes":[3.0912613E2,2.636004E2,3.0508417E2,2.3869865E2,2.6683875E2,2.6700763E2,2.2043668E2,0E0,0E0,0E0,0E0,0E0,0E0,0E0,0E0],"parents":[2147483647,0,0,1,1,2,2,3,3,4,4,5,5,6,6],"right_children":[2,4,6,8,10,12,14,-1,-1,-1,-1,-1,-1,-1,-1],"split_conditions":[-1.0741698E-2,-1.566293E-2,-8.873099E-3,-1.182093E-2,-5.329019E-2,7.230516E-3,-1.9266378E-2,7.9615764E-2,-1.8151584E-1,-6.1587656E-1,-1.5309249E-1,-4.3807438E-1,-6.768621E-3,-8.453069E-2,1.11363366E-1],"split_indices":[845,361,720,541,367,640,787,0,0,0,0,0,0,0,0],"split_type":[0,0,0,0,0,0,0,0,0,0,0,0,0,0,0],"sum_hessian":[6.302199E3,2.1348684E3,4.167331E3,1.3592507E3,7.756176E2,5.633139E2,3.604017E3,8.650706E2,4.9418018E2,1.3526955E2,6.40348E2,1.992547E2,3.6405917E2,6.247257E2,2.9792913E3],"tree_param":{"num_deleted":"0","num_feature":"1117","num_nodes":"15","size_leaf_vector":"0"}},{"base_weights":[-4.1515976E-3,4.3200564E-2,-9.2455107E-1,-7.924853E-2,4.0831223E-1,-1.5456032E0,1.969773E-1,-3.6132896E-1,1.6459408E-1,5.2285814E-1,-8.375882E-1,-1.8729879E0,3.2245103E-1,6.01346E-1,-3.4127514E0],"categories":[],"categories_nodes":[],"categories_segments":[],"categories_sizes":[],"default_left":[true,true,true,true,true,true,true,false,false,false,false,false,false,false,false],"id":18,"left_children":[1,3,5,7,9,11,13,-1,-1,-1,-1,-1,-1,-1,-1],"loss_changes":[2.670463E2,2.6056992E2,2.0913031E2,3.00288E2,2.0933243E2,1.1868103E2,1.5931413E2,0E0,0E0,0E0,0E0,0E0,0E0,0E0,0E0],"parents":[2147483647,0,0,1,1,2,2,3,3,4,4,5,5,6,6],"right_children":[2,4,6,8,10,12,14,-1,-1,-1,-1,-1,-1,-1,-1],"split_conditions":[5.238704E-2,1.7662533E-2,3.8927108E-2,1.21014E-2,3.7572258E-3,2.7931374E-2,-1.9848004E-2,-1.0839869E-1,4.9378227E-2,1.5685745E-1,-2.5127646E-1,-5.618964E-1,9.673531E-2,1.8040381E-1,-1.0238255E0],"split_indices":[126,972,292,1004,463,460,907,0,0,0,0,0,0,0,0],"split_type":[0,0,0,0,0,0,0,0,0,0,0,0,0,0,0],"sum_hessian":[6.125401E3,5.8265913E3,2.988099E2,4.3638506E3,1.4627407E3,1.920713E2,1.067386E2,2.0230626E3,2.3407878E3,1.3401134E3,1.2262733E2,1.634273E2,2.8643991E1,9.673551E1,1.0003088E1],"tree_param":{"num_deleted":"0","num_feature":"1117","num_nodes":"15","size_leaf_vector":"0"}},{"base_weights":[-4.2615735E-4,6.06188E-2,-6.438644E-1,-9.958386E-1,9.664226E-2,1.3995185E-1,-1.1286833E0,3.6874825E-1,-1.1328338E0,-1.1948891E-1,2.7560806E-1,-7.9682493E-1,8.818348E-1,-2.3406835E0,-8.625275E-1],"categories":[],"categories_nodes":[],"categories_segments":[],"categories_sizes":[],"default_left":[true,true,true,true,true,true,true,false,false,false,false,false,false,false,false],"id":19,"left_children":[1,3,5,7,9,11,13,-1,-1,-1,-1,-1,-1,-1,-1],"loss_changes":[2.3456172E2,2.0767107E2,1.9679869E2,3.405565E1,2.0408354E2,1.3875491E2,1.0114923E2,0E0,0E0,0E0,0E0,0E0,0E0,0E0,0E0],"parents":[2147483647,0,0,1,1,2,2,3,3,4,4,5,5,6,6],"right_children":[2,4,6,8,10,12,14,-1,-1,-1,-1,-1,-1,-1,-1],"split_conditions":[-2.586357E-2,-2.3866214E-2,3.3217547E-3,-2.6178934E-2,-2.841311E-2,2.5486952E-2,-5.4209836E-2,1.1062448E-1,-3.3985016E-1,-3.5846673E-2,8.268242E-2,-2.3904748E-1,2.6455045E-1,-7.0220506E-1,-2.5875825E-1],"split_indices":[530,99,471,977,560,894,483,0,0,0,0,0,0,0,0],"split_type":[0,0,0,0,0,0,0,0,0,0,0,0,0,0,0],"sum_hessian":[5.969741E3,5.453278E3,5.164634E2,1.789378E2,5.27434E3,1.9764241E2,3.1882095E2,1.617086E1,1.6276695E2,2.3892512E3,2.8850886E3,8.731525E1,1.1032716E2,5.600325E1,2.6281772E2],"tree_param":{"num_deleted":"0","num_feature":"1117","num_nodes":"15","size_leaf_vector":"0"}},{"base_weights":[-1.6376519E-3,3.814784E-2,-8.5837823E-1,-5.0185245E-1,1.09460376E-1,-8.963062E-1,4.4723353E0,-7.928057E-3,-1.1563209E0,-3.0534455E-1,2.0124237E-1,-1.7914648E-1,-1.1404903E0],"categories":[],"categories_nodes":[],"categories_segments":[],"categories_sizes":[],"default_left":[true,true,true,true,true,true,false,false,false,false,false,false,false],"id":20,"left_children":[1,3,5,7,9,11,-1,-1,-1,-1,-1,-1,-1],"loss_changes":[1.9956349E2,2.1550984E2,5.65394E1,2.11032E2,1.8825317E2,4.5119125E1,0E0,0E0,0E0,0E0,0E0,0E0,0E0],"parents":[2147483647,0,0,1,1,2,2,3,3,4,4,5,5],"right_children":[2,4,6,8,10,12,-1,-1,-1,-1,-1,-1,-1],"split_conditions":[4.144084E-2,-3.745185E-2,7.497141E-2,-6.059788E-2,4.095298E-3,-7.9944424E-2,1.3417007E0,-2.3784172E-3,-3.468963E-1,-9.160337E-2,6.0372714E-2,-5.3743947E-2,-3.421471E-1],"split_indices":[15,379,718,990,392,104,0,0,0,0,0,0,0],"split_type":[0,0,0,0,0,0,0,0,0,0,0,0,0],"sum_hessian":[5.8527715E3,5.593954E3,2.588177E2,6.5185693E2,4.942097E3,2.578152E2,1.0024941E0,3.7206973E2,2.7978723E2,8.949737E2,4.0471233E3,6.592615E1,1.9188904E2],"tree_param":{"num_deleted":"0","num_feature":"1117","num_nodes":"13","size_leaf_vector":"0"}},{"base_weights":[-1.9196161E-3,1.1030662E-1,-2.708341E-1,1.7937903E-1,-6.600338E-1,-9.357156E-1,-9.307708E-2,3.9998838E-1,-6.283241E-2,-1.0828058E0,3.964233E-2,-1.9529839E0,-4.7649074E-1,-1.6110712E0,-1.1537763E-2],"categories":[],"categories_nodes":[],"categories_segments":[],"categories_sizes":[],"default_left":[true,true,true,true,true,true,true,false,false,false,false,false,false,false,false],"id":21,"left_children":[1,3,5,7,9,11,13,-1,-1,-1,-1,-1,-1,-1,-1],"loss_changes":[1.7359364E2,2.1606322E2,2.0008556E2,1.9907996E2,9.889035E1,1.6592697E2,1.655335E2,0E0,0E0,0E0,0E0,0E0,0E0,0E0,0E0],"parents":[2147483647,0,0,1,1,2,2,3,3,4,4,5,5,6,6],"right_children":[2,4,6,8,10,12,14,-1,-1,-1,-1,-1,-1,-1,-1],"split_conditions":[2.3327406E-2,3.9306074E-2,1.5150193E-2,-1.1332432E-2,-1.8051187E-2,-8.076301E-3,-9.1607356E-4,1.1999652E-1,-1.8849723E-2,-3.2484174E-1,1.18927E-2,-5.858952E-1,-1.4294723E-1,-4.833214E-1,-3.461329E-3],"split_indices":[26,540,685,218,1001,352,937,0,0,0,0,0,0,0,0],"split_type":[0,0,0,0,0,0,0,0,0,0,0,0,0,0,0],"sum_hessian":[5.7500947E3,4.057405E3,1.6926895E3,3.7242393E3,3.33166E2,3.561782E2,1.3365112E3,1.9486929E3,1.7755463E3,2.0733714E2,1.2582884E2,1.0976829E2,2.4640991E2,6.7175E1,1.2693362E3],"tree_param":{"num_deleted":"0","num_feature":"1117","num_nodes":"15","size_leaf_vector":"0"}},{"base_weights":[-1.5683313E-3,-4.091668E-1,6.44741E-2,-5.8535737E-1,5.3189707E-1,-1.920819E-1,2.3071972E-1,2.0111384E0,-6.615449E-1,2.3179804E-1,4.251071E0,4.435486E-1,-3.995739E-1,-6.781411E-1,3.0258006E-1],"categories":[],"categories_nodes":[],"categories_segments":[],"categories_sizes":[],"default_left":[true,true,true,true,true,true,true,false,false,false,false,false,false,false,false],"id":22,"left_children":[1,3,5,7,9,11,13,-1,-1,-1,-1,-1,-1,-1,-1],"loss_changes":[1.5221074E2,1.3103825E2,2.0758693E2,1.3279634E2,1.3837233E2,2.525941E2,1.9307927E2,0E0,0E0,0E0,0E0,0E0,0E0,0E0,0E0],"parents":[2147483647,0,0,1,1,2,2,3,3,4,4,5,5,6,6],"right_children":[2,4,6,8,10,12,14,-1,-1,-1,-1,-1,-1,-1,-1],"split_conditions":[-2.1712858E-2,7.439275E-2,-1.8141828E-2,-5.004943E-2,1.1789307E-1,4.032553E-3,-8.3304215E-3,6.033416E-1,-1.9846348E-1,6.953941E-2,1.2753214E0,1.3306458E-1,-1.19872175E-1,-2.0344235E-1,9.077402E-2],"split_indices":[787,831,63,369,826,471,171,0,0,0,0,0,0,0,0],"split_type":[0,0,0,0,0,0,0,0,0,0,0,0,0,0,0],"sum_hessian":[5.6524614E3,7.8743024E2,4.8650312E3,6.6357117E2,1.2385904E2,1.9128695E3,2.9521616E3,1.8191793E1,6.453794E2,1.1559411E2,8.264929E0,4.704762E2,1.4423932E3,2.1569542E2,2.7364663E3],"tree_param":{"num_deleted":"0","num_feature":"1117","num_nodes":"15","size_leaf_vector":"0"}},{"base_weights":[-1.4163086E-3,-1.9565089E-1,1.3913353E-1,-7.3040664E-2,-8.7467605E-1,-9.6207297E-1,1.8592419E-1,2.764166E-1,-3.7293336E-1,1.24457695E-1,-1.005912E0,-1.3125852E0,7.1309304E-1,-6.204892E-1,2.497996E-1],"categories":[],"categories_nodes":[],"categories_segments":[],"categories_sizes":[],"default_left":[true,true,true,true,true,true,true,false,false,false,false,false,false,false,false],"id":23,"left_children":[1,3,5,7,9,11,13,-1,-1,-1,-1,-1,-1,-1,-1],"loss_changes":[1.5078949E2,1.9299562E2,1.6530057E2,2.0606587E2,4.6618835E1,7.772407E1,1.5853996E2,0E0,0E0,0E0,0E0,0E0,0E0,0E0,0E0],"parents":[2147483647,0,0,1,1,2,2,3,3,4,4,5,5,6,6],"right_children":[2,4,6,8,10,12,14,-1,-1,-1,-1,-1,-1,-1,-1],"split_conditions":[-6.6781524E-3,-4.8100352E-2,-4.1379705E-2,-2.2272706E-2,-5.6623437E-2,4.055053E-2,-1.9225512E-2,8.2924984E-2,-1.1188001E-1,3.733731E-2,-3.017736E-1,-3.9377558E-1,2.1392792E-1,-1.8614677E-1,7.4939884E-2],"split_indices":[845,688,370,962,145,350,472,0,0,0,0,0,0,0,0],"split_type":[0,0,0,0,0,0,0,0,0,0,0,0,0,0,0],"sum_hessian":[5.5215E3,2.317882E3,3.2036177E3,1.9642999E3,3.5358218E2,1.297774E2,3.0738403E3,9.0721906E2,1.0570809E3,4.10569E1,3.125253E2,1.0750043E2,2.227698E1,2.249669E2,2.8488733E3],"tree_param":{"num_deleted":"0","num_feature":"1117","num_nodes":"15","size_leaf_vector":"0"}},{"base_weights":[-2.155765E-3,8.19105E-2,-3.2786885E-1,-2.5730457E0,9.802967E-2,-8.7634426E-1,-5.2045472E-2,-4.350041E0,-1.2047828E0,-4.2007975E-2,3.28069E-1,-1.5879674E0,-3.8801345E-1,-7.840836E-1,2.7733824E-1],"categories":[],"categories_nodes":[],"categories_segments":[],"categories_sizes":[],"default_left":[true,true,true,true,true,true,true,false,false,false,false,false,false,false,false],"id":24,"left_children":[1,3,5,7,9,11,13,-1,-1,-1,-1,-1,-1,-1,-1],"loss_changes":[1.480402E2,1.8416418E2,1.677506E2,5.7903778E1,1.3764786E2,1.2833658E2,1.7842555E2,0E0,0E0,0E0,0E0,0E0,0E0,0E0,0E0],"parents":[2147483647,0,0,1,1,2,2,3,3,4,4,5,5,6,6],"right_children":[2,4,6,8,10,12,14,-1,-1,-1,-1,-1,-1,-1,-1],"split_conditions":[1.9215044E-2,-1.4150596E-1,-9.754445E-3,-7.704291E-2,-3.2703686E-3,1.0061357E-2,2.5053367E-2,-1.3050123E0,-3.6143488E-1,-1.26023935E-2,9.84207E-2,-4.7639024E-1,-1.1640404E-1,-2.352251E-1,8.3201475E-2],"split_indices":[512,205,897,667,33,158,29,0,0,0,0,0,0,0,0],"split_type":[0,0,0,0,0,0,0,0,0,0,0,0,0,0,0],"sum_hessian":[5.4046E3,4.296441E3,1.1081592E3,2.4970518E1,4.2714707E3,3.70079E2,7.380802E2,9.914751E0,1.5055767E1,2.6556482E3,1.6158224E3,1.496902E2,2.2038881E2,2.2861494E2,5.0946527E2],"tree_param":{"num_deleted":"0","num_feature":"1117","num_nodes":"15","size_leaf_vector":"0"}},{"base_weights":[-1.3822459E-3,-8.6302835E-1,2.7936112E-2,-2.1369135E0,-3.269179E-1,1.2546173E-1,-2.465666E-1,-2.5344696E0,2.7556032E-1,5.4593694E-1,-9.497188E-1,2.0429277E-1,-3.0268854E-1,-9.030285E-2,-1.0038007E0],"categories":[],"categories_nodes":[],"categories_segments":[],"categories_sizes":[],"default_left":[true,true,true,true,true,true,true,false,false,false,false,false,false,false,false],"id":25,"left_children":[1,3,5,7,9,11,13,-1,-1,-1,-1,-1,-1,-1,-1],"loss_changes":[1.3396751E2,1.18479004E2,1.3733035E2,5.0098495E1,6.792609E1,1.2780674E2,1.5903616E2,0E0,0E0,0E0,0E0,0E0,0E0,0E0,0E0],"parents":[2147483647,0,0,1,1,2,2,3,3,4,4,5,5,6,6],"right_children":[2,4,6,8,10,12,14,-1,-1,-1,-1,-1,-1,-1,-1],"split_conditions":[-4.374823E-2,-3.535627E-2,7.9927035E-3,-6.6446266E-3,-5.3277783E-2,2.5798308E-2,-2.2302099E-2,-7.603409E-1,8.2668096E-2,1.6378109E-1,-2.8491566E-1,6.1287835E-2,-9.0806566E-2,-2.7090855E-2,-3.0114025E-1],"split_indices":[41,1016,140,356,851,711,907,0,0,0,0,0,0,0,0],"split_type":[0,0,0,0,0,0,0,0,0,0,0,0,0,0,0],"sum_hessian":[5.301159E3,1.7350587E2,5.1276533E3,5.0507042E1,1.2299884E2,3.7838618E3,1.3437915E3,4.3318012E1,7.1890273E0,5.126892E1,7.172992E1,3.1959468E3,5.8791504E2,1.1148491E3,2.2894235E2],"tree_param":{"num_deleted":"0","num_feature":"1117","num_nodes":"15","size_leaf_vector":"0"}},{"base_weights":[-1.8569797E-3,2.9334363E-1,-7.8879096E-2,-1.0472528E0,3.8620585E-1,-3.274845E-2,-7.995116E-1,4.444153E0,-1.1913933E0,4.7382358E-1,-7.8042483E-1,-1.88749E-1,1.8333857E-1,-1.348593E0,2.6829794E-2],"categories":[],"categories_nodes":[],"categories_segments":[],"categories_sizes":[],"default_left":[true,true,true,true,true,true,true,false,false,false,false,false,false,false,false],"id":26,"left_children":[1,3,5,7,9,11,13,-1,-1,-1,-1,-1,-1,-1,-1],"loss_changes":[1.1830951E2,1.3444528E2,1.3715758E2,6.071871E1,1.0337358E2,1.3080923E2,1.1266492E2,0E0,0E0,0E0,0E0,0E0,0E0,0E0,0E0],"parents":[2147483647,0,0,1,1,2,2,3,3,4,4,5,5,6,6],"right_children":[2,4,6,8,10,12,14,-1,-1,-1,-1,-1,-1,-1,-1],"split_conditions":[1.8391356E-2,-2.9013628E-1,1.340833E-1,-1.1232977E-1,1.4030961E-2,5.2041756E-3,1.2764966E-2,1.3332459E0,-3.57418E-1,1.4214708E-1,-2.3412746E-1,-5.6624703E-2,5.500157E-2,-4.045779E-1,8.048939E-3],"split_indices":[912,19,481,600,60,492,204,0,0,0,0,0,0,0,0],"split_type":[0,0,0,0,0,0,0,0,0,0,0,0,0,0,0],"sum_hessian":[5.201379E3,1.0757133E3,4.125666E3,6.902097E1,1.0066922E3,3.8784365E3,2.4722922E2,1.002335E0,6.801864E1,9.3692035E2,6.977189E1,2.252446E3,1.6259906E3,1.4815334E2,9.9075874E1],"tree_param":{"num_deleted":"0","num_feature":"1117","num_nodes":"15","size_leaf_vector":"0"}},{"base_weights":[-1.1639707E-3,2.4105314E-2,-8.8692915E-1,6.986884E-2,-4.7710863E-1,4.4726667E0,-9.5666903E-1,3.973424E-1,-3.300744E-2,1.8097958E-1,-7.8797907E-1,7.169257E-1,-1.0156562E0],"categories":[],"categories_nodes":[],"categories_segments":[],"categories_sizes":[],"default_left":[true,true,true,true,true,false,true,false,false,false,false,false,false],"id":27,"left_children":[1,3,5,7,9,-1,11,-1,-1,-1,-1,-1,-1],"loss_changes":[1.14827385E2,1.14443405E2,5.7465813E1,1.540234E2,8.554462E1,0E0,1.4676559E1,0E0,0E0,0E0,0E0,0E0,0E0],"parents":[2147483647,0,0,1,1,2,2,3,3,4,4,6,6],"right_children":[2,4,6,8,10,-1,12,-1,-1,-1,-1,-1,-1],"split_conditions":[2.0863704E-2,3.9827365E-2,-2.2376694E-2,-1.1110709E-2,-3.3376984E-2,1.3418001E0,-7.451888E-2,1.19202726E-1,-9.902232E-3,5.4293875E-2,-2.3639373E-1,2.1507771E-1,-3.046969E-1],"split_indices":[642,810,144,140,433,0,176,0,0,0,0,0,0],"split_type":[0,0,0,0,0,0,0,0,0,0,0,0,0],"sum_hessian":[5.1282407E3,4.986945E3,1.4129576E2,4.5704946E3,4.164501E2,1.0039935E0,1.4029176E2,1.0919047E3,3.47859E3,1.337435E2,2.827066E2,4.396606E0,1.3589516E2],"tree_param":{"num_deleted":"0","num_feature":"1117","num_nodes":"13","size_leaf_vector":"0"}},{"base_weights":[-2.0584047E-3,-7.4644536E-1,2.5760964E-2,-1.1525332E0,6.775206E-1,4.583568E-4,9.4078606E-1,-2.1134295E0,-5.6549275E-1,-9.9558765E-1,1.3820046E0,-6.151368E-1,4.4764828E-2,3.959967E0,6.908585E-1],"categories":[],"categories_nodes":[],"categories_segments":[],"categories_sizes":[],"default_left":[true,true,true,true,true,true,true,false,false,false,false,false,false,false,false],"id":28,"left_children":[1,3,5,7,9,11,13,-1,-1,-1,-1,-1,-1,-1,-1],"loss_changes":[1.0521827E2,1.06627846E2,1.1340011E2,7.935506E1,4.9993366E1,1.3005173E2,9.6714195E1,0E0,0E0,0E0,0E0,0E0,0E0,0E0,0E0],"parents":[2147483647,0,0,1,1,2,2,3,3,4,4,5,5,6,6],"right_children":[2,4,6,8,10,12,14,-1,-1,-1,-1,-1,-1,-1,-1],"split_conditions":[-8.031283E-3,2.6793283E-1,2.7496569E-2,-3.4884907E-2,3.8825322E-2,-3.9524334E-3,-7.9964876E-1,-6.340289E-1,-1.6964783E-1,-2.986763E-1,4.1460142E-1,-1.8454105E-1,1.3429449E-2,1.1879901E0,2.0725755E-1],"split_indices":[192,339,476,422,469,80,305,0,0,0,0,0,0,0,0],"split_type":[0,0,0,0,0,0,0,0,0,0,0,0,0,0,0],"sum_hessian":[5.079024E3,1.8204541E2,4.8969785E3,1.4179796E2,4.024745E1,4.7661826E3,1.3079572E2,5.2789463E1,8.900849E1,1.1802942E1,2.844451E1,3.1914136E2,4.4470415E3,8.864623E0,1.219311E2],"tree_param":{"num_deleted":"0","num_feature":"1117","num_nodes":"15","size_leaf_vector":"0"}},{"base_weights":[-2.6969365E-3,1.1098565E-1,-1.8155189E-1,-4.787965E-2,3.597675E-1,5.9094552E-2,-5.425246E-1,-8.000844E-1,7.417555E-2,4.315997E-1,-9.907479E-1,3.7981477E-1,-3.6314315E-1,-1.1398394E0,-3.1667024E-1],"categories":[],"categories_nodes":[],"categories_segments":[],"categories_sizes":[],"default_left":[true,true,true,true,true,true,true,false,false,false,false,false,false,false,false],"id":29,"left_children":[1,3,5,7,9,11,13,-1,-1,-1,-1,-1,-1,-1,-1],"loss_changes":[1.0222685E2,1.21506874E2,1.697528E2,1.7237407E2,1.1665204E2,1.590113E2,1.0508386E2,0E0,0E0,0E0,0E0,0E0,0E0,0E0,0E0],"parents":[2147483647,0,0,1,1,2,2,3,3,4,4,5,5,6,6],"right_children":[2,4,6,8,10,12,14,-1,-1,-1,-1,-1,-1,-1,-1],"split_conditions":[-4.1210737E-2,-1.897432E-2,-8.957038E-3,6.750381E-3,8.524325E-2,3.1350903E-2,-3.548115E-2,-2.4002533E-1,2.2252666E-2,1.2947991E-1,-2.972244E-1,1.1394443E-1,-1.0894295E-1,-3.4195185E-1,-9.500108E-2],"split_indices":[402,388,316,170,559,894,432,0,0,0,0,0,0,0,0],"split_type":[0,0,0,0,0,0,0,0,0,0,0,0,0,0,0],"sum_hessian":[5.025717E3,3.0729124E3,1.9528046E3,1.875852E3,1.1970604E3,1.1721884E3,7.806161E2,2.6111166E2,1.6147404E3,1.1372518E3,5.9808563E1,6.66235E2,5.0595343E2,2.1306868E2,5.675474E2],"tree_param":{"num_deleted":"0","num_feature":"1117","num_nodes":"15","size_leaf_vector":"0"}},{"base_weights":[-1.3957213E-3,-7.1926767E-1,2.4948709E-2,-1.0334582E0,3.009808E-1,2.6789927E-1,-6.4973265E-2,-2.546327E-2,-1.2679217E0,8.0068076E-1,-1.3430719E0,-6.488262E-1,3.6301482E-1,-1.1771058E0,-3.2183003E-2],"categories":[],"categories_nodes":[],"categories_segments":[],"categories_sizes":[],"default_left":[true,true,true,true,true,true,true,false,false,false,false,false,false,false,false],"id":30,"left_children":[1,3,5,7,9,11,13,-1,-1,-1,-1,-1,-1,-1,-1],"loss_changes":[9.3727875E1,5.6547966E1,1.0445795E2,3.1721313E1,3.5646137E1,1.1285922E2,1.27232376E2,0E0,0E0,0E0,0E0,0E0,0E0,0E0,0E0],"parents":[2147483647,0,0,1,1,2,2,3,3,4,4,5,5,6,6],"right_children":[2,4,6,8,10,12,14,-1,-1,-1,-1,-1,-1,-1,-1],"split_conditions":[-2.3453686E-2,2.7126405E-2,1.0905907E-2,3.69336E-3,-1.7114945E-3,-1.6798284E-2,-3.9729275E-2,-7.638981E-3,-3.8037652E-1,2.4020423E-1,-4.029216E-1,-1.9464786E-1,1.0890445E-1,-3.5313174E-1,-9.654901E-3],"split_indices":[319,310,750,997,492,610,593,0,0,0,0,0,0,0,0],"split_type":[0,0,0,0,0,0,0,0,0,0,0,0,0,0,0],"sum_hessian":[4.9540703E3,1.744375E2,4.779633E3,1.3335669E2,4.1080803E1,1.2906323E3,3.4890005E3,2.5374857E1,1.07981834E2,3.1898445E1,9.182357E0,1.20775406E2,1.1698568E3,9.892451E1,3.390076E3],"tree_param":{"num_deleted":"0","num_feature":"1117","num_nodes":"15","size_leaf_vector":"0"}},{"base_weights":[-2.0348218E-3,-1.0506786E0,1.5157143E-2,-1.2146275E-1,-2.3374329E0,4.466619E-2,-6.5706086E-1,-1.3730321E0,6.473462E-1,-4.2871647E0,-1.3548919E0,-6.371716E-2,2.2448114E-1,-1.331012E0,-1.608288E-1],"categories":[],"categories_nodes":[],"categories_segments":[],"categories_sizes":[],"default_left":[true,true,true,true,true,true,true,false,false,false,false,false,false,false,false],"id":31,"left_children":[1,3,5,7,9,11,13,-1,-1,-1,-1,-1,-1,-1,-1],"loss_changes":[8.835674E1,9.423822E1,9.56826E1,4.6073673E1,5.759012E1,9.005787E1,6.7623604E1,0E0,0E0,0E0,0E0,0E0,0E0,0E0,0E0],"parents":[2147483647,0,0,1,1,2,2,3,3,4,4,5,5,6,6],"right_children":[2,4,6,8,10,12,14,-1,-1,-1,-1,-1,-1,-1,-1],"split_conditions":[-3.194848E-2,2.1365903E-2,-4.476207E-2,5.606052E-3,-5.7486225E-2,1.4828023E-2,-4.759392E-2,-4.1190964E-1,1.9420387E-1,-1.2861495E0,-4.064676E-1,-1.9115148E-2,6.7344345E-2,-3.9930362E-1,-4.824864E-2],"split_indices":[829,383,502,972,146,727,545,0,0,0,0,0,0,0,0],"split_type":[0,0,0,0,0,0,0,0,0,0,0,0,0,0,0],"sum_hessian":[4.8991333E3,7.805352E1,4.8210796E3,4.595907E1,3.2094456E1,4.619238E3,2.0184189E2,1.7189611E1,2.8769457E1,9.627172E0,2.2467283E1,2.882474E3,1.7367638E3,8.4880424E1,1.1696147E2],"tree_param":{"num_deleted":"0","num_feature":"1117","num_nodes":"15","size_leaf_vector":"0"}},{"base_weights":[-1.6633042E-3,-1.5105456E-1,1.2875065E-1,2.0577954E-1,-3.1538606E-1,1.8349694E-1,-6.739844E-1,3.43155E-1,-1.0706253E0,-4.0559027E-1,6.705171E-1,-3.3651897E-1,2.672134E-1,-1.9674002E0,-1.8387796E-1],"categories":[],"categories_nodes":[],"categories_segments":[],"categories_sizes":[],"default_left":[true,true,true,true,true,true,true,false,false,false,false,false,false,false,false],"id":32,"left_children":[1,3,5,7,9,11,13,-1,-1,-1,-1,-1,-1,-1,-1],"loss_changes":[9.4828926E1,1.330938E2,1.14329704E2,1.25903534E2,1.3844426E2,1.0603418E2,1.0495087E2,0E0,0E0,0E0,0E0,0E0,0E0,0E0,0E0],"parents":[2147483647,0,0,1,1,2,2,3,3,4,4,5,5,6,6],"right_children":[2,4,6,8,10,12,14,-1,-1,-1,-1,-1,-1,-1,-1],"split_conditions":[2.628558E-4,-3.4502234E-2,4.7338404E-2,-7.730091E-2,5.142354E-2,-2.6900463E-2,-5.0396796E-2,1.02946505E-1,-3.2118762E-1,-1.21677086E-1,2.0115514E-1,-1.00955695E-1,8.016402E-2,-5.902201E-1,-5.516339E-2],"split_indices":[836,702,274,559,78,728,420,0,0,0,0,0,0,0,0],"split_type":[0,0,0,0,0,0,0,0,0,0,0,0,0,0,0],"sum_hessian":[4.865341E3,2.267605E3,2.5977358E3,7.1493097E2,1.552674E3,2.4326042E3,1.6513147E2,6.46122E2,6.8808945E1,1.423061E3,1.2961293E2,3.3689795E2,2.0957063E3,4.4549324E1,1.20582146E2],"tree_param":{"num_deleted":"0","num_feature":"1117","num_nodes":"15","size_leaf_vector":"0"}},{"base_weights":[-7.597452E-4,1.2391622E-1,-1.3930935E-1,-6.5261215E-1,1.8890639E-1,-1.760351E-2,-7.1467763E-1,-9.782277E-1,3.2122216E-1,4.1029772E-1,1.3251684E-2,-4.5961735E-1,1.4359708E-1,-1.5422964E0,-4.0527654E-1],"categories":[],"categories_nodes":[],"categories_segments":[],"categories_sizes":[],"default_left":[true,true,true,true,true,true,true,false,false,false,false,false,false,false,false],"id":33,"left_children":[1,3,5,7,9,11,13,-1,-1,-1,-1,-1,-1,-1,-1],"loss_changes":[8.277567E1,1.274142E2,1.5892485E2,6.2153847E1,9.05368E1,1.3362584E2,1.0084218E2,0E0,0E0,0E0,0E0,0E0,0E0,0E0,0E0],"parents":[2147483647,0,0,1,1,2,2,3,3,4,4,5,5,6,6],"right_children":[2,4,6,8,10,12,14,-1,-1,-1,-1,-1,-1,-1,-1],"split_conditions":[1.40948985E-2,-1.4690261E-2,1.7155547E-2,4.618725E-3,1.2754952E-2,7.5647095E-4,3.9336056E-2,-2.9346833E-1,9.636665E-2,1.2308932E-1,3.9755055E-3,-1.3788521E-1,4.3079127E-2,-4.6268895E-1,-1.2158296E-1],"split_indices":[42,99,792,485,537,920,951,0,0,0,0,0,0,0,0],"split_type":[0,0,0,0,0,0,0,0,0,0,0,0,0,0,0],"sum_hessian":[4.789977E3,2.5212751E3,2.268702E3,1.9401886E2,2.327256E3,1.873448E3,3.9525397E2,1.4539832E2,4.8620533E1,1.0289961E3,1.29826E3,5.0015796E2,1.37329E3,1.0647054E2,2.8878342E2],"tree_param":{"num_deleted":"0","num_feature":"1117","num_nodes":"15","size_leaf_vector":"0"}},{"base_weights":[-4.2316833E-4,-4.853023E-1,3.4557167E-2,-1.0497326E0,3.1574923E-3,1.4377165E-1,-1.4195737E-1,-2.9310634E0,-8.973833E-1,4.009966E0,-1.1709635E-1,1.7963612E-1,-8.940916E-1,-6.2806183E-1,1.9699689E-2],"categories":[],"categories_nodes":[],"categories_segments":[],"categories_sizes":[],"default_left":[true,true,true,true,true,true,true,false,false,false,false,false,false,false,false],"id":34,"left_children":[1,3,5,7,9,11,13,-1,-1,-1,-1,-1,-1,-1,-1],"loss_changes":[8.033086E1,8.78655E1,8.5180145E1,3.9746033E1,8.3266594E1,1.01758194E2,1.3273752E2,0E0,0E0,0E0,0E0,0E0,0E0,0E0,0E0],"parents":[2147483647,0,0,1,1,2,2,3,3,4,4,5,5,6,6],"right_children":[2,4,6,8,10,12,14,-1,-1,-1,-1,-1,-1,-1,-1],"split_conditions":[-3.5397686E-2,-2.8206243E-3,2.8656088E-2,-8.476737E-2,-4.9805358E-2,1.1593977E-2,8.502768E-3,-8.793191E-1,-2.69215E-1,1.2029898E0,-3.5128906E-2,5.389084E-2,-2.682275E-1,-1.8841855E-1,5.909907E-3],"split_indices":[312,865,496,8,703,117,630,0,0,0,0,0,0,0,0],"split_type":[0,0,0,0,0,0,0,0,0,0,0,0,0,0,0],"sum_hessian":[4.734156E3,3.1768594E2,4.41647E3,1.468487E2,1.7083723E2,2.728473E3,1.6879971E3,9.634549E0,1.3721414E2,4.0353456E0,1.668019E2,2.6381362E3,9.033669E1,4.2054095E2,1.267456E3],"tree_param":{"num_deleted":"0","num_feature":"1117","num_nodes":"15","size_leaf_vector":"0"}},{"base_weights":[-5.667492E-4,-2.4391558E-2,6.925652E-1,-1.7641721E-2,-2.8834188E0,4.45351E0,5.5070245E-1,2.6676895E-2,-4.4298214E-1,-9.519476E-1,-4.0509458E0,5.741419E0,-5.8089745E-1,-3.0557582E-1,9.5434237E-1],"categories":[],"categories_nodes":[],"categories_segments":[],"categories_sizes":[],"default_left":[true,true,true,true,true,true,true,false,false,false,false,false,false,false,false],"id":35,"left_children":[1,3,5,7,9,11,13,-1,-1,-1,-1,-1,-1,-1,-1],"loss_changes":[7.743166E1,8.7428474E1,8.068075E1,8.528046E1,2.0206696E1,3.9142967E1,5.258259E1,0E0,0E0,0E0,0E0,0E0,0E0,0E0,0E0],"parents":[2147483647,0,0,1,1,2,2,3,3,4,4,5,5,6,6],"right_children":[2,4,6,8,10,12,14,-1,-1,-1,-1,-1,-1,-1,-1],"split_conditions":[1.5734216E-2,6.665811E-2,-4.1530382E-2,9.613495E-3,3.86559E-2,-5.163543E-2,1.4688859E-2,8.003069E-3,-1.3289465E-1,-2.855843E-1,-1.2152838E0,1.7224257E0,-1.7426924E-1,-9.167275E-2,2.8630272E-1],"split_indices":[486,547,862,399,734,325,547,0,0,0,0,0,0,0,0],"split_type":[0,0,0,0,0,0,0,0,0,0,0,0,0,0,0],"sum_hessian":[4.6869014E3,4.532086E3,1.5481517E2,4.5224155E3,9.670735E0,4.522606E0,1.5029257E2,4.0965137E3,4.2590158E2,4.3273077E0,5.3434277E0,3.4894853E0,1.0331208E0,4.8227055E1,1.0206551E2],"tree_param":{"num_deleted":"0","num_feature":"1117","num_nodes":"15","size_leaf_vector":"0"}},{"base_weights":[-4.3205274E-4,1.4236461E-2,-1.0830486E0,-1.0117962E-3,1.0124128E0,1.0216734E0,-1.2601712E0,-8.7893766E-1,2.0070152E-2,1.5710723E0,-5.151465E-1,6.866502E-1,-1.3360573E0],"categories":[],"categories_nodes":[],"categories_segments":[],"categories_sizes":[],"default_left":[true,true,true,true,true,false,true,false,false,false,false,false,false],"id":36,"left_children":[1,3,5,7,9,-1,11,-1,-1,-1,-1,-1,-1],"loss_changes":[7.418304E1,7.015128E1,2.4567284E1,8.4056816E1,5.9990295E1,0E0,9.493134E0,0E0,0E0,0E0,0E0,0E0,0E0],"parents":[2147483647,0,0,1,1,2,2,3,3,4,4,6,6],"right_children":[2,4,6,8,10,-1,12,-1,-1,-1,-1,-1,-1],"split_conditions":[3.2685276E-2,1.0530009E-1,-1.0694815E-1,-5.5022806E-2,-1.4222988E-2,3.0650204E-1,-5.4737046E-2,-2.6368132E-1,6.021046E-3,4.7132173E-1,-1.5454395E-1,2.0599507E-1,-4.0081722E-1],"split_indices":[14,646,482,1,631,0,379,0,0,0,0,0,0],"split_type":[0,0,0,0,0,0,0,0,0,0,0,0,0],"sum_hessian":[4.6693945E3,4.6079478E3,6.1446842E1,4.539599E3,6.834846E1,4.399543E0,5.70473E1,1.0550046E2,4.4340986E3,5.002486E1,1.8323593E1,1.8382978E0,5.5209E1],"tree_param":{"num_deleted":"0","num_feature":"1117","num_nodes":"13","size_leaf_vector":"0"}},{"base_weights":[-1.2058064E-3,1.4045791E-2,-9.8980486E-1,-3.6781766E-2,3.373524E-1,4.39129E-1,-1.1724664E0,1.526624E-1,-1.9686489E-1,5.1347494E-1,-8.3389604E-1,1.2952505E0,-8.697063E-1,-1.075757E0,-2.020458E0],"categories":[],"categories_nodes":[],"categories_segments":[],"categories_sizes":[],"default_left":[true,true,true,true,true,true,true,false,false,false,false,false,false,false,false],"id":37,"left_children":[1,3,5,7,9,11,13,-1,-1,-1,-1,-1,-1,-1,-1],"loss_changes":[6.994423E1,7.508626E1,1.891079E1,1.1978351E2,1.2847815E2,1.0892739E1,2.9736557E0,0E0,0E0,0E0,0E0,0E0,0E0,0E0,0E0],"parents":[2147483647,0,0,1,1,2,2,3,3,4,4,5,5,6,6],"right_children":[2,4,6,8,10,12,14,-1,-1,-1,-1,-1,-1,-1,-1],"split_conditions":[4.0253006E-2,-5.9082173E-3,-7.456853E-2,1.166326E-2,-4.1583627E-3,-2.6264198E-2,4.2643163E-2,4.579872E-2,-5.9059467E-2,1.5404248E-1,-2.5016883E-1,3.8857517E-1,-2.6091188E-1,-3.227271E-1,-6.061374E-1],"split_indices":[873,769,32,101,915,829,818,0,0,0,0,0,0,0,0],"split_type":[0,0,0,0,0,0,0,0,0,0,0,0,0,0,0],"sum_hessian":[4.6369927E3,4.567513E3,6.947945E1,3.947765E3,6.197483E2,7.7158046E0,6.1763645E1,1.8080933E3,2.1396716E3,5.3922565E2,8.0522644E1,4.6709023E0,3.0449023E0,5.7477238E1,4.2864094E0],"tree_param":{"num_deleted":"0","num_feature":"1117","num_nodes":"15","size_leaf_vector":"0"}},{"base_weights":[-1.0587753E-3,4.30571E-2,-3.5341063E-1,-3.254149E-2,3.387824E-1,-5.8401823E-1,2.543236E-1,-1.4996542E0,-1.4650803E-2,-6.581208E-1,4.349828E-1,-1.1465218E-3,-9.562054E-1,1.5670558E0,-1.2602516E-1],"categories":[],"categories_nodes":[],"categories_segments":[],"categories_sizes":[],"default_left":[true,true,true,true,true,true,true,false,false,false,false,false,false,false,false],"id":38,"left_children":[1,3,5,7,9,11,13,-1,-1,-1,-1,-1,-1,-1,-1],"loss_changes":[7.1656525E1,9.1603E1,7.2036835E1,8.564289E1,8.028656E1,8.073212E1,7.099541E1,0E0,0E0,0E0,0E0,0E0,0E0,0E0,0E0],"parents":[2147483647,0,0,1,1,2,2,3,3,4,4,5,5,6,6],"right_children":[2,4,6,8,10,12,14,-1,-1,-1,-1,-1,-1,-1,-1],"split_conditions":[2.8412182E-2,1.3398852E-2,-1.9782512E-3,-1.9727066E-2,-1.077222E-2,-5.809917E-3,-1.3674714E-2,-4.4989628E-1,-4.395241E-3,-1.9743626E-1,1.3049485E-1,-3.4395655E-4,-2.8686163E-1,4.7011676E-1,-3.7807547E-2],"split_indices":[711,836,48,621,975,695,511,0,0,0,0,0,0,0,0],"split_type":[0,0,0,0,0,0,0,0,0,0,0,0,0,0,0],"sum_hessian":[4.6078438E3,4.0958987E3,5.1194525E2,3.262715E3,8.331836E2,3.7114978E2,1.4079547E2,3.830998E1,3.224405E3,7.281165E1,7.6037195E2,1.4502827E2,2.261215E2,3.092863E1,1.09866844E2],"tree_param":{"num_deleted":"0","num_feature":"1117","num_nodes":"15","size_leaf_vector":"0"}},{"base_weights":[-1.824425E-3,8.663031E-3,-1.4348928E0,-4.1296014E-1,4.567708E-2,5.317653E-1,-1.9877987E0,-2.2409812E-1,-1.6644677E0,4.8736474E-1,5.38923E-3,9.922227E-1,-1.2165675E0,-2.9195154E0,-1.4033954E0],"categories":[],"categories_nodes":[],"categories_segments":[],"categories_sizes":[],"default_left":[true,true,true,true,true,true,true,false,false,false,false,false,false,false,false],"id":39,"left_children":[1,3,5,7,9,11,13,-1,-1,-1,-1,-1,-1,-1,-1],"loss_changes":[6.822596E1,7.0350975E1,3.6918602E1,8.561879E1,7.373709E1,7.668476E0,1.00344925E1,0E0,0E0,0E0,0E0,0E0,0E0,0E0,0E0],"parents":[2147483647,0,0,1,1,2,2,3,3,4,4,5,5,6,6],"right_children":[2,4,6,8,10,12,14,-1,-1,-1,-1,-1,-1,-1,-1],"split_conditions":[4.636588E-2,-1.26439445E-2,-4.4789836E-2,2.1643126E-2,-8.8914774E-2,3.890205E-3,-1.2965515E-2,-6.7229435E-2,-4.9934033E-1,1.4620943E-1,1.616769E-3,2.9766682E-1,-3.6497027E-1,-8.758547E-1,-4.2101863E-1],"split_indices":[26,924,700,571,393,587,843,0,0,0,0,0,0,0,0],"split_type":[0,0,0,0,0,0,0,0,0,0,0,0,0,0,0],"sum_hessian":[4.5377207E3,4.5057407E3,3.1979881E1,3.6281348E2,4.1429272E3,7.026219E0,2.4953663E1,3.1626566E2,4.6547832E1,3.4537555E2,3.797552E3,5.9038105E0,1.1224085E0,8.0784445E0,1.6875217E1],"tree_param":{"num_deleted":"0","num_feature":"1117","num_nodes":"15","size_leaf_vector":"0"}},{"base_weights":[-1.4175427E-3,2.357366E-1,-6.391063E-2,-5.6565183E-1,3.8409215E-1,4.5256082E-2,-2.9453006E-1,8.8612235E-1,-1.0003102E0,4.8451674E-1,-4.6921346E-1,4.7944516E-1,-4.815716E-2,-4.7516176E-1,1.8980132E-1],"categories":[],"categories_nodes":[],"categories_segments":[],"categories_sizes":[],"default_left":[true,true,true,true,true,true,true,false,false,false,false,false,false,false,false],"id":40,"left_children":[1,3,5,7,9,11,13,-1,-1,-1,-1,-1,-1,-1,-1],"loss_changes":[6.671181E1,1.1182883E2,8.970341E1,9.3676735E1,6.8158646E1,9.812817E1,1.00235344E2,0E0,0E0,0E0,0E0,0E0,0E0,0E0,0E0],"parents":[2147483647,0,0,1,1,2,2,3,3,4,4,5,5,6,6],"right_children":[2,4,6,8,10,12,14,-1,-1,-1,-1,-1,-1,-1,-1],"split_conditions":[3.277292E-3,-1.8313845E-1,-8.380768E-3,-1.5063116E-2,1.2307125E-1,9.880379E-3,2.6669871E-2,2.6583672E-1,-3.0009305E-1,1.4535503E-1,-1.4076404E-1,1.4383355E-1,-1.4447148E-2,-1.4254853E-1,5.69404E-2],"split_indices":[471,838,783,10,789,580,294,0,0,0,0,0,0,0,0],"split_type":[0,0,0,0,0,0,0,0,0,0,0,0,0,0,0],"sum_hessian":[4.4993047E3,9.3777673E2,3.5615278E3,1.4604684E2,7.917299E2,2.4178232E3,1.1437045E3,3.3411747E1,1.1263509E2,7.087501E2,8.297981E1,4.2734967E2,1.9904736E3,8.3304047E2,3.1066403E2],"tree_param":{"num_deleted":"0","num_feature":"1117","num_nodes":"15","size_leaf_vector":"0"}},{"base_weights":[-1.2856905E-3,1.9165387E-2,-6.6400886E-1,-1.2638332E0,3.1589463E-2,6.813887E-2,-1.0293001E0,-2.9632854E-1,-1.2805439E0,-1.4636474E-2,3.6775923E-1,-1.0995563E0,1.00988E0,5.3677994E-1,-1.3040601E0],"categories":[],"categories_nodes":[],"categories_segments":[],"categories_sizes":[],"default_left":[true,true,true,true,true,true,true,false,false,false,false,false,false,false,false],"id":41,"left_children":[1,3,5,7,9,11,13,-1,-1,-1,-1,-1,-1,-1,-1],"loss_changes":[6.0616577E1,6.9197556E1,3.5876953E1,2.9367828E-1,6.679478E1,5.114762E1,3.9160515E1,0E0,0E0,0E0,0E0,0E0,0E0,0E0,0E0],"parents":[2147483647,0,0,1,1,2,2,3,3,4,4,5,5,6,6],"right_children":[2,4,6,8,10,12,14,-1,-1,-1,-1,-1,-1,-1,-1],"split_conditions":[-1.2082369E-2,-5.1045284E-2,-1.5446778E-2,-2.5746396E-2,1.742953E-2,-1.645902E-3,-4.4898614E-2,-8.889857E-2,-3.841632E-1,-4.3909424E-3,1.1032777E-1,-3.2986692E-1,3.02964E-1,1.6103399E-1,-3.9121804E-1],"split_indices":[880,348,813,763,302,946,266,0,0,0,0,0,0,0,0],"split_type":[0,0,0,0,0,0,0,0,0,0,0,0,0,0,0],"sum_hessian":[4.4704863E3,4.3376025E3,1.3288368E2,4.0634846E1,4.296968E3,4.450216E1,8.838152E1,1.0079908E0,3.9626854E1,3.7783694E3,5.185985E2,1.979282E1,2.4709337E1,1.3049304E1,7.533222E1],"tree_param":{"num_deleted":"0","num_feature":"1117","num_nodes":"15","size_leaf_vector":"0"}},{"base_weights":[-2.0950316E-3,-1.1204116E0,1.0035523E-2,-8.437988E-2,-2.0176957E0,-5.4170984E-1,3.537722E-2,4.6369717E-1,-1.5901676E0,-3.8142803E0,-1.465964E0,-1.1395023E0,2.1386676E-2,-3.4568388E-2,2.6149186E-1],"categories":[],"categories_nodes":[],"categories_segments":[],"categories_sizes":[],"default_left":[true,true,true,true,true,true,true,false,false,false,false,false,false,false,false],"id":42,"left_children":[1,3,5,7,9,11,13,-1,-1,-1,-1,-1,-1,-1,-1],"loss_changes":[6.0416035E1,4.425603E1,6.162368E1,1.9903656E1,1.9750473E1,6.5172714E1,6.664696E1,0E0,0E0,0E0,0E0,0E0,0E0,0E0,0E0],"parents":[2147483647,0,0,1,1,2,2,3,3,4,4,5,5,6,6],"right_children":[2,4,6,8,10,12,14,-1,-1,-1,-1,-1,-1,-1,-1],"split_conditions":[-6.2724546E-2,-2.2117525E-2,-4.0635556E-2,-3.20945E-2,4.5720585E-2,1.5285851E-2,1.7694315E-2,1.3910915E-1,-4.770503E-1,-1.1442841E0,-4.397892E-1,-3.418507E-1,6.4160028E-3,-1.0370517E-2,7.8447565E-2],"split_indices":[671,289,41,388,267,487,972,0,0,0,0,0,0,0,0],"split_type":[0,0,0,0,0,0,0,0,0,0,0,0,0,0,0],"sum_hessian":[4.4517256E3,4.6789997E1,4.4049355E3,2.2223778E1,2.456622E1,1.9253972E2,4.212396E3,1.6800707E1,5.4230695E0,4.3824654E0,2.0183754E1,9.289608E1,9.964363E1,3.217845E3,9.945511E2],"tree_param":{"num_deleted":"0","num_feature":"1117","num_nodes":"15","size_leaf_vector":"0"}},{"base_weights":[-1.6245621E-3,-1.1637185E0,9.9248625E-3,5.158043E-1,-1.8094252E0,-1.0369214E0,2.2827318E-2,-1.6213471E0,9.1074204E-1,4.7843757E-1,-2.046837E0,1.8467598E-1,-1.1996853E0,-5.692456E-1,4.5564573E-2],"categories":[],"categories_nodes":[],"categories_segments":[],"categories_sizes":[],"default_left":[true,true,true,true,true,true,true,false,false,false,false,false,false,false,false],"id":43,"left_children":[1,3,5,7,9,11,13,-1,-1,-1,-1,-1,-1,-1,-1],"loss_changes":[5.92264E1,4.802661E1,5.9042145E1,1.2311646E1,1.8136665E1,1.0803471E1,5.814577E1,0E0,0E0,0E0,0E0,0E0,0E0,0E0,0E0],"parents":[2147483647,0,0,1,1,2,2,3,3,4,4,5,5,6,6],"right_children":[2,4,6,8,10,12,14,-1,-1,-1,-1,-1,-1,-1,-1],"split_conditions":[-5.7502434E-2,-6.722729E-2,-5.207252E-2,-1.6207695E-1,-6.399875E-2,-2.127881E-2,-2.0242471E-2,-4.8640415E-1,2.7322263E-1,1.4353128E-1,-6.1405116E-1,5.5402797E-2,-3.599056E-1,-1.7077368E-1,1.3669373E-2],"split_indices":[76,1015,783,669,286,21,764,0,0,0,0,0,0,0,0],"split_type":[0,0,0,0,0,0,0,0,0,0,0,0,0,0,0],"sum_hessian":[4.4109346E3,4.2424805E1,4.36851E3,1.1837063E1,3.0587744E1,5.2220383E1,4.3162896E3,1.3619164E0,1.0475146E1,2.78024E0,2.7807503E1,6.123894E0,4.609649E1,1.5873853E2,4.157551E3],"tree_param":{"num_deleted":"0","num_feature":"1117","num_nodes":"15","size_leaf_vector":"0"}},{"base_weights":[-1.8279512E-3,-1.0386316E0,1.0373131E-2,-8.770283E-2,-2.0662825E0,1.8929465E-1,-7.4749194E-2,3.123629E-1,-2.6526392E0,-5.952683E-1,-2.9525414E0,-6.260967E-1,2.5837958E-1,-7.511101E-1,-3.1804234E-2],"categories":[],"categories_nodes":[],"categories_segments":[],"categories_sizes":[],"default_left":[true,true,true,true,true,true,true,false,false,false,false,false,false,false,false],"id":44,"left_children":[1,3,5,7,9,11,13,-1,-1,-1,-1,-1,-1,-1,-1],"loss_changes":[5.5498833E1,4.968464E1,6.605748E1,2.909651E1,3.0157532E1,7.892575E1,8.534626E1,0E0,0E0,0E0,0E0,0E0,0E0,0E0,0E0],"parents":[2147483647,0,0,1,1,2,2,3,3,4,4,5,5,6,6],"right_children":[2,4,6,8,10,12,14,-1,-1,-1,-1,-1,-1,-1,-1],"split_conditions":[-5.3684764E-2,3.850724E-3,-7.857302E-3,2.5180852E-2,-1.849021E-2,-1.7978698E-2,-3.720279E-2,9.370887E-2,-7.957918E-1,-1.785805E-1,-8.8576245E-1,-1.8782903E-1,7.751387E-2,-2.2533303E-1,-9.54127E-3],"split_indices":[378,839,564,357,521,347,1005,0,0,0,0,0,0,0,0],"split_type":[0,0,0,0,0,0,0,0,0,0,0,0,0,0,0],"sum_hessian":[4.385364E3,5.0028137E1,4.335336E3,2.6547737E1,2.3480402E1,1.3972289E3,2.938107E3,2.372539E1,2.8223479E0,9.4563675E0,1.4024034E1,1.0850538E2,1.2887235E3,1.7443028E2,2.7636765E3],"tree_param":{"num_deleted":"0","num_feature":"1117","num_nodes":"15","size_leaf_vector":"0"}},{"base_weights":[-1.198677E-3,5.0647445E-2,-2.3796692E-1,1.4949231E-1,-1.6806462E-1,-1.0135566E0,-5.431696E-2,6.22362E-2,5.7366484E-1,-4.4591212E-1,1.71625E-1,-9.153631E-1,-6.691512E0,-6.888548E-1,1.2597986E-1],"categories":[],"categories_nodes":[],"categories_segments":[],"categories_sizes":[],"default_left":[true,true,true,true,true,true,true,false,false,false,false,false,false,false,false],"id":45,"left_children":[1,3,5,7,9,11,13,-1,-1,-1,-1,-1,-1,-1,-1],"loss_changes":[5.358479E1,7.744214E1,1.1163705E2,9.1268814E1,1.05324615E2,7.754576E1,7.274308E1,0E0,0E0,0E0,0E0,0E0,0E0,0E0,0E0],"parents":[2147483647,0,0,1,1,2,2,3,3,4,4,5,5,6,6],"right_children":[2,4,6,8,10,12,14,-1,-1,-1,-1,-1,-1,-1,-1],"split_conditions":[-6.041548E-3,2.7564913E-2,1.4569926E-3,7.3958496E-3,-7.6998337E-3,4.8298456E-2,-2.0000782E-2,1.867086E-2,1.7209946E-1,-1.3377364E-1,5.14875E-2,-2.7460894E-1,-2.0074537E0,-2.0665646E-1,3.7793957E-2],"split_indices":[433,670,171,262,177,981,454,0,0,0,0,0,0,0,0],"split_type":[0,0,0,0,0,0,0,0,0,0,0,0,0,0,0],"sum_hessian":[4.3631943E3,3.5800435E3,7.831508E2,2.4659136E3,1.1141299E3,1.4907193E2,6.340789E2,2.046149E3,4.1976456E2,6.126792E2,5.014507E2,1.4767921E2,1.3927251E0,1.3967723E2,4.9440167E2],"tree_param":{"num_deleted":"0","num_feature":"1117","num_nodes":"15","size_leaf_vector":"0"}},{"base_weights":[-7.6385355E-4,-2.1041615E-1,5.8311217E-2,-5.094301E0,-1.8863769E-1,-9.793952E-1,7.78956E-2,-6.3614335E0,-8.3370817E-1,5.031533E-1,-3.142479E-1,-1.1790074E0,1.464172E0,9.613083E-2,-9.303893E-1],"categories":[],"categories_nodes":[],"categories_segments":[],"categories_sizes":[],"default_left":[true,true,true,true,true,true,true,false,false,false,false,false,false,false,false],"id":46,"left_children":[1,3,5,7,9,11,13,-1,-1,-1,-1,-1,-1,-1,-1],"loss_changes":[5.373764E1,1.0049077E2,6.8869896E1,1.7349464E1,8.276361E1,3.2345936E1,6.1192017E1,0E0,0E0,0E0,0E0,0E0,0E0,0E0,0E0],"parents":[2147483647,0,0,1,1,2,2,3,3,4,4,5,5,6,6],"right_children":[2,4,6,8,10,12,14,-1,-1,-1,-1,-1,-1,-1,-1],"split_conditions":[-1.2421073E-2,-5.0129954E-2,-4.1922957E-2,-8.987817E-3,-4.0221408E-2,2.4125874E-2,1.9046023E-1,-1.9084301E0,-2.5011247E-1,1.50946E-1,-9.427438E-2,-3.5370225E-1,4.3925163E-1,2.8839251E-2,-2.791168E-1],"split_indices":[187,848,370,11,994,551,838,0,0,0,0,0,0,0,0],"split_type":[0,0,0,0,0,0,0,0,0,0,0,0,0,0,0],"sum_hessian":[4.33686E3,9.5282056E2,3.3840393E3,3.19599E0,9.496246E2,6.177535E1,3.3222642E3,2.0833113E0,1.1126788E0,1.4546713E2,8.041574E2,5.7588516E1,4.186834E0,3.2641355E3,5.8128544E1],"tree_param":{"num_deleted":"0","num_feature":"1117","num_nodes":"15","size_leaf_vector":"0"}},{"base_weights":[-4.123718E-4,-1.025409E0,1.142247E-2,8.7490195E-1,-1.1197147E0,-1.42459E-1,1.0109E-1,-6.6027E-1,-3.5848565E-2,1.3452236E-1,-5.7631576E-1],"categories":[],"categories_nodes":[],"categories_segments":[],"categories_sizes":[],"default_left":[true,true,true,false,false,true,true,false,false,false,false],"id":47,"left_children":[1,3,5,-1,-1,7,9,-1,-1,-1,-1],"loss_changes":[5.2308674E1,9.800404E0,5.883482E1,0E0,0E0,8.664083E1,6.1089752E1,0E0,0E0,0E0,0E0],"parents":[2147483647,0,0,1,1,2,2,5,5,6,6],"right_children":[2,4,6,-1,-1,8,10,-1,-1,-1,-1],"split_conditions":[-8.89955E-2,-3.560406E-2,-1.6565733E-2,2.624706E-1,-3.3591443E-1,-4.8551716E-2,3.0739836E-2,-1.98081E-1,-1.075457E-2,4.035671E-2,-1.7289473E-1],"split_indices":[148,678,593,0,0,726,495,0,0,0,0],"split_type":[0,0,0,0,0,0,0,0,0,0,0],"sum_hessian":[4.3101343E3,4.8220165E1,4.261914E3,1.8885059E0,4.633166E1,1.5688937E3,2.6930203E3,2.66978E2,1.3019156E3,2.567125E3,1.25895294E2],"tree_param":{"num_deleted":"0","num_feature":"1117","num_nodes":"11","size_leaf_vector":"0"}},{"base_weights":[-5.3200277E-4,1.2166623E-2,-9.3758285E-1,-8.57815E-2,1.5758592E-1,-1.7254604E0,6.640477E-1,-3.9702648E-1,3.92254E-2,1.4796212E-1,4.212491E0,-2.2359602E0,-1.0136775E0,-1.1928188E0,1.027596E0],"categories":[],"categories_nodes":[],"categories_segments":[],"categories_sizes":[],"default_left":[true,true,true,true,true,true,true,false,false,false,false,false,false,false,false],"id":48,"left_children":[1,3,5,7,9,11,13,-1,-1,-1,-1,-1,-1,-1,-1],"loss_changes":[5.0916355E1,6.014666E1,7.334062E1,9.8191086E1,6.569702E1,1.1768639E1,1.4447584E1,0E0,0E0,0E0,0E0,0E0,0E0,0E0,0E0],"parents":[2147483647,0,0,1,1,2,2,3,3,4,4,5,5,6,6],"right_children":[2,4,6,8,10,12,14,-1,-1,-1,-1,-1,-1,-1,-1],"split_conditions":[3.7701406E-2,5.84272E-2,3.6387626E-2,-9.8088995E-2,4.322166E-2,-2.0317562E-2,3.6872707E-2,-1.1910795E-1,1.176762E-2,4.4388637E-2,1.2637473E0,-6.707881E-1,-3.0410326E-1,-3.5784563E-1,3.082788E-1],"split_indices":[385,148,529,75,307,700,732,0,0,0,0,0,0,0,0],"split_type":[0,0,0,0,0,0,0,0,0,0,0,0,0,0,0],"sum_hessian":[4.276993E3,4.2207817E3,5.6211723E1,2.522288E3,1.6984937E3,3.762556E1,1.858616E1,7.2213184E2,1.8001562E3,1.695506E3,2.987575E0,2.0663837E1,1.6961723E1,2.669635E0,1.5916527E1],"tree_param":{"num_deleted":"0","num_feature":"1117","num_nodes":"15","size_leaf_vector":"0"}},{"base_weights":[-8.7196025E-4,-3.639209E-1,3.3572603E-2,-6.8306044E-2,-1.053481E0,5.6683682E-2,-6.238819E-1,-1.1927418E0,1.5905483E-1,-3.5885417E0,-8.23021E-1,2.8785357E-1,-1.7574755E-2,-9.3153083E-1,8.889406E-1],"categories":[],"categories_nodes":[],"categories_segments":[],"categories_sizes":[],"default_left":[true,true,true,true,true,true,true,false,false,false,false,false,false,false,false],"id":49,"left_children":[1,3,5,7,9,11,13,-1,-1,-1,-1,-1,-1,-1,-1],"loss_changes":[5.3112446E1,7.495187E1,5.8978615E1,6.6321304E1,6.1526527E1,6.435189E1,6.2178318E1,0E0,0E0,0E0,0E0,0E0,0E0,0E0,0E0],"parents":[2147483647,0,0,1,1,2,2,3,3,4,4,5,5,6,6],"right_children":[2,4,6,8,10,12,14,-1,-1,-1,-1,-1,-1,-1,-1],"split_conditions":[-2.4624707E-2,-8.501129E-3,2.8023489E-2,2.7000154E-3,-2.445957E-2,9.644834E-3,4.793895E-2,-3.5782254E-1,4.771645E-2,-1.0765625E0,-2.4690631E-1,8.635607E-2,-5.2724266E-3,-2.7945927E-1,2.6668218E-1],"split_indices":[57,14,763,619,833,750,604,0,0,0,0,0,0,0,0],"split_type":[0,0,0,0,0,0,0,0,0,0,0,0,0,0,0],"sum_hessian":[4.245299E3,3.6704495E2,3.8782537E3,2.576775E2,1.0936745E2,3.7474363E3,1.3081746E2,4.262505E1,2.1505244E2,7.8996835E0,1.01467766E2,9.104105E2,2.8370256E3,1.0902939E2,2.1788073E1],"tree_param":{"num_deleted":"0","num_feature":"1117","num_nodes":"15","size_leaf_vector":"0"}},{"base_weights":[-8.649504E-4,1.4028632E-2,-7.979706E-1,3.568437E-1,-2.0078557E-2,-1.0437365E0,1.5496717E-1,5.380699E-1,-8.5875E-1,-4.457859E-1,2.489508E-2,9.941106E-1,-9.242294E-1],"categories":[],"categories_nodes":[],"categories_segments":[],"categories_sizes":[],"default_left":[true,true,true,true,true,false,true,false,false,false,false,false,false],"id":50,"left_children":[1,3,5,7,9,-1,11,-1,-1,-1,-1,-1,-1],"loss_changes":[5.0279285E1,4.8619453E1,1.8354717E1,8.335268E1,7.242572E1,0E0,1.613059E1,0E0,0E0,0E0,0E0,0E0,0E0],"parents":[2147483647,0,0,1,1,2,2,3,3,4,4,6,6],"right_children":[2,4,6,8,10,-1,12,-1,-1,-1,-1,-1,-1],"split_conditions":[2.0863704E-2,-1.2938408E-2,1.9184507E-2,-6.4572496E-3,-8.021543E-3,-3.1312096E-1,-2.2718252E-3,1.6142097E-1,-2.57625E-1,-1.3373578E-1,7.468524E-3,2.9823318E-1,-2.7726883E-1],"split_indices":[642,792,640,242,198,0,269,0,0,0,0,0,0],"split_type":[0,0,0,0,0,0,0,0,0,0,0,0,0],"sum_hessian":[4.233258E3,4.1565767E3,7.668147E1,3.7526678E2,3.7813098E3,6.0884003E1,1.5797474E1,3.2706396E2,4.8202816E1,3.6045316E2,3.4208567E3,8.931506E0,6.8659678E0],"tree_param":{"num_deleted":"0","num_feature":"1117","num_nodes":"13","size_leaf_vector":"0"}},{"base_weights":[-1.2970057E-3,1.703467E-2,-6.135496E-1,-1.8883063E-2,4.2271265E-1,8.302009E-1,-1.0206745E0,-7.215632E-1,1.7075777E-2,2.5563302E-2,1.3248794E0,1.4258313E0,-1.1658238E0,-1.1816665E0,4.7285888E-1],"categories":[],"categories_nodes":[],"categories_segments":[],"categories_sizes":[],"default_left":[true,true,true,true,true,true,true,false,false,false,false,false,false,false,false],"id":51,"left_children":[1,3,5,7,9,11,13,-1,-1,-1,-1,-1,-1,-1,-1],"loss_changes":[4.691672E1,5.914781E1,7.2276184E1,9.424926E1,1.18262314E2,3.409738E1,2.34589E1,0E0,0E0,0E0,0E0,0E0,0E0,0E0,0E0],"parents":[2147483647,0,0,1,1,2,2,3,3,4,4,5,5,6,6],"right_children":[2,4,6,8,10,12,14,-1,-1,-1,-1,-1,-1,-1,-1],"split_conditions":[1.4729837E-2,2.1279655E-2,-2.1590594E-2,-7.0885524E-2,2.1878079E-2,1.9703906E-2,4.4190515E-2,-2.1646897E-1,5.1227333E-3,7.6689906E-3,3.9746383E-1,4.2774943E-1,-3.4974715E-1,-3.5449997E-1,1.4185767E-1],"split_indices":[681,303,665,206,0,912,48,0,0,0,0,0,0,0,0],"split_type":[0,0,0,0,0,0,0,0,0,0,0,0,0,0,0],"sum_hessian":[4.1782476E3,4.0577258E3,1.2052166E2,3.7285615E3,3.2916428E2,2.6281775E1,9.423989E1,1.8058774E2,3.5479739E3,2.2926584E2,9.989843E1,2.0461544E1,5.8202305E0,8.525846E1,8.981428E0],"tree_param":{"num_deleted":"0","num_feature":"1117","num_nodes":"15","size_leaf_vector":"0"}},{"base_weights":[-2.0288785E-3,4.176659E-1,-2.6695663E-2,1.0498458E0,-1.21801965E-1,-1.8937527E-3,-6.201656E-1,1.7679672E0,3.4961447E-1,-1.094721E0,4.5344675E-1,-6.630711E-1,1.9523485E-2,-1.3391851E0,-2.7952585E-2],"categories":[],"categories_nodes":[],"categories_segments":[],"categories_sizes":[],"default_left":[true,true,true,true,true,true,true,false,false,false,false,false,false,false,false],"id":52,"left_children":[1,3,5,7,9,11,13,-1,-1,-1,-1,-1,-1,-1,-1],"loss_changes":[4.292684E1,7.862717E1,5.764297E1,5.2726814E1,7.050599E1,5.3259052E1,6.685657E1,0E0,0E0,0E0,0E0,0E0,0E0,0E0,0E0],"parents":[2147483647,0,0,1,1,2,2,3,3,4,4,5,5,6,6],"right_children":[2,4,6,8,10,12,14,-1,-1,-1,-1,-1,-1,-1,-1],"split_conditions":[-4.0125996E-2,-6.1972043E-3,8.565377E-3,2.4510305E-2,4.46025E-3,-3.2218896E-2,9.562516E-3,5.303902E-1,1.0488435E-1,-3.284163E-1,1.3603403E-1,-1.9892134E-1,5.8570458E-3,-4.0175554E-1,-8.385776E-3],"split_indices":[433,491,149,649,210,33,904,0,0,0,0,0,0,0,0],"split_type":[0,0,0,0,0,0,0,0,0,0,0,0,0,0,0],"sum_hessian":[4.144434E3,2.2917569E2,3.9152585E3,1.0508494E2,1.2409075E2,3.7591611E3,1.5609723E2,5.112694E1,5.3957996E1,4.577254E1,7.831821E1,1.1700825E2,3.642153E3,6.993103E1,8.61662E1],"tree_param":{"num_deleted":"0","num_feature":"1117","num_nodes":"15","size_leaf_vector":"0"}},{"base_weights":[-2.929019E-3,-9.005191E-1,8.361859E-3,-3.5565832E0,-6.216021E-1,4.1572705E-1,-1.9223599E-2,-6.230016E0,-1.0269985E0,4.41424E-1,-1.235399E0,-1.0483637E0,5.0933725E-1,-6.052947E-1,5.1578633E-3],"categories":[],"categories_nodes":[],"categories_segments":[],"categories_sizes":[],"default_left":[true,true,true,true,true,true,true,false,false,false,false,false,false,false,false],"id":53,"left_children":[1,3,5,7,9,11,13,-1,-1,-1,-1,-1,-1,-1,-1],"loss_changes":[4.1683838E1,3.5641834E1,4.5656284E1,2.5007046E1,3.1506632E1,3.5849537E1,5.4381157E1,0E0,0E0,0E0,0E0,0E0,0E0,0E0,0E0],"parents":[2147483647,0,0,1,1,2,2,3,3,4,4,5,5,6,6],"right_children":[2,4,6,8,10,12,14,-1,-1,-1,-1,-1,-1,-1,-1],"split_conditions":[-2.3928827E-2,-2.2243164E-2,-4.0949084E-2,-6.688857E-2,-2.0530604E-2,-1.0689225E-2,-3.7562825E-2,-1.869005E0,-3.0809957E-1,1.3242722E-1,-3.706197E-1,-3.1450912E-1,1.5280119E-1,-1.8158841E-1,1.547359E-3],"split_indices":[484,940,879,391,396,841,96,0,0,0,0,0,0,0,0],"split_type":[0,0,0,0,0,0,0,0,0,0,0,0,0,0,0],"sum_hessian":[4.1112876E3,5.009547E1,4.0611921E3,3.6439111E0,4.6451557E1,2.566767E2,3.8045154E3,1.0603751E0,2.583536E0,1.7106276E1,2.9345282E1,1.4812083E1,2.4186461E2,1.5100064E2,3.6535146E3],"tree_param":{"num_deleted":"0","num_feature":"1117","num_nodes":"15","size_leaf_vector":"0"}},{"base_weights":[-2.0324008E-3,2.816424E-1,-3.8370166E-2,3.631359E-1,-1.5640938E0,-1.6331144E-2,-7.732529E-1,-2.597459E-1,5.606764E-1,8.140648E-1,-1.9435323E0,-1.5023598E-1,1.01577334E-1,-4.9030316E-1,-4.302248E0],"categories":[],"categories_nodes":[],"categories_segments":[],"categories_sizes":[],"default_left":[true,true,true,true,true,true,true,false,false,false,false,false,false,false,false],"id":54,"left_children":[1,3,5,7,9,11,13,-1,-1,-1,-1,-1,-1,-1,-1],"loss_changes":[4.2065136E1,7.026718E1,5.8574406E1,5.485061E1,1.9433193E1,5.5481136E1,1.0303928E2,0E0,0E0,0E0,0E0,0E0,0E0,0E0,0E0],"parents":[2147483647,0,0,1,1,2,2,3,3,4,4,5,5,6,6],"right_children":[2,4,6,8,10,12,14,-1,-1,-1,-1,-1,-1,-1,-1],"split_conditions":[-3.235707E-2,3.423598E-2,5.4606415E-2,-9.136125E-2,-9.591454E-2,2.1023933E-2,4.896044E-2,-7.7923775E-2,1.6820292E-1,2.4421945E-1,-5.830597E-1,-4.5070797E-2,3.04732E-2,-1.4709096E-1,-1.2906744E0],"split_indices":[827,31,110,494,32,735,353,0,0,0,0,0,0,0,0],"split_type":[0,0,0,0,0,0,0,0,0,0,0,0,0,0,0],"sum_hessian":[4.0787334E3,4.623779E2,3.6163555E3,4.435954E2,1.8782495E1,3.5120518E3,1.0430367E2,1.06732666E2,3.3686273E2,2.4268143E0,1.6355682E1,1.6443466E3,1.8677052E3,9.7615906E1,6.6877666E0],"tree_param":{"num_deleted":"0","num_feature":"1117","num_nodes":"15","size_leaf_vector":"0"}},{"base_weights":[-1.5152725E-3,1.9397598E-2,-5.0415677E-1,4.7153354E-1,-1.5040421E-2,-8.0409557E-1,1.1205834E0,-1.2759902E0,5.7641935E-1,-5.968132E-1,1.3967452E-2,-1.2908262E0,9.242182E-2,4.439218E0,8.01597E-1],"categories":[],"categories_nodes":[],"categories_segments":[],"categories_sizes":[],"default_left":[true,true,true,true,true,true,true,false,false,false,false,false,false,false,false],"id":55,"left_children":[1,3,5,7,9,11,13,-1,-1,-1,-1,-1,-1,-1,-1],"loss_changes":[4.2655537E1,6.0668846E1,7.9890945E1,5.1281357E1,6.1118492E1,6.0080734E1,2.3623764E1,0E0,0E0,0E0,0E0,0E0,0E0,0E0,0E0],"parents":[2147483647,0,0,1,1,2,2,3,3,4,4,5,5,6,6],"right_children":[2,4,6,8,10,12,14,-1,-1,-1,-1,-1,-1,-1,-1],"split_conditions":[2.2812936E-2,-1.9805038E-1,6.044549E-3,-2.8347392E-2,-2.0968672E-2,3.1582676E-2,-4.1482355E-3,-3.827971E-1,1.7292581E-1,-1.7904396E-1,4.190236E-3,-3.872479E-1,2.7726548E-2,1.3317654E0,2.4047911E-1],"split_indices":[909,797,33,284,347,649,785,0,0,0,0,0,0,0,0],"split_type":[0,0,0,0,0,0,0,0,0,0,0,0,0,0,0],"sum_hessian":[4.055989E3,3.8948994E3,1.6108954E2,2.7476917E2,3.6201304E3,1.3641199E2,2.4677544E1,1.4925578E1,2.598436E2,1.7100162E2,3.4491287E3,8.812694E1,4.828505E1,1.031325E0,2.364622E1],"tree_param":{"num_deleted":"0","num_feature":"1117","num_nodes":"15","size_leaf_vector":"0"}},{"base_weights":[-6.5652357E-4,-3.762526E-2,2.8192613E-1,-2.680964E-1,3.154224E-2,6.0875577E-1,-1.8811357E-1,1.1424346E-1,-6.0529554E-1,8.007341E-2,-5.5039066E-1,7.3753077E-1,-1.4943906E0,-1.039655E0,2.0796385E-1],"categories":[],"categories_nodes":[],"categories_segments":[],"categories_sizes":[],"default_left":[true,true,true,true,true,true,true,false,false,false,false,false,false,false,false],"id":56,"left_children":[1,3,5,7,9,11,13,-1,-1,-1,-1,-1,-1,-1,-1],"loss_changes":[4.2035583E1,5.6731373E1,7.1627884E1,1.059789E2,7.73645E1,7.5533005E1,6.486875E1,0E0,0E0,0E0,0E0,0E0,0E0,0E0,0E0],"parents":[2147483647,0,0,1,1,2,2,3,3,4,4,5,5,6,6],"right_children":[2,4,6,8,10,12,14,-1,-1,-1,-1,-1,-1,-1,-1],"split_conditions":[5.7975166E-3,-7.794882E-2,-1.620289E-2,-6.301026E-2,1.9031249E-2,3.6623765E-2,-1.200572E-2,3.427304E-2,-1.8158866E-1,2.4022024E-2,-1.651172E-1,2.2125924E-1,-4.483172E-1,-3.118965E-1,6.2389158E-2],"split_indices":[497,917,218,1009,867,254,909,0,0,0,0,0,0,0,0],"split_type":[0,0,0,0,0,0,0,0,0,0,0,0,0,0,0],"sum_hessian":[4.0217908E3,3.5572783E3,4.6451236E2,8.204854E2,2.736793E3,2.738222E2,1.9069014E2,3.8481577E2,4.3566965E2,2.5269192E3,2.0987381E2,2.5863538E2,1.5186845E1,6.0021923E1,1.3066821E2],"tree_param":{"num_deleted":"0","num_feature":"1117","num_nodes":"15","size_leaf_vector":"0"}},{"base_weights":[5.471548E-5,-4.4933833E-2,2.4389423E-1,2.2414738E-2,-3.6814064E-1,3.551643E-1,-6.6581607E-1,1.3016511E-1,-2.1638882E-1,-1.0168673E0,-1.5785936E-1,3.2497627E-1,5.058776E0,-1.1592968E0,6.3638186E-1],"categories":[],"categories_nodes":[],"categories_segments":[],"categories_sizes":[],"default_left":[true,true,true,true,true,true,true,false,false,false,false,false,false,false,false],"id":57,"left_children":[1,3,5,7,9,11,13,-1,-1,-1,-1,-1,-1,-1,-1],"loss_changes":[4.3892525E1,7.353717E1,6.33218E1,7.198187E1,7.930892E1,7.7298065E1,4.4608364E1,0E0,0E0,0E0,0E0,0E0,0E0,0E0,0E0],"parents":[2147483647,0,0,1,1,2,2,3,3,4,4,5,5,6,6],"right_children":[2,4,6,8,10,12,14,-1,-1,-1,-1,-1,-1,-1,-1],"split_conditions":[4.408206E-3,4.256189E-3,2.0052616E-2,-1.5599578E-2,-2.4949484E-2,4.6822757E-2,1.6908392E-3,3.9049536E-2,-6.491665E-2,-3.050602E-1,-4.735781E-2,9.749288E-2,1.5176328E0,-3.4778905E-1,1.9091457E-1],"split_indices":[445,399,663,521,872,499,386,0,0,0,0,0,0,0,0],"split_type":[0,0,0,0,0,0,0,0,0,0,0,0,0,0,0],"sum_hessian":[3.9991475E3,3.3769194E3,6.222281E2,2.795363E3,5.815562E2,5.549586E2,6.726946E1,1.9265437E3,8.688194E2,1.4142339E2,4.4013284E2,5.524819E2,2.4767647E0,4.886234E1,1.8407124E1],"tree_param":{"num_deleted":"0","num_feature":"1117","num_nodes":"15","size_leaf_vector":"0"}},{"base_weights":[2.9656742E-4,2.0042025E-1,-4.974734E-2,3.568411E-1,-2.0182833E-1,-3.2761518E-2,-1.4262416E0,-4.838421E-1,4.7100025E-1,-1.2273769E0,3.0947453E-3,1.8978314E-1,-1.2738915E-1,-2.103414E0,-1.0492748E0],"categories":[],"categories_nodes":[],"categories_segments":[],"categories_sizes":[],"default_left":[true,true,true,true,true,true,true,false,false,false,false,false,false,false,false],"id":58,"left_children":[1,3,5,7,9,11,13,-1,-1,-1,-1,-1,-1,-1,-1],"loss_changes":[3.983932E1,5.014131E1,7.435644E1,5.5250183E1,4.6962097E1,6.624286E1,7.688843E0,0E0,0E0,0E0,0E0,0E0,0E0,0E0,0E0],"parents":[2147483647,0,0,1,1,2,2,3,3,4,4,5,5,6,6],"right_children":[2,4,6,8,10,12,14,-1,-1,-1,-1,-1,-1,-1,-1],"split_conditions":[-1.8817624E-2,1.4740784E-1,4.4590503E-2,6.7233774E-3,-7.629293E-3,-1.4332514E-2,-3.612581E-2,-1.4515264E-1,1.4130008E-1,-3.682131E-1,9.2842366E-4,5.6934945E-2,-3.8216747E-2,-6.3102424E-1,-3.1478244E-1],"split_indices":[876,639,144,534,670,840,515,0,0,0,0,0,0,0,0],"split_type":[0,0,0,0,0,0,0,0,0,0,0,0,0,0,0],"sum_hessian":[3.9759814E3,7.947603E2,3.1812212E3,5.7231805E2,2.2244225E2,3.143455E3,3.7766167E1,6.80381E1,5.0427997E2,3.6214645E1,1.862276E2,9.375426E2,2.2059124E3,1.1867639E1,2.589853E1],"tree_param":{"num_deleted":"0","num_feature":"1117","num_nodes":"15","size_leaf_vector":"0"}},{"base_weights":[5.854697E-4,-6.521712E-1,1.6607968E-2,-1.0588149E0,3.1113765E-1,-3.6920346E-2,2.534078E-1,-1.2580925E0,1.1653122E0,1.0362678E0,-1.2187967E0,8.634513E-1,-5.8757763E-2,3.642326E-1,-9.8055047E-1],"categories":[],"categories_nodes":[],"categories_segments":[],"categories_sizes":[],"default_left":[true,true,true,true,true,true,true,false,false,false,false,false,false,false,false],"id":59,"left_children":[1,3,5,7,9,11,13,-1,-1,-1,-1,-1,-1,-1,-1],"loss_changes":[4.134336E1,3.742753E1,4.8914413E1,3.108223E1,3.3307125E1,6.1941322E1,9.76539E1,0E0,0E0,0E0,0E0,0E0,0E0,0E0,0E0],"parents":[2147483647,0,0,1,1,2,2,3,3,4,4,5,5,6,6],"right_children":[2,4,6,8,10,12,14,-1,-1,-1,-1,-1,-1,-1,-1],"split_conditions":[-9.614941E-3,2.1386096E-2,1.160318E-3,6.226901E-2,-1.0770153E-2,3.320869E-4,-5.3528696E-2,-3.774278E-1,3.4959367E-1,3.1088033E-1,-3.6563903E-1,2.590354E-1,-1.762733E-2,1.0926978E-1,-2.9416516E-1],"split_indices":[767,763,61,27,64,339,502,0,0,0,0,0,0,0,0],"split_type":[0,0,0,0,0,0,0,0,0,0,0,0,0,0,0],"sum_hessian":[3.9509412E3,9.370477E1,3.8572363E3,6.582062E1,2.7884151E1,3.1467593E3,7.10477E2,6.080679E1,5.013832E0,1.9136744E1,8.747409E0,7.3600975E1,3.0731584E3,6.525727E2,5.790432E1],"tree_param":{"num_deleted":"0","num_feature":"1117","num_nodes":"15","size_leaf_vector":"0"}},{"base_weights":[-2.938124E-4,-2.1099961E-1,4.812716E-2,-3.4976253E-1,5.3475165E-1,-1.1502211E0,6.407567E-2,2.5645453E-1,-5.592519E-1,2.5167704E-1,2.4253314E0,-2.0102906E0,1.8881905E-1,7.735452E-2,-1.167795E0],"categories":[],"categories_nodes":[],"categories_segments":[],"categories_sizes":[],"default_left":[true,true,true,true,true,true,true,false,false,false,false,false,false,false,false],"id":60,"left_children":[1,3,5,7,9,11,13,-1,-1,-1,-1,-1,-1,-1,-1],"loss_changes":[4.017721E1,7.633502E1,6.127181E1,7.901003E1,6.1382298E1,4.8875126E1,5.1797226E1,0E0,0E0,0E0,0E0,0E0,0E0,0E0,0E0],"parents":[2147483647,0,0,1,1,2,2,3,3,4,4,5,5,6,6],"right_children":[2,4,6,8,10,12,14,-1,-1,-1,-1,-1,-1,-1,-1],"split_conditions":[-3.4162603E-2,2.3547458E-3,-3.588064E-2,-3.3907942E-2,1.735716E-3,1.8683732E-1,2.6494313E-2,7.6936364E-2,-1.6777557E-1,7.550311E-2,7.2759944E-1,-6.030872E-1,5.6645717E-2,2.3206357E-2,-3.503385E-1],"split_indices":[671,1006,412,368,400,482,501,0,0,0,0,0,0,0,0],"split_type":[0,0,0,0,0,0,0,0,0,0,0,0,0,0,0],"sum_hessian":[3.9359512E3,7.348527E2,3.2010986E3,6.200164E2,1.1483628E2,4.1108974E1,3.1599895E3,1.5917477E2,4.6084164E2,1.0086673E2,1.3969555E1,2.472606E1,1.6382915E1,3.1272173E3,3.277237E1],"tree_param":{"num_deleted":"0","num_feature":"1117","num_nodes":"15","size_leaf_vector":"0"}},{"base_weights":[-2.6028897E-4,1.0273962E-2,-8.793777E-1,3.070898E-2,-4.5007148E-1,-1.27086E0,3.4986094E-1,2.3117538E-3,6.2784785E-1,6.753628E-2,-9.475338E-1,-1.470207E0,5.035968E-1,9.2606694E-1,-9.321279E-1],"categories":[],"categories_nodes":[],"categories_segments":[],"categories_sizes":[],"default_left":[true,true,true,true,true,true,true,false,false,false,false,false,false,false,false],"id":61,"left_children":[1,3,5,7,9,11,13,-1,-1,-1,-1,-1,-1,-1,-1],"loss_changes":[3.6294476E1,3.644544E1,2.2776329E1,6.2893745E1,4.2465103E1,1.326696E1,9.722616E0,0E0,0E0,0E0,0E0,0E0,0E0,0E0,0E0],"parents":[2147483647,0,0,1,1,2,2,3,3,4,4,5,5,6,6],"right_children":[2,4,6,8,10,12,14,-1,-1,-1,-1,-1,-1,-1,-1],"split_conditions":[1.503893E-2,1.5282968E-2,3.5128242E-4,5.5577043E-2,-2.093148E-2,4.7957625E-2,-2.3909539E-2,6.935262E-4,1.8835436E-1,2.0260885E-2,-2.8426015E-1,-4.4106212E-1,1.5107904E-1,2.7782008E-1,-2.7963838E-1],"split_indices":[286,329,827,770,562,70,707,0,0,0,0,0,0,0,0],"split_type":[0,0,0,0,0,0,0,0,0,0,0,0,0,0,0],"sum_hessian":[3.917157E3,3.8717512E3,4.540594E1,3.7080803E3,1.6367067E2,3.4412537E1,1.0993404E1,3.5407043E3,1.6737602E2,8.063474E1,8.3035934E1,3.1091139E1,3.3213966E0,7.776011E0,3.2173932E0],"tree_param":{"num_deleted":"0","num_feature":"1117","num_nodes":"15","size_leaf_vector":"0"}},{"base_weights":[-1.085874E-3,1.3656201E-2,-6.215432E-1,-3.421516E-2,2.3276949E-1,-9.912111E-1,1.3059585E-1,-2.963345E-1,3.5799354E-2,3.8904557E-1,-3.1640053E-1,3.0495512E-1,-1.1692028E0,6.9596076E-1,-1.1268042E0],"categories":[],"categories_nodes":[],"categories_segments":[],"categories_sizes":[],"default_left":[true,true,true,true,true,true,true,false,false,false,false,false,false,false,false],"id":62,"left_children":[1,3,5,7,9,11,13,-1,-1,-1,-1,-1,-1,-1,-1],"loss_changes":[3.5661217E1,3.9954597E1,2.5287899E1,5.7386093E1,5.8737717E1,1.4379749E1,2.2609121E1,0E0,0E0,0E0,0E0,0E0,0E0,0E0,0E0],"parents":[2147483647,0,0,1,1,2,2,3,3,4,4,5,5,6,6],"right_children":[2,4,6,8,10,12,14,-1,-1,-1,-1,-1,-1,-1,-1],"split_conditions":[3.968655E-3,-1.934251E-2,-6.0651163E-3,-1.9731041E-2,3.1198016E-3,-4.911247E-2,-1.793006E-2,-8.890036E-2,1.0739807E-2,1.1671367E-1,-9.4920166E-2,9.148654E-2,-3.5076085E-1,2.0878823E-1,-3.3804128E-1],"split_indices":[256,256,803,135,762,380,248,0,0,0,0,0,0,0,0],"split_type":[0,0,0,0,0,0,0,0,0,0,0,0,0,0,0],"sum_hessian":[3.8968242E3,3.8073396E3,8.948445E1,3.1253618E3,6.8197797E2,5.978362E1,2.9700832E1,6.581514E2,2.4672104E3,5.311277E2,1.5085023E2,7.132224E0,5.2651394E1,2.0796576E1,8.904257E0],"tree_param":{"num_deleted":"0","num_feature":"1117","num_nodes":"15","size_leaf_vector":"0"}},{"base_weights":[-1.3796658E-3,-2.3996802E-1,4.0782988E-2,-7.4975795E-1,7.452841E-2,5.8847364E-2,-6.676298E-1,-1.3937377E0,-1.5432735E-1,2.6019925E-1,-9.533892E-1,5.7060224E-1,3.2565683E-2,-1.011647E0,5.5511206E-1],"categories":[],"categories_nodes":[],"categories_segments":[],"categories_sizes":[],"default_left":[true,true,true,true,true,true,true,false,false,false,false,false,false,false,false],"id":63,"left_children":[1,3,5,7,9,11,13,-1,-1,-1,-1,-1,-1,-1,-1],"loss_changes":[3.8999405E1,9.340145E1,4.2201332E1,8.4997635E1,6.914464E1,4.320454E1,3.505669E1,0E0,0E0,0E0,0E0,0E0,0E0,0E0,0E0],"parents":[2147483647,0,0,1,1,2,2,3,3,4,4,5,5,6,6],"right_children":[2,4,6,8,10,12,14,-1,-1,-1,-1,-1,-1,-1,-1],"split_conditions":[-3.6956698E-2,-7.945115E-3,1.4820827E-2,1.9428115E-2,3.6247797E-2,-8.859726E-3,3.055594E-2,-4.181213E-1,-4.6298206E-2,7.805978E-2,-2.860168E-1,1.7118068E-1,9.769705E-3,-3.034941E-1,1.6653362E-1],"split_indices":[428,989,962,350,998,997,175,0,0,0,0,0,0,0,0],"split_type":[0,0,0,0,0,0,0,0,0,0,0,0,0,0,0],"sum_hessian":[3.8748928E3,5.8121954E2,3.2936733E3,2.2122919E2,3.5999033E2,3.212668E3,8.100542E1,1.05637596E2,1.1559159E2,3.0554684E2,5.4443485E1,1.5591876E2,3.0567493E3,6.335359E1,1.7651833E1],"tree_param":{"num_deleted":"0","num_feature":"1117","num_nodes":"15","size_leaf_vector":"0"}},{"base_weights":[-1.3403919E-3,2.1333022E-3,-2.6968963E0,2.3532253E-2,-4.4140518E-1,-5.3035727E0,1.5302515E-1,7.453961E-1,8.417349E-3,9.546102E-2,-8.835308E-1,-4.0082422E-1,5.9370404E-1],"categories":[],"categories_nodes":[],"categories_segments":[],"categories_sizes":[],"default_left":[true,true,true,true,true,false,true,false,false,false,false,false,false],"id":64,"left_children":[1,3,5,7,9,-1,11,-1,-1,-1,-1,-1,-1],"loss_changes":[3.5866756E1,3.6323254E1,3.7434772E1,3.9827103E1,4.1893486E1,0E0,1.0499939E0,0E0,0E0,0E0,0E0,0E0,0E0],"parents":[2147483647,0,0,1,1,2,2,3,3,4,4,6,6],"right_children":[2,4,6,8,10,-1,12,-1,-1,-1,-1,-1,-1],"split_conditions":[8.316204E-2,2.7498495E-2,-1.0719463E-2,-2.3164004E-2,-3.4497887E-2,-1.5910718E0,-2.0804765E-2,2.2361884E-1,2.5252048E-3,2.8638307E-2,-2.6505926E-1,-1.2024727E-1,1.7811123E-1],"split_indices":[20,858,752,87,642,0,1,0,0,0,0,0,0],"split_type":[0,0,0,0,0,0,0,0,0,0,0,0,0],"sum_hessian":[3.8288572E3,3.8249272E3,3.9298778E0,3.6497866E3,1.7514061E2,1.6028653E0,2.3270123E0,7.386359E1,3.575923E3,7.944991E1,9.56907E1,1.071181E0,1.2558312E0],"tree_param":{"num_deleted":"0","num_feature":"1117","num_nodes":"13","size_leaf_vector":"0"}},{"base_weights":[-1.4083913E-3,4.449303E-2,-2.0731446E-1,1.5612185E-1,-1.00839555E-1,-7.991708E-2,-9.6264356E-1,2.3784804E-1,-2.0578246E-1,-2.9188E-1,2.3350632E-1,8.720258E-2,-5.51154E-1,2.217045E-1,-1.2061254E0],"categories":[],"categories_nodes":[],"categories_segments":[],"categories_sizes":[],"default_left":[true,true,true,true,true,true,true,false,false,false,false,false,false,false,false],"id":65,"left_children":[1,3,5,7,9,11,13,-1,-1,-1,-1,-1,-1,-1,-1],"loss_changes":[3.6073177E1,5.0648598E1,6.687183E1,5.2269306E1,8.6707954E1,4.701774E1,2.9196457E1,0E0,0E0,0E0,0E0,0E0,0E0,0E0,0E0],"parents":[2147483647,0,0,1,1,2,2,3,3,4,4,5,5,6,6],"right_children":[2,4,6,8,10,12,14,-1,-1,-1,-1,-1,-1,-1,-1],"split_conditions":[-4.2468667E-2,5.0915398E-2,-4.599452E-3,1.3588387E-2,3.321577E-2,4.3458097E-2,-3.952518E-2,7.135442E-2,-6.173474E-2,-8.756401E-2,7.00519E-2,2.6160775E-2,-1.653462E-1,6.6511355E-2,-3.6183763E-1],"split_indices":[820,550,117,924,906,349,70,0,0,0,0,0,0,0,0],"split_type":[0,0,0,0,0,0,0,0,0,0,0,0,0,0,0],"sum_hessian":[3.8147334E3,3.1199954E3,6.9473816E2,1.7645693E3,1.355426E3,5.9541797E2,9.932021E1,1.4397776E3,3.247917E2,8.6264813E2,4.9277786E2,4.4014108E2,1.5527686E2,1.6951908E1,8.236831E1],"tree_param":{"num_deleted":"0","num_feature":"1117","num_nodes":"15","size_leaf_vector":"0"}},{"base_weights":[-1.0368907E-3,1.6897108E-2,-5.417237E-1,2.3677292E-1,-2.998198E-2,-1.1020262E0,5.027252E-1,-4.3657005E-1,3.3358347E-1,-1.4089156E-3,-7.991411E-1,-1.9054283E0,-3.735006E-1,8.4559435E-1,-1.3635193E0],"categories":[],"categories_nodes":[],"categories_segments":[],"categories_sizes":[],"default_left":[true,true,true,true,true,true,true,false,false,false,false,false,false,false,false],"id":66,"left_children":[1,3,5,7,9,11,13,-1,-1,-1,-1,-1,-1,-1,-1],"loss_changes":[3.6739193E1,3.7807697E1,7.173701E1,4.2164417E1,6.6450806E1,4.5808228E1,2.8767948E1,0E0,0E0,0E0,0E0,0E0,0E0,0E0,0E0],"parents":[2147483647,0,0,1,1,2,2,3,3,4,4,5,5,6,6],"right_children":[2,4,6,8,10,12,14,-1,-1,-1,-1,-1,-1,-1,-1],"split_conditions":[5.910571E-2,-1.1339109E-2,3.1181563E-2,-2.2638505E-2,5.4250285E-2,5.062737E-2,-1.6646963E-2,-1.3097101E-1,1.00075044E-1,-4.226747E-4,-2.3974234E-1,-5.716285E-1,-1.1205018E-1,2.5367832E-1,-4.090558E-1],"split_indices":[126,533,633,302,281,846,830,0,0,0,0,0,0,0,0],"split_type":[0,0,0,0,0,0,0,0,0,0,0,0,0,0,0],"sum_hessian":[3.7869E3,3.6662627E3,1.2063723E2,6.435914E2,3.0226714E3,7.84806E1,4.215663E1,8.046016E1,5.631312E2,2.9153716E3,1.0729969E2,3.655409E1,4.192651E1,3.607566E1,6.0809727E0],"tree_param":{"num_deleted":"0","num_feature":"1117","num_nodes":"15","size_leaf_vector":"0"}},{"base_weights":[8.69531E-6,-9.2215335E-1,9.254976E-3,1.1406862E0,-1.2331996E0,2.641576E-2,-4.9647674E-1,3.1915677E-1,1.5022453E0,-1.0956259E0,-1.6500586E0,-1.2622404E-1,8.893757E-2,8.447522E-1,-8.926259E-1],"categories":[],"categories_nodes":[],"categories_segments":[],"categories_sizes":[],"default_left":[true,true,true,true,true,true,true,false,false,false,false,false,false,false,false],"id":67,"left_children":[1,3,5,7,9,11,13,-1,-1,-1,-1,-1,-1,-1,-1],"loss_changes":[3.2123314E1,2.5404047E1,3.2385178E1,1.1304469E0,8.3530426E-2,3.4448956E1,6.5823715E1,0E0,0E0,0E0,0E0,0E0,0E0,0E0,0E0],"parents":[2147483647,0,0,1,1,2,2,3,3,4,4,5,5,6,6],"right_children":[2,4,6,8,10,12,14,-1,-1,-1,-1,-1,-1,-1,-1],"split_conditions":[-4.8532005E-2,-8.683594E-2,1.4273372E-1,3.5167858E-2,1.8895345E-2,8.161682E-3,-2.5493527E-2,9.574703E-2,4.506736E-1,-3.286878E-1,-4.9501762E-1,-3.7867215E-2,2.6681272E-2,2.5342566E-1,-2.6778778E-1],"split_indices":[728,393,481,60,822,78,929,0,0,0,0,0,0,0,0],"split_type":[0,0,0,0,0,0,0,0,0,0,0,0,0,0,0],"sum_hessian":[3.7654363E3,3.6400116E1,3.7290361E3,4.4199595E0,3.1980158E1,3.6075698E3,1.214664E2,1.9261388E0,2.493821E0,2.6772776E1,5.2073827E0,1.0479941E3,2.5595757E3,2.7438017E1,9.402838E1],"tree_param":{"num_deleted":"0","num_feature":"1117","num_nodes":"15","size_leaf_vector":"0"}},{"base_weights":[-3.2323375E-4,-3.2792736E-2,2.4512757E-1,-1.9396584E-2,-1.12777E0,3.1324103E-1,-1.5406573E0,-1.2817085E0,-8.2191825E-3,7.7980083E-1,-1.8569565E0,3.7380102E-1,-1.2796835E0,1.8212424E-1,-2.4281914E0],"categories":[],"categories_nodes":[],"categories_segments":[],"categories_sizes":[],"default_left":[true,true,true,true,true,true,true,false,false,false,false,false,false,false,false],"id":68,"left_children":[1,3,5,7,9,11,13,-1,-1,-1,-1,-1,-1,-1,-1],"loss_changes":[2.987457E1,4.8539364E1,5.375216E1,4.6149506E1,5.7080475E1,4.1253536E1,2.5303085E1,0E0,0E0,0E0,0E0,0E0,0E0,0E0,0E0],"parents":[2147483647,0,0,1,1,2,2,3,3,4,4,5,5,6,6],"right_children":[2,4,6,8,10,12,14,-1,-1,-1,-1,-1,-1,-1,-1],"split_conditions":[4.091572E-2,4.2734623E-2,3.5694934E-2,-4.6424627E-2,-1.2586224E-1,1.5959175E-2,-3.3830136E-2,-3.8451257E-1,-2.4657547E-3,2.3394026E-1,-5.5708694E-1,1.1214031E-1,-3.8390505E-1,5.4637276E-2,-7.2845745E-1],"split_indices":[292,26,1019,847,384,840,248,0,0,0,0,0,0,0,0],"split_type":[0,0,0,0,0,0,0,0,0,0,0,0,0,0,0],"sum_hessian":[3.7465261E3,3.3095837E3,4.3694247E2,3.2705884E3,3.899527E1,4.216832E2,1.525926E1,2.770824E1,3.2428801E3,1.0764818E1,2.8230452E1,4.0697607E2,1.4707129E1,5.4585443E0,9.800715E0],"tree_param":{"num_deleted":"0","num_feature":"1117","num_nodes":"15","size_leaf_vector":"0"}},{"base_weights":[-2.495745E-4,2.584275E-1,-3.221604E-2,2.917583E-1,-3.6748917E0,-2.0477002E-2,-1.0912148E0,-4.298908E-1,4.38999E-1,-6.635193E-1,-5.50176E0,-1.14829935E-1,1.1265217E-1,4.1404995E-1,-1.6883585E0],"categories":[],"categories_nodes":[],"categories_segments":[],"categories_sizes":[],"default_left":[true,true,true,true,true,true,true,false,false,false,false,false,false,false,false],"id":69,"left_children":[1,3,5,7,9,11,13,-1,-1,-1,-1,-1,-1,-1,-1],"loss_changes":[3.0752811E1,5.469769E1,4.1126396E1,4.3385006E1,1.566275E1,4.11473E1,3.3300808E1,0E0,0E0,0E0,0E0,0E0,0E0,0E0,0E0],"parents":[2147483647,0,0,1,1,2,2,3,3,4,4,5,5,6,6],"right_children":[2,4,6,8,10,12,14,-1,-1,-1,-1,-1,-1,-1,-1],"split_conditions":[-1.004483E-2,8.7580234E-2,4.6825513E-2,-5.8553927E-2,2.3465924E-2,5.807191E-2,-5.8041178E-2,-1.2896726E-1,1.3169971E-1,-1.990558E-1,-1.6505281E0,-3.444898E-2,3.379565E-2,1.2421499E-1,-5.065076E-1],"split_indices":[300,891,144,332,664,148,817,0,0,0,0,0,0,0,0],"split_type":[0,0,0,0,0,0,0,0,0,0,0,0,0,0,0],"sum_hessian":[3.7170454E3,4.0804053E2,3.309005E3,4.055299E2,2.5106227E0,3.2737346E3,3.5270123E1,6.839515E1,3.3713474E2,1.4627147E0,1.0479081E0,1.9159656E3,1.3577692E3,1.0104806E1,2.5165318E1],"tree_param":{"num_deleted":"0","num_feature":"1117","num_nodes":"15","size_leaf_vector":"0"}},{"base_weights":[-3.2033352E-4,5.249787E-2,-1.6033536E-1,-1.18771225E-1,1.6354391E-1,2.573175E-2,-5.87164E-1,-5.082552E-1,6.7152604E-2,-3.1325287E-1,2.4040633E-1,5.8829576E-2,-2.2840905E0,6.4528E-2,-9.4220036E-1],"categories":[],"categories_nodes":[],"categories_segments":[],"categories_sizes":[],"default_left":[true,true,true,true,true,true,true,false,false,false,false,false,false,false,false],"id":70,"left_children":[1,3,5,7,9,11,13,-1,-1,-1,-1,-1,-1,-1,-1],"loss_changes":[3.1281412E1,5.2942623E1,7.296237E1,7.9336716E1,6.195732E1,4.9110092E1,6.458901E1,0E0,0E0,0E0,0E0,0E0,0E0,0E0,0E0],"parents":[2147483647,0,0,1,1,2,2,3,3,4,4,5,5,6,6],"right_children":[2,4,6,8,10,12,14,-1,-1,-1,-1,-1,-1,-1,-1],"split_conditions":[1.8187042E-2,2.7690012E-2,1.5250254E-1,-1.0884292E-2,-2.3301337E-2,4.4542275E-2,-7.7536367E-3,-1.5247656E-1,2.0145781E-2,-9.3975864E-2,7.21219E-2,1.7648874E-2,-6.8522716E-1,1.9358402E-2,-2.8266013E-1],"split_indices":[792,984,490,159,628,511,972,0,0,0,0,0,0,0,0],"split_type":[0,0,0,0,0,0,0,0,0,0,0,0,0,0,0],"sum_hessian":[3.699199E3,2.7816846E3,9.175142E2,1.0941224E3,1.6875621E3,6.3962335E2,2.7789087E2,3.52969E2,7.411535E2,2.3385095E2,1.4537112E3,6.3154834E2,8.07503E0,9.829055E1,1.7960033E2],"tree_param":{"num_deleted":"0","num_feature":"1117","num_nodes":"15","size_leaf_vector":"0"}},{"base_weights":[2.296852E-4,7.675752E-3,-1.069384E0,1.6595814E-1,-4.6386268E-2,-1.2642853E0,6.536837E-1,-2.3198481E-1,3.331437E-1,-4.6277964E-1,-2.0015636E-3,-1.7396041E0,-1.0627909E0],"categories":[],"categories_nodes":[],"categories_segments":[],"categories_sizes":[],"default_left":[true,true,true,true,true,true,false,false,false,false,false,false,false],"id":71,"left_children":[1,3,5,7,9,11,-1,-1,-1,-1,-1,-1,-1],"loss_changes":[2.9322412E1,3.1293999E1,9.374163E0,6.202173E1,5.0381927E1,3.7379456E-1,0E0,0E0,0E0,0E0,0E0,0E0,0E0],"parents":[2147483647,0,0,1,1,2,2,3,3,4,4,5,5],"right_children":[2,4,6,8,10,12,-1,-1,-1,-1,-1,-1,-1],"split_conditions":[6.2312126E-2,-5.119709E-2,2.1999765E-2,-1.1044544E-2,-9.174858E-3,-1.54879615E-2,1.9610512E-1,-6.959545E-2,9.994312E-2,-1.388339E-1,-6.0046907E-4,-5.218813E-1,-3.1883729E-1],"split_indices":[414,515,464,426,1004,952,0,0,0,0,0,0,0],"split_type":[0,0,0,0,0,0,0,0,0,0,0,0,0],"sum_hessian":[3.679648E3,3.6551953E3,2.4452652E1,9.3007086E2,2.7251243E3,2.2207008E1,2.245643E0,2.7503415E2,6.5503674E2,2.615911E2,2.4635332E3,4.338685E0,1.7868324E1],"tree_param":{"num_deleted":"0","num_feature":"1117","num_nodes":"13","size_leaf_vector":"0"}},{"base_weights":[3.1917365E-4,1.0637911E-2,-7.5796866E-1,-7.875317E-3,4.7546276E-1,-1.2705005E0,4.9739074E-2,7.295189E-2,-1.2988089E-1,-1.1480278E0,6.7354447E-1,-1.3207945E0,7.1961924E-2,6.9989467E-1,-1.1466668E0],"categories":[],"categories_nodes":[],"categories_segments":[],"categories_sizes":[],"default_left":[true,true,true,true,true,true,true,false,false,false,false,false,false,false,false],"id":72,"left_children":[1,3,5,7,9,11,13,-1,-1,-1,-1,-1,-1,-1,-1],"loss_changes":[2.8503723E1,3.093081E1,2.0309162E1,3.4102566E1,4.5046757E1,2.1177368E0,1.6319286E1,0E0,0E0,0E0,0E0,0E0,0E0,0E0,0E0],"parents":[2147483647,0,0,1,1,2,2,3,3,4,4,5,5,6,6],"right_children":[2,4,6,8,10,12,14,-1,-1,-1,-1,-1,-1,-1,-1],"split_conditions":[1.7603524E-2,5.1024426E-2,2.069552E-2,9.755852E-3,-3.7673146E-2,6.750095E-2,1.6171396E-2,2.1885568E-2,-3.8964268E-2,-3.4440833E-1,2.0206335E-1,-3.9623836E-1,2.1588579E-2,2.099684E-1,-3.4400004E-1],"split_indices":[149,219,122,103,197,957,1021,0,0,0,0,0,0,0,0],"split_type":[0,0,0,0,0,0,0,0,0,0,0,0,0,0,0],"sum_hessian":[3.6408167E3,3.5929106E3,4.7906147E1,3.4562373E3,1.3667332E2,2.8957907E1,1.8948242E1,2.0791968E3,1.3770405E3,1.4340653E1,1.22332664E2,2.7927763E1,1.0301435E0,1.2545643E1,6.4026E0],"tree_param":{"num_deleted":"0","num_feature":"1117","num_nodes":"15","size_leaf_vector":"0"}},{"base_weights":[-1.8582662E-4,-2.402664E-1,3.1815875E-2,-7.3905164E-1,7.903452E-2,1.2180745E-1,-1.00164555E-1,-1.0291977E0,2.0667472E-1,-2.1019514E-1,7.655227E-1,2.7537382E-1,-6.7668885E-2,-2.1219362E-1,2.650574E-1],"categories":[],"categories_nodes":[],"categories_segments":[],"categories_sizes":[],"default_left":[true,true,true,true,true,true,true,false,false,false,false,false,false,false,false],"id":73,"left_children":[1,3,5,7,9,11,13,-1,-1,-1,-1,-1,-1,-1,-1],"loss_changes":[2.792657E1,6.814695E1,3.8106186E1,4.6026352E1,5.2095093E1,5.552083E1,5.328172E1,0E0,0E0,0E0,0E0,0E0,0E0,0E0,0E0],"parents":[2147483647,0,0,1,1,2,2,3,3,4,4,5,5,6,6],"right_children":[2,4,6,8,10,12,14,-1,-1,-1,-1,-1,-1,-1,-1],"split_conditions":[1.8738594E-2,9.676702E-5,-2.7798887E-2,-3.2517627E-2,-1.6863724E-2,5.085621E-3,1.014353E-2,-3.0875933E-1,6.200242E-2,-6.305855E-2,2.2965683E-1,8.261215E-2,-2.0300666E-2,-6.365809E-2,7.951723E-2],"split_indices":[934,187,40,545,578,412,655,0,0,0,0,0,0,0,0],"split_type":[0,0,0,0,0,0,0,0,0,0,0,0,0,0,0],"sum_hessian":[3.6328638E3,4.2652377E2,3.2063398E3,1.6596013E2,2.6056366E2,1.906476E3,1.2998639E3,1.2693009E2,3.903004E1,1.8381355E2,7.67501E1,1.0527733E3,8.5370264E2,9.950568E2,3.0480713E2],"tree_param":{"num_deleted":"0","num_feature":"1117","num_nodes":"15","size_leaf_vector":"0"}},{"base_weights":[5.26333E-4,-1.7694579E-1,4.7148768E-2,-1.04896195E-1,-1.1184939E0,6.680497E-2,-6.0256284E-1,-1.3454798E0,-4.431982E-2,-1.4552824E0,8.903148E-1,7.93966E-2,-9.389328E-1,-1.2809937E0,1.4542936E-1],"categories":[],"categories_nodes":[],"categories_segments":[],"categories_sizes":[],"default_left":[true,true,true,true,true,true,true,false,false,false,false,false,false,false,false],"id":74,"left_children":[1,3,5,7,9,11,13,-1,-1,-1,-1,-1,-1,-1,-1],"loss_changes":[2.9898243E1,5.0881325E1,3.6586113E1,5.250293E1,3.737883E1,3.526148E1,4.2880684E1,0E0,0E0,0E0,0E0,0E0,0E0,0E0,0E0],"parents":[2147483647,0,0,1,1,2,2,3,3,4,4,5,5,6,6],"right_children":[2,4,6,8,10,12,14,-1,-1,-1,-1,-1,-1,-1,-1],"split_conditions":[-4.1325606E-2,-2.5770735E-2,3.3252485E-2,-3.949499E-2,5.2259408E-2,1.4266941E-1,1.1999901E-2,-4.0364397E-1,-1.3295947E-2,-4.3658474E-1,2.6709446E-1,2.381898E-2,-2.8167984E-1,-3.8429812E-1,4.3628808E-2],"split_indices":[329,65,385,241,982,481,191,0,0,0,0,0,0,0,0],"split_type":[0,0,0,0,0,0,0,0,0,0,0,0,0,0,0],"sum_hessian":[3.6114294E3,7.507693E2,2.8606602E3,6.9843475E2,5.2334557E1,2.7775269E3,8.3133354E1,3.152859E1,6.669061E2,4.505617E1,7.2783833E0,2.7440923E3,3.3434425E1,4.3220066E1,3.9913284E1],"tree_param":{"num_deleted":"0","num_feature":"1117","num_nodes":"15","size_leaf_vector":"0"}},{"base_weights":[-2.2499727E-4,-1.0706098E0,6.921502E-3,2.0006981E-1,-2.042472E0,5.3693926E-1,-6.9616865E-3,-1.9296283E0,7.7430844E-1,-2.691534E0,-1.2247092E0,3.811274E0,3.724835E-1,-8.9123374E-1,3.9803726E-3],"categories":[],"categories_nodes":[],"categories_segments":[],"categories_sizes":[],"default_left":[true,true,true,true,true,true,true,false,